{"learner":{"attributes":{"best_iteration":"274","best_score":"0.21975702665741056"},"feature_names":["Price in €/MWh","price_lag1","price_lag2","price_lag3","price_lag4","price_rolling_std","Controlled output requirements in MW","slope","dev_mean","dev_min","dev_max","mild_excursions","deep_excursions","var","skewness","kurtosis","entropy","max_abs_rocof","mean_abs_rocof","rocof_std","rocof_shock_count","shock_depth","recovery_time","post_shock_var","hour","day_of_week"],"feature_types":["float","float","float","float","float","float","float","float","float","float","float","int","int","float","float","float","float","float","float","float","int","float","int","float","int","int"],"gradient_booster":{"model":{"cats":{"enc":[],"feature_segments":[],"sorted_idx":[]},"gbtree_model_param":{"num_parallel_tree":"1","num_trees":"375"},"iteration_indptr":[0,1,2,3,4,5,6,7,8,9,10,11,12,13,14,15,16,17,18,19,20,21,22,23,24,25,26,27,28,29,30,31,32,33,34,35,36,37,38,39,40,41,42,43,44,45,46,47,48,49,50,51,52,53,54,55,56,57,58,59,60,61,62,63,64,65,66,67,68,69,70,71,72,73,74,75,76,77,78,79,80,81,82,83,84,85,86,87,88,89,90,91,92,93,94,95,96,97,98,99,100,101,102,103,104,105,106,107,108,109,110,111,112,113,114,115,116,117,118,119,120,121,122,123,124,125,126,127,128,129,130,131,132,133,134,135,136,137,138,139,140,141,142,143,144,145,146,147,148,149,150,151,152,153,154,155,156,157,158,159,160,161,162,163,164,165,166,167,168,169,170,171,172,173,174,175,176,177,178,179,180,181,182,183,184,185,186,187,188,189,190,191,192,193,194,195,196,197,198,199,200,201,202,203,204,205,206,207,208,209,210,211,212,213,214,215,216,217,218,219,220,221,222,223,224,225,226,227,228,229,230,231,232,233,234,235,236,237,238,239,240,241,242,243,244,245,246,247,248,249,250,251,252,253,254,255,256,257,258,259,260,261,262,263,264,265,266,267,268,269,270,271,272,273,274,275,276,277,278,279,280,281,282,283,284,285,286,287,288,289,290,291,292,293,294,295,296,297,298,299,300,301,302,303,304,305,306,307,308,309,310,311,312,313,314,315,316,317,318,319,320,321,322,323,324,325,326,327,328,329,330,331,332,333,334,335,336,337,338,339,340,341,342,343,344,345,346,347,348,349,350,351,352,353,354,355,356,357,358,359,360,361,362,363,364,365,366,367,368,369,370,371,372,373,374,375],"tree_info":[0,0,0,0,0,0,0,0,0,0,0,0,0,0,0,0,0,0,0,0,0,0,0,0,0,0,0,0,0,0,0,0,0,0,0,0,0,0,0,0,0,0,0,0,0,0,0,0,0,0,0,0,0,0,0,0,0,0,0,0,0,0,0,0,0,0,0,0,0,0,0,0,0,0,0,0,0,0,0,0,0,0,0,0,0,0,0,0,0,0,0,0,0,0,0,0,0,0,0,0,0,0,0,0,0,0,0,0,0,0,0,0,0,0,0,0,0,0,0,0,0,0,0,0,0,0,0,0,0,0,0,0,0,0,0,0,0,0,0,0,0,0,0,0,0,0,0,0,0,0,0,0,0,0,0,0,0,0,0,0,0,0,0,0,0,0,0,0,0,0,0,0,0,0,0,0,0,0,0,0,0,0,0,0,0,0,0,0,0,0,0,0,0,0,0,0,0,0,0,0,0,0,0,0,0,0,0,0,0,0,0,0,0,0,0,0,0,0,0,0,0,0,0,0,0,0,0,0,0,0,0,0,0,0,0,0,0,0,0,0,0,0,0,0,0,0,0,0,0,0,0,0,0,0,0,0,0,0,0,0,0,0,0,0,0,0,0,0,0,0,0,0,0,0,0,0,0,0,0,0,0,0,0,0,0,0,0,0,0,0,0,0,0,0,0,0,0,0,0,0,0,0,0,0,0,0,0,0,0,0,0,0,0,0,0,0,0,0,0,0,0,0,0,0,0,0,0,0,0,0,0,0,0,0,0,0,0,0,0,0,0,0,0,0,0,0,0,0,0,0,0,0,0,0,0,0,0,0,0,0,0,0,0,0,0,0,0,0,0,0,0,0,0,0,0],"trees":[{"base_weights":[2.4863682E-3,-5.9311664E-1,3.3913553E0,-7.543793E-1,6.067415E-1,1.9167305E0,4.574084E0,-8.139609E-1,1.0216782E-1,6.6544935E-2,1.1841094E0,9.9346554E-1,2.6490967E0,3.4215016E0,5.0702877E0,-8.5384446E-1,-5.646179E-1,-2.2160217E-2,7.0962036E-1,-1.703096E-1,6.4013416E-1,9.129759E-1,2.9877975E0,6.750947E-1,1.4272271E0,1.7195736E0,3.1367972E0,2.541322E0,3.7369783E0,3.478599E0,5.2958174E0,-8.7838286E-1,-5.8953637E-1,-6.4334273E-1,-1.6888092E-1,-1.3520557E-1,4.111014E-1,-5.1361447E-8,1.1043955E0,-3.2642844E-1,8.4202784E-1,1.059829E0,2.0847209E-1,5.61619E-1,1.7761148E0,3.5795453E0,1.9429384E0,1.5173744E0,4.3566462E-1,7.103063E-1,1.9160419E0,3.0425957E-1,2.2293577E0,2.4490776E0,3.9861875E0,3.7132483E0,2.022519E0,2.536184E0,4.083007E0,2.25974E0,3.9024386E0,1.1076709E-1,4.845109E0,-5.425135E-3,-1.7760787E-2,-1.0302524E-9,-1.2565729E-2,8.450703E-3,-1.326444E-2,2.1505365E-3,-1.0376399E-2,-9.4439526E-4,-1.48387095E-2,1.1809224E-3,1.7042113E-2,-4.2023356E-3,2.9189186E-2,5.253939E-3,3.1661235E-2,-7.936047E-3,1.4416959E-2,-8.11388E-3,2.2580642E-2,4.4409446E-2,1.5741054E-2,2.5586245E-4,3.1724136E-2,2.5041029E-2,7.6187584E-3,2.24196E-2,4.3167546E-2,7.6768555E-2,2.9999997E-2,1.3043476E-2,5.127982E-2,6.526315E-2,2.250832E-2,-6.527197E-3,1.3757959E-2,1.698289E-2,-7.7419356E-3,1.7964069E-2,4.4062495E-2,-5.0299405E-3,1.6353164E-2,1.4750828E-2,4.772437E-2,3.1464733E-2,5.557469E-2,5.4999992E-2,8.4550075E-2,8.588527E-2,3.4838706E-2,4.2317156E-2,-1.2631578E-2,5.37931E-2,6.9421474E-3,3.609022E-2,8.4209934E-2,5.177419E-2,1.38461515E-2,8.01122E-2,1.116279E-2,4.6666663E-2,9.840439E-2],"categories":[],"categories_nodes":[],"categories_segments":[],"categories_sizes":[],"default_left":[0,0,0,0,0,0,0,0,0,0,0,0,0,0,0,0,0,0,0,0,0,0,0,0,0,0,0,0,0,0,0,0,0,0,0,0,0,0,0,0,0,0,0,0,0,0,0,0,0,0,0,0,0,0,0,0,0,0,0,0,0,0,0,0,0,0,0,0,0,0,0,0,0,0,0,0,0,0,0,0,0,0,0,0,0,0,0,0,0,0,0,0,0,0,0,0,0,0,0,0,0,0,0,0,0,0,0,0,0,0,0,0,0,0,0,0,0,0,0,0,0,0,0,0,0],"id":0,"left_children":[1,3,5,7,9,11,13,15,17,19,21,23,25,27,29,31,33,35,37,39,41,43,45,47,49,51,53,55,57,59,61,63,65,67,69,71,73,75,77,79,81,83,85,87,89,91,93,95,97,99,101,103,105,107,109,111,113,115,117,119,121,-1,123,-1,-1,-1,-1,-1,-1,-1,-1,-1,-1,-1,-1,-1,-1,-1,-1,-1,-1,-1,-1,-1,-1,-1,-1,-1,-1,-1,-1,-1,-1,-1,-1,-1,-1,-1,-1,-1,-1,-1,-1,-1,-1,-1,-1,-1,-1,-1,-1,-1,-1,-1,-1,-1,-1,-1,-1,-1,-1,-1,-1,-1,-1],"loss_changes":[1.5290483E4,1.2471448E3,1.96621E3,2.899673E2,2.3818082E2,3.393213E2,3.4162598E2,5.2332764E1,2.7982456E1,5.3870743E1,1.7782318E2,3.0150513E1,1.22180664E2,4.3809326E1,1.3833887E2,2.9164062E1,2.2799286E1,1.5158561E1,1.7633287E1,4.4663544E1,2.0769184E1,9.6773315E1,2.2602997E1,2.5925388E1,3.1746017E1,7.079071E1,9.734631E1,2.5186676E1,4.7481323E1,2.068518E1,1.4768555E1,2.4298828E1,8.951263E0,1.3267822E1,1.1987997E1,1.30602665E1,9.894816E0,7.513092E0,1.587891E1,1.8273159E1,1.3996269E1,1.6773232E1,1.5713497E1,2.8287872E1,2.0822144E1,1.003418E1,1.3937408E1,1.6019485E1,2.0224817E1,6.406229E0,1.4262817E1,8.020366E0,1.5244598E1,2.5631897E1,1.2371948E1,1.0050095E1,1.1114792E1,1.0414352E1,2.3314575E1,7.030945E0,1.1910706E1,0E0,1.5146973E1,0E0,0E0,0E0,0E0,0E0,0E0,0E0,0E0,0E0,0E0,0E0,0E0,0E0,0E0,0E0,0E0,0E0,0E0,0E0,0E0,0E0,0E0,0E0,0E0,0E0,0E0,0E0,0E0,0E0,0E0,0E0,0E0,0E0,0E0,0E0,0E0,0E0,0E0,0E0,0E0,0E0,0E0,0E0,0E0,0E0,0E0,0E0,0E0,0E0,0E0,0E0,0E0,0E0,0E0,0E0,0E0,0E0,0E0,0E0,0E0,0E0,0E0],"parents":[2147483647,0,0,1,1,2,2,3,3,4,4,5,5,6,6,7,7,8,8,9,9,10,10,11,11,12,12,13,13,14,14,15,15,16,16,17,17,18,18,19,19,20,20,21,21,22,22,23,23,24,24,25,25,26,26,27,27,28,28,29,29,30,30,31,31,32,32,33,33,34,34,35,35,36,36,37,37,38,38,39,39,40,40,41,41,42,42,43,43,44,44,45,45,46,46,47,47,48,48,49,49,50,50,51,51,52,52,53,53,54,54,55,55,56,56,57,57,58,58,59,59,60,60,62,62],"right_children":[2,4,6,8,10,12,14,16,18,20,22,24,26,28,30,32,34,36,38,40,42,44,46,48,50,52,54,56,58,60,62,64,66,68,70,72,74,76,78,80,82,84,86,88,90,92,94,96,98,100,102,104,106,108,110,112,114,116,118,120,122,-1,124,-1,-1,-1,-1,-1,-1,-1,-1,-1,-1,-1,-1,-1,-1,-1,-1,-1,-1,-1,-1,-1,-1,-1,-1,-1,-1,-1,-1,-1,-1,-1,-1,-1,-1,-1,-1,-1,-1,-1,-1,-1,-1,-1,-1,-1,-1,-1,-1,-1,-1,-1,-1,-1,-1,-1,-1,-1,-1,-1,-1,-1,-1],"split_conditions":[1.0048E2,8.866E1,9.33E1,8.28E1,8.616E1,7.52E1,1.105E2,7.248E1,9.83E1,1.9E1,2.1E1,2.106E1,1.1434E2,6.822E1,1.1434E2,6.781E1,5.07E2,7.864E1,6E0,8.685E1,3.867E1,8.847E1,7.403E1,-1.811E1,1.2E1,1.653E1,9.045E1,1.7357797E-3,1.0677E2,1.0526E2,1.1703778E-3,-1.774E2,-4.634E1,-1.2602E2,4.976E1,2.1E1,9.023E1,5.49E-4,2.546E1,9.01E2,4E0,-1.922E1,-1.77E-3,7E0,1.0311E2,4.0923262E-1,-2.5208E-2,-9.403E1,6E0,7.224E1,1.761E1,9.966E1,5E0,7E0,9.966E1,1.647E1,2.8885756E0,1.7045E2,3.867E1,1.7950946E-4,1.2309446E0,1.1076709E-1,2.845E1,-5.425135E-3,-1.7760787E-2,-1.0302524E-9,-1.2565729E-2,8.450703E-3,-1.326444E-2,2.1505365E-3,-1.0376399E-2,-9.4439526E-4,-1.48387095E-2,1.1809224E-3,1.7042113E-2,-4.2023356E-3,2.9189186E-2,5.253939E-3,3.1661235E-2,-7.936047E-3,1.4416959E-2,-8.11388E-3,2.2580642E-2,4.4409446E-2,1.5741054E-2,2.5586245E-4,3.1724136E-2,2.5041029E-2,7.6187584E-3,2.24196E-2,4.3167546E-2,7.6768555E-2,2.9999997E-2,1.3043476E-2,5.127982E-2,6.526315E-2,2.250832E-2,-6.527197E-3,1.3757959E-2,1.698289E-2,-7.7419356E-3,1.7964069E-2,4.4062495E-2,-5.0299405E-3,1.6353164E-2,1.4750828E-2,4.772437E-2,3.1464733E-2,5.557469E-2,5.4999992E-2,8.4550075E-2,8.588527E-2,3.4838706E-2,4.2317156E-2,-1.2631578E-2,5.37931E-2,6.9421474E-3,3.609022E-2,8.4209934E-2,5.177419E-2,1.38461515E-2,8.01122E-2,1.116279E-2,4.6666663E-2,9.840439E-2],"split_indices":[0,3,3,0,2,1,1,2,1,24,24,1,0,1,0,0,11,3,22,0,4,0,4,3,22,3,2,19,0,0,18,0,3,0,4,24,0,9,3,22,24,2,9,24,3,15,9,4,24,1,4,1,24,24,1,1,16,3,4,13,15,0,4,0,0,0,0,0,0,0,0,0,0,0,0,0,0,0,0,0,0,0,0,0,0,0,0,0,0,0,0,0,0,0,0,0,0,0,0,0,0,0,0,0,0,0,0,0,0,0,0,0,0,0,0,0,0,0,0,0,0,0,0,0,0],"split_type":[0,0,0,0,0,0,0,0,0,0,0,0,0,0,0,0,0,0,0,0,0,0,0,0,0,0,0,0,0,0,0,0,0,0,0,0,0,0,0,0,0,0,0,0,0,0,0,0,0,0,0,0,0,0,0,0,0,0,0,0,0,0,0,0,0,0,0,0,0,0,0,0,0,0,0,0,0,0,0,0,0,0,0,0,0,0,0,0,0,0,0,0,0,0,0,0,0,0,0,0,0,0,0,0,0,0,0,0,0,0,0,0,0,0,0,0,0,0,0,0,0,0,0,0,0],"sum_hessian":[7.5734727E3,6.4420835E3,1.1313889E3,5.679167E3,7.629167E2,5.0472226E2,6.266667E2,5.3098613E3,3.6930557E2,3.9472223E2,3.6819446E2,2.2430557E2,2.804167E2,1.9097223E2,4.3569446E2,4.5755557E3,7.343056E2,3.073611E2,6.1944447E1,2.798611E2,1.14861115E2,3.2138892E2,4.6805557E1,1.3083334E2,9.347223E1,9.805556E1,1.8236111E2,5.277778E1,1.3819446E2,5.6111115E1,3.7958334E2,4.1847227E3,3.9083334E2,6.1194446E2,1.22361115E2,2.4430557E2,6.3055557E1,2.2500002E1,3.9444447E1,2.4305557E2,3.6805557E1,5.7500004E1,5.7361115E1,2.2958334E2,9.180556E1,2.8333334E1,1.8472223E1,2.7777779E1,1.0305556E2,3.888889E1,5.4583336E1,2.638889E1,7.166667E1,1.0291667E2,7.944445E1,1.4305556E1,3.8472225E1,3.277778E1,1.0541667E2,1.6111113E1,4E1,2.3944446E2,1.401389E2,6.597223E1,4.11875E3,2.4166668E1,3.666667E2,1.0833334E1,6.0111115E2,6.875E1,5.3611115E1,2.1430557E2,3.0000002E1,3.5694447E1,2.7361113E1,2.0416668E1,2.0833335E0,1.4861112E1,2.4583334E1,2.2833334E2,1.4722223E1,6.805556E0,3.0000002E1,9.583334E0,4.7916668E1,5.1111115E1,6.2500005E0,4.638889E1,1.8319446E2,3.527778E1,5.652778E1,2.4444447E1,3.888889E0,6.666667E0,1.1805556E1,3.7500002E0,2.4027779E1,2.5555557E1,7.75E1,3.4722225E1,4.166667E0,1.2916667E1,4.1666668E1,1.2916667E1,1.3472223E1,7.3611116E0,6.430556E1,2.9722223E1,7.319445E1,1.5000001E1,6.444445E1,1.0138889E1,4.166667E0,3.7361115E1,1.1111112E0,3.0416668E1,2.3611112E0,6.3888893E0,9.902779E1,1.2777779E1,3.3333335E0,3.8611115E1,1.388889E0,5E0,1.351389E2],"tree_param":{"num_deleted":"0","num_feature":"26","num_nodes":"125","size_leaf_vector":"1"}},{"base_weights":[-6.4373035E-3,-5.908654E-1,3.170909E0,-7.510174E-1,5.920921E-1,9.298632E-1,4.1013618E0,-8.13247E-1,1.3082802E-1,2.300699E0,4.8656803E-1,2.7388126E-1,1.8801756E0,3.0342855E0,4.6367164E0,-8.845058E-1,-6.07746E-1,-4.394587E-1,6.3826674E-1,2.4933295E0,1.2753403E-1,3.3378017E-1,1.4853921E0,3.7353218E-2,1.3294308E0,1.2496939E0,2.737544E0,3.4682562E0,2.235567E0,3.8116105E0,5.018971E0,-9.1984594E-1,-5.7360405E-1,3.5104203E-1,-6.296872E-1,-6.8711525E-1,-1.1509867E-1,1.2983761E0,2.7442992E-1,1.5194851E0,2.9558702E0,-1.554325E-2,1.967765E-2,1.6011967E-1,1.301891E0,-4.8475966E-1,1.6961335E0,-2.344076E-1,4.6124357E-1,8.0000687E-1,2.233957E0,6.343961E-1,2.262718E0,2.807829E0,-4.8485547E-3,2.534933E0,3.9584246E0,2.8640444E0,1.1735545E0,2.6292505E0,4.154214E0,4.0042853E0,1.0298226E-1,-8.208069E-3,-1.8641403E-2,-1.7760761E-2,-1.00028785E-2,2.3269355E-2,-6.716914E-3,-1.4208209E-2,-7.652059E-3,1.2962366E-2,-1.45205045E-2,4.407106E-2,-3.554391E-3,3.3498168E-2,1.2328318E-2,-1.0534723E-4,1.6760593E-2,3.9631885E-2,-1.1491739E-2,6.689735E-2,1.4830187E-2,1.1670696E-4,1.2404565E-2,-3.2991886E-3,3.6085177E-2,1.9629827E-2,-1.8687855E-2,5.2141767E-2,2.812602E-2,-8.952419E-3,7.0074177E-3,2.4389744E-2,4.1318536E-3,3.1449094E-2,3.586775E-3,5.1025957E-2,-1.2809841E-2,5.359264E-2,9.710701E-3,5.1613495E-2,1.3303942E-2,4.4839095E-2,6.7640625E-2,7.386356E-2,3.838669E-2,5.5971317E-2,8.412393E-2,5.9777454E-2,9.233091E-3,3.7439242E-2,1.211304E-2,5.807421E-2,2.241415E-2,9.203686E-2,6.583692E-2,9.1463156E-2,6.632442E-2],"categories":[],"categories_nodes":[],"categories_segments":[],"categories_sizes":[],"default_left":[0,0,0,0,0,0,0,0,0,0,0,0,0,0,0,0,0,0,0,0,0,0,0,0,0,0,0,0,0,0,0,0,0,0,0,0,0,0,0,0,0,0,0,0,0,0,0,0,0,0,0,0,0,0,0,0,0,0,0,0,0,0,0,0,0,0,0,0,0,0,0,0,0,0,0,0,0,0,0,0,0,0,0,0,0,0,0,0,0,0,0,0,0,0,0,0,0,0,0,0,0,0,0,0,0,0,0,0,0,0,0,0,0,0,0,0,0,0,0],"id":1,"left_children":[1,3,5,7,9,11,13,15,17,19,21,23,25,27,29,31,33,35,37,39,41,43,45,47,49,51,53,55,57,59,61,63,65,67,69,71,73,75,77,79,81,-1,-1,83,85,87,89,91,93,95,97,99,101,103,-1,105,107,109,111,113,115,117,-1,-1,-1,-1,-1,-1,-1,-1,-1,-1,-1,-1,-1,-1,-1,-1,-1,-1,-1,-1,-1,-1,-1,-1,-1,-1,-1,-1,-1,-1,-1,-1,-1,-1,-1,-1,-1,-1,-1,-1,-1,-1,-1,-1,-1,-1,-1,-1,-1,-1,-1,-1,-1,-1,-1,-1,-1],"loss_changes":[1.4109161E4,1.2162898E3,2.457624E3,3.1031763E2,1.3695346E2,2.16181E2,4.6226953E2,7.678735E1,1.0835886E2,1.8217041E1,1.0976703E2,5.15872E1,7.322275E1,8.980884E1,1.5540039E2,4.2527344E1,2.8889465E1,1.4094341E1,4.72062E1,1.3804504E1,4.374171E0,1.05364655E2,4.0501938E1,1.9690506E1,1.6329803E1,5.063867E1,1.3088959E1,7.257007E1,6.465518E1,6.1730713E1,2.8901367E1,2.1519775E1,8.855743E0,1.7762857E1,2.6308167E1,5.6580734E0,1.1657607E1,1.6967697E1,2.032949E1,1.578693E1,2.0329285E1,0E0,0E0,3.787414E1,7.05755E1,7.518203E0,1.9186707E1,1.3154463E1,1.2635682E1,1.1906244E1,1.3866394E1,1.4946192E1,1.4120758E1,1.1249512E1,0E0,3.9226074E1,2.1739136E1,1.7610535E1,1.4564571E1,1.4556915E1,3.786548E1,3.2814941E0,0E0,0E0,0E0,0E0,0E0,0E0,0E0,0E0,0E0,0E0,0E0,0E0,0E0,0E0,0E0,0E0,0E0,0E0,0E0,0E0,0E0,0E0,0E0,0E0,0E0,0E0,0E0,0E0,0E0,0E0,0E0,0E0,0E0,0E0,0E0,0E0,0E0,0E0,0E0,0E0,0E0,0E0,0E0,0E0,0E0,0E0,0E0,0E0,0E0,0E0,0E0,0E0,0E0,0E0,0E0,0E0,0E0],"parents":[2147483647,0,0,1,1,2,2,3,3,4,4,5,5,6,6,7,7,8,8,9,9,10,10,11,11,12,12,13,13,14,14,15,15,16,16,17,17,18,18,19,19,20,20,21,21,22,22,23,23,24,24,25,25,26,26,27,27,28,28,29,29,30,30,31,31,32,32,33,33,34,34,35,35,36,36,37,37,38,38,39,39,40,40,43,43,44,44,45,45,46,46,47,47,48,48,49,49,50,50,51,51,52,52,53,53,55,55,56,56,57,57,58,58,59,59,60,60,61,61],"right_children":[2,4,6,8,10,12,14,16,18,20,22,24,26,28,30,32,34,36,38,40,42,44,46,48,50,52,54,56,58,60,62,64,66,68,70,72,74,76,78,80,82,-1,-1,84,86,88,90,92,94,96,98,100,102,104,-1,106,108,110,112,114,116,118,-1,-1,-1,-1,-1,-1,-1,-1,-1,-1,-1,-1,-1,-1,-1,-1,-1,-1,-1,-1,-1,-1,-1,-1,-1,-1,-1,-1,-1,-1,-1,-1,-1,-1,-1,-1,-1,-1,-1,-1,-1,-1,-1,-1,-1,-1,-1,-1,-1,-1,-1,-1,-1,-1,-1,-1,-1],"split_conditions":[1.0048E2,8.866E1,3.9796E2,8.28E1,3.9649117E-6,1.12E2,1.1961E2,4.141575E1,3.81208E2,2.3498769E-1,9.212E1,9.527E1,9.33E1,1.9146588E-5,1.0311E2,6.836E1,2.993978E-6,1.35288E2,3.2914618E-6,1.6E1,-1.5808E-2,2.1E1,1.2316E2,8.395223E1,4.17E2,8.223052E1,7.864367E-5,1.0677E2,2.933428E1,7.53556E2,7.2294E2,2.993978E-6,1.17476E2,2.651695E0,8.57063E1,-1.2687E2,4.6719215E-5,7.817E1,8.65236E2,1E1,4.7E1,-1.554325E-2,1.967765E-2,7.679E1,-2.8748E-2,1.1512327E1,-1.1941498E-5,-8.941688E-2,-8.617053E-6,1.33E2,2.852358E0,-1.77E-3,4.311005E-5,4.9977673E1,-4.8485547E-3,-1.1941498E-5,7.27E1,8.6782926E-1,2.2755926E-4,5.104737E-5,2.5770056E-5,1.1455511E-3,1.0298226E-1,-8.208069E-3,-1.8641403E-2,-1.7760761E-2,-1.00028785E-2,2.3269355E-2,-6.716914E-3,-1.4208209E-2,-7.652059E-3,1.2962366E-2,-1.45205045E-2,4.407106E-2,-3.554391E-3,3.3498168E-2,1.2328318E-2,-1.0534723E-4,1.6760593E-2,3.9631885E-2,-1.1491739E-2,6.689735E-2,1.4830187E-2,1.1670696E-4,1.2404565E-2,-3.2991886E-3,3.6085177E-2,1.9629827E-2,-1.8687855E-2,5.2141767E-2,2.812602E-2,-8.952419E-3,7.0074177E-3,2.4389744E-2,4.1318536E-3,3.1449094E-2,3.586775E-3,5.1025957E-2,-1.2809841E-2,5.359264E-2,9.710701E-3,5.1613495E-2,1.3303942E-2,4.4839095E-2,6.7640625E-2,7.386356E-2,3.838669E-2,5.5971317E-2,8.412393E-2,5.9777454E-2,9.233091E-3,3.7439242E-2,1.211304E-2,5.807421E-2,2.241415E-2,9.203686E-2,6.583692E-2,9.1463156E-2,6.632442E-2],"split_indices":[0,3,6,0,23,6,0,5,6,14,0,3,3,7,3,0,23,6,7,24,9,24,6,5,11,5,7,0,5,6,6,23,6,16,5,3,13,4,6,24,12,0,0,0,9,5,7,15,7,11,16,10,7,5,0,7,3,14,13,7,7,18,0,0,0,0,0,0,0,0,0,0,0,0,0,0,0,0,0,0,0,0,0,0,0,0,0,0,0,0,0,0,0,0,0,0,0,0,0,0,0,0,0,0,0,0,0,0,0,0,0,0,0,0,0,0,0,0,0],"split_type":[0,0,0,0,0,0,0,0,0,0,0,0,0,0,0,0,0,0,0,0,0,0,0,0,0,0,0,0,0,0,0,0,0,0,0,0,0,0,0,0,0,0,0,0,0,0,0,0,0,0,0,0,0,0,0,0,0,0,0,0,0,0,0,0,0,0,0,0,0,0,0,0,0,0,0,0,0,0,0,0,0,0,0,0,0,0,0,0,0,0,0,0,0,0,0,0,0,0,0,0,0,0,0,0,0,0,0,0,0,0,0,0,0,0,0,0,0,0,0],"sum_hessian":[7.5961006E3,6.41666E3,1.1794402E3,5.651861E3,7.6479913E2,3.4661017E2,8.3283E2,5.2793857E3,3.7247534E2,4.3276676E1,7.2152246E2,2.0582288E2,1.4078728E2,2.8046707E2,5.523629E2,3.9176208E3,1.3617648E3,1.7544022E2,1.9703513E2,3.9617622E1,3.6590533E0,6.26953E2,9.456942E1,1.6899074E2,3.683214E1,8.254436E1,5.8242928E1,1.7956244E2,1.0090463E2,1.783536E2,3.740093E2,3.5159998E3,4.0162115E2,3.0130287E1,1.3316345E3,9.8848595E1,7.659161E1,6.909942E1,1.279357E2,1.4137425E1,2.5480196E1,1.8242637E0,1.8347898E0,5.325832E2,9.436981E1,9.012672E0,8.555674E1,1.0324575E2,6.5744995E1,2.4422169E1,1.2409972E1,5.2364857E1,3.0179497E1,5.6957314E1,1.285613E0,6.3956078E1,1.1560637E2,6.2325108E1,3.857953E1,4.2018333E1,1.3633527E2,4.6128227E1,3.278811E2,8.320066E1,3.432799E3,7.395979E1,3.2766135E2,1.3485868E1,1.6644419E1,1.00230334E3,3.2933115E2,2.3556376E0,9.649296E1,1.1150769E0,7.547654E1,4.3580948E1,2.5518473E1,8.61652E1,4.1770496E1,1.1625649E1,2.5117764E0,2.1238659E1,4.241536E0,3.9960104E2,1.3298216E2,2.4246056E1,7.012376E1,1.8375525E0,7.1751204E0,1.872094E1,6.683581E1,7.5831665E1,2.7414082E1,1.5576336E1,5.0168655E1,1.019748E1,1.4224688E1,1.1277367E1,1.1326056E0,2.3993075E0,4.996555E1,2.4656628E1,5.52287E0,3.1156841E1,2.5800472E1,2.046047E1,4.349561E1,2.2513262E1,9.30931E1,5.901458E1,3.3105288E0,1.6271965E1,2.2307564E1,3.4767914E1,7.2504177E0,8.689461E1,4.944066E1,2.2160309E1,2.3967916E1],"tree_param":{"num_deleted":"0","num_feature":"26","num_nodes":"119","size_leaf_vector":"1"}},{"base_weights":[-4.6727597E-4,-5.7771885E-1,3.0133576E0,-7.390547E-1,5.956065E-1,9.2857486E-1,3.825116E0,-8.001741E-1,1.6453911E-1,2.087697E0,4.998765E-1,3.256238E-1,1.8600408E0,2.9049606E0,4.324513E0,-8.789626E-1,-5.759993E-1,-3.4580705E-1,6.248811E-1,2.27606E0,5.4089636E-2,3.061675E-1,1.332416E0,6.676615E-2,1.3546733E0,2.3506486E0,6.6570723E-1,2.2622302E0,3.4224854E0,3.3430684E0,4.578482E0,-1.0123742E0,-7.95754E-1,-6.426739E-1,-2.0678928E-1,1.4357133E0,-3.9351404E-1,1.5547591E0,3.674371E-1,8.0516654E-1,2.4999928E0,-1.655979E-2,2.1675143E-2,1.356091E-1,1.2192754E0,-3.494766E-1,1.4818643E0,3.3689848E-1,-2.8822538E-1,1.0064368E0,2.5586548E0,1.733314E0,2.9332726E0,1.4586505E-1,1.7076073E0,3.2528393E0,1.5914721E0,2.6620061E0,3.6874945E0,2.2533371E0,3.638723E0,3.0760982E0,4.6805215E0,-2.1482443E-2,-1.525162E-2,-1.6298978E-2,-1.1643603E-3,6.443741E-3,-1.3304652E-2,-1.0551433E-2,7.996592E-4,4.522489E-2,-5.6150793E-3,-1.3406129E-2,-2.152809E-3,1.7207554E-2,4.3204412E-2,3.6840593E-3,2.0566778E-2,-4.5692576E-3,3.5436317E-2,1.9217202E-3,5.1959313E-2,9.853333E-4,1.8514082E-2,-3.0595898E-3,3.253218E-2,1.5266489E-2,-1.3423507E-2,4.320055E-2,2.4245108E-2,3.140798E-3,2.337909E-2,2.4607152E-2,-8.870627E-3,4.225416E-2,1.3670261E-2,7.5903093E-3,6.0087852E-2,4.9609154E-2,1.5488655E-2,6.0062926E-2,-2.4061925E-3,-9.540736E-3,1.4102158E-2,3.938741E-2,-5.901557E-3,-3.994416E-3,6.660273E-2,2.5515974E-2,5.638504E-2,7.350497E-2,4.61662E-2,7.923143E-2,5.6353815E-2,2.6978552E-2,5.8918394E-2,8.671301E-2,6.1621826E-2,3.5514355E-2,6.946983E-2,8.5925E-2,9.718776E-2],"categories":[],"categories_nodes":[],"categories_segments":[],"categories_sizes":[],"default_left":[0,0,0,0,0,0,0,0,0,0,0,0,0,0,0,0,0,0,0,0,0,0,0,0,0,0,0,0,0,0,0,0,0,0,0,0,0,0,0,0,0,0,0,0,0,0,0,0,0,0,0,0,0,0,0,0,0,0,0,0,0,0,0,0,0,0,0,0,0,0,0,0,0,0,0,0,0,0,0,0,0,0,0,0,0,0,0,0,0,0,0,0,0,0,0,0,0,0,0,0,0,0,0,0,0,0,0,0,0,0,0,0,0,0,0,0,0,0,0,0,0,0,0],"id":2,"left_children":[1,3,5,7,9,11,13,15,17,19,21,23,25,27,29,31,33,35,37,39,41,43,45,47,49,51,53,55,57,59,61,63,65,67,69,71,73,75,77,79,81,-1,-1,83,85,87,89,91,93,95,97,99,101,103,105,107,109,111,113,115,117,119,121,-1,-1,-1,-1,-1,-1,-1,-1,-1,-1,-1,-1,-1,-1,-1,-1,-1,-1,-1,-1,-1,-1,-1,-1,-1,-1,-1,-1,-1,-1,-1,-1,-1,-1,-1,-1,-1,-1,-1,-1,-1,-1,-1,-1,-1,-1,-1,-1,-1,-1,-1,-1,-1,-1,-1,-1,-1,-1,-1,-1],"loss_changes":[1.319318E4,1.2052231E3,2.0594248E3,3.0915747E2,1.08926605E2,1.9200415E2,3.9046582E2,9.2065674E1,8.369629E1,1.7536682E1,1.1647978E2,5.5688675E1,7.727466E1,9.5903076E1,1.2588965E2,4.2225098E1,3.3491974E1,1.4941961E1,4.4237114E1,1.1877014E1,5.377342E0,9.160863E1,3.4830414E1,1.6242266E1,1.504908E1,2.9076721E1,2.1725832E1,8.913318E1,2.4577759E1,3.0513184E1,5.4174805E1,2.2090454E1,3.3815796E1,2.5387054E1,1.6677303E1,7.191102E0,1.3026007E1,1.5074043E1,1.772132E1,7.445704E0,8.257965E0,0E0,0E0,3.390422E1,5.202156E1,4.7899666E0,2.0338776E1,1.4193577E1,1.7831528E1,1.0792625E1,7.3901215E0,3.286824E1,1.0478699E1,1.0146266E1,7.611824E0,1.5702515E1,2.9962875E1,8.610474E0,1.8389282E1,1.3733292E1,2.2740234E1,1.0040527E1,7.78125E0,0E0,0E0,0E0,0E0,0E0,0E0,0E0,0E0,0E0,0E0,0E0,0E0,0E0,0E0,0E0,0E0,0E0,0E0,0E0,0E0,0E0,0E0,0E0,0E0,0E0,0E0,0E0,0E0,0E0,0E0,0E0,0E0,0E0,0E0,0E0,0E0,0E0,0E0,0E0,0E0,0E0,0E0,0E0,0E0,0E0,0E0,0E0,0E0,0E0,0E0,0E0,0E0,0E0,0E0,0E0,0E0,0E0,0E0,0E0,0E0],"parents":[2147483647,0,0,1,1,2,2,3,3,4,4,5,5,6,6,7,7,8,8,9,9,10,10,11,11,12,12,13,13,14,14,15,15,16,16,17,17,18,18,19,19,20,20,21,21,22,22,23,23,24,24,25,25,26,26,27,27,28,28,29,29,30,30,31,31,32,32,33,33,34,34,35,35,36,36,37,37,38,38,39,39,40,40,43,43,44,44,45,45,46,46,47,47,48,48,49,49,50,50,51,51,52,52,53,53,54,54,55,55,56,56,57,57,58,58,59,59,60,60,61,61,62,62],"right_children":[2,4,6,8,10,12,14,16,18,20,22,24,26,28,30,32,34,36,38,40,42,44,46,48,50,52,54,56,58,60,62,64,66,68,70,72,74,76,78,80,82,-1,-1,84,86,88,90,92,94,96,98,100,102,104,106,108,110,112,114,116,118,120,122,-1,-1,-1,-1,-1,-1,-1,-1,-1,-1,-1,-1,-1,-1,-1,-1,-1,-1,-1,-1,-1,-1,-1,-1,-1,-1,-1,-1,-1,-1,-1,-1,-1,-1,-1,-1,-1,-1,-1,-1,-1,-1,-1,-1,-1,-1,-1,-1,-1,-1,-1,-1,-1,-1,-1,-1,-1,-1,-1,-1],"split_conditions":[1.0048E2,8.866E1,3.89712E2,8.354E1,3.9649117E-6,1.17476E2,1.2151E2,4.102061E1,3.81208E2,2.2153497E-1,8.847E1,9.527E1,3.181154E-5,9.431E1,8.713E1,-3.58668E2,1.0856827E2,-1.2687E2,-6.110391E-6,-7.0602447E-1,-1.2268E-2,2.1E1,1.12E2,1.2314067E-3,5.34E2,1.033E2,1.0558E2,3.8311987E-6,1.0677E2,7.2294E2,5.9202E2,1.9E1,9.50628E2,2.993978E-6,-1.45924E2,1.1946611E-3,1.12E2,7.095E1,9.83E1,1.2722E2,-3.9246E-2,-1.655979E-2,2.1675143E-2,1.1736E2,-2.8748E-2,1.1512327E1,-7.318047E-6,7.9256E1,-4.951E1,1.0613211E-3,2.386E1,4.263E1,2.8777113E0,2.2394E2,2.852358E0,-1.2687E2,1.353168E3,-1.2273824E-5,2.445208E-5,-5.858288E-1,1.1136846E-5,1.0048E2,1.218612E3,-2.1482443E-2,-1.525162E-2,-1.6298978E-2,-1.1643603E-3,6.443741E-3,-1.3304652E-2,-1.0551433E-2,7.996592E-4,4.522489E-2,-5.6150793E-3,-1.3406129E-2,-2.152809E-3,1.7207554E-2,4.3204412E-2,3.6840593E-3,2.0566778E-2,-4.5692576E-3,3.5436317E-2,1.9217202E-3,5.1959313E-2,9.853333E-4,1.8514082E-2,-3.0595898E-3,3.253218E-2,1.5266489E-2,-1.3423507E-2,4.320055E-2,2.4245108E-2,3.140798E-3,2.337909E-2,2.4607152E-2,-8.870627E-3,4.225416E-2,1.3670261E-2,7.5903093E-3,6.0087852E-2,4.9609154E-2,1.5488655E-2,6.0062926E-2,-2.4061925E-3,-9.540736E-3,1.4102158E-2,3.938741E-2,-5.901557E-3,-3.994416E-3,6.660273E-2,2.5515974E-2,5.638504E-2,7.350497E-2,4.61662E-2,7.923143E-2,5.6353815E-2,2.6978552E-2,5.8918394E-2,8.671301E-2,6.1621826E-2,3.5514355E-2,6.946983E-2,8.5925E-2,9.718776E-2],"split_indices":[0,3,6,0,23,6,0,5,6,14,0,3,7,3,3,6,5,3,7,15,9,24,6,18,11,1,4,7,0,6,6,24,6,23,6,18,6,3,1,3,9,0,0,1,9,5,7,6,1,18,6,1,16,6,16,3,6,7,7,15,7,4,6,0,0,0,0,0,0,0,0,0,0,0,0,0,0,0,0,0,0,0,0,0,0,0,0,0,0,0,0,0,0,0,0,0,0,0,0,0,0,0,0,0,0,0,0,0,0,0,0,0,0,0,0,0,0,0,0,0,0,0,0],"split_type":[0,0,0,0,0,0,0,0,0,0,0,0,0,0,0,0,0,0,0,0,0,0,0,0,0,0,0,0,0,0,0,0,0,0,0,0,0,0,0,0,0,0,0,0,0,0,0,0,0,0,0,0,0,0,0,0,0,0,0,0,0,0,0,0,0,0,0,0,0,0,0,0,0,0,0,0,0,0,0,0,0,0,0,0,0,0,0,0,0,0,0,0,0,0,0,0,0,0,0,0,0,0,0,0,0,0,0,0,0,0,0,0,0,0,0,0,0,0,0,0,0,0,0],"sum_hessian":[7.581441E3,6.363432E3,1.2180088E3,5.5945366E3,7.688956E2,3.4194888E2,8.760599E2,5.2402017E3,3.5433505E2,4.510233E1,7.2379333E2,2.0839891E2,1.3354997E2,3.1059525E2,5.6546466E2,3.8752769E3,1.3649247E3,1.6815889E2,1.8617616E2,4.1169754E1,3.9325752E0,5.882837E2,1.3550964E2,1.6736346E2,4.1035446E1,9.3977684E1,3.957229E1,1.4093495E2,1.696603E2,1.191565E2,4.4630814E2,1.4842897E3,2.390987E3,1.1555132E3,2.0941145E2,3.6268604E0,1.6453203E2,3.927546E1,1.469007E2,6.0468497E0,3.5122906E1,2.2235806E0,1.7089945E0,4.9666138E2,9.1622314E1,1.09491625E1,1.2456048E2,9.50703E1,7.2293175E1,3.325328E1,7.782165E0,4.7559624E1,4.6418064E1,2.7160776E1,1.24115095E1,5.5346684E1,8.5588264E1,4.6698288E1,1.22962006E2,2.7269049E1,9.188745E1,3.0365492E1,4.1594266E2,1.1874546E3,2.9683508E2,2.330236E3,6.0751064E1,2.6095545E1,1.1294176E3,9.055716E1,1.18854294E2,2.2347026E0,1.3921579E0,8.291052E1,8.1621506E1,1.9422052E1,1.9853409E1,1.1601454E2,3.0886158E1,3.291226E0,2.7556236E0,1.4529674E0,3.3669937E1,4.4869037E2,4.7971012E1,2.1114557E1,7.050775E1,2.147582E0,8.80158E0,3.343863E1,9.112186E1,7.914987E1,1.5920425E1,6.0652213E0,6.622795E1,6.2612104E0,2.699207E1,1.635909E0,6.1462564E0,2.5839275E1,2.1720348E1,4.539581E1,1.0222547E0,1.2918618E1,1.4242158E1,1.0991489E1,1.4200203E0,1.1773059E0,5.4169376E1,6.970546E1,1.5882807E1,9.653292E0,3.7045E1,9.079707E1,3.2164932E1,1.310437E1,1.4164679E1,3.783107E1,5.405638E1,8.387547E0,2.1977945E1,1.4006027E2,2.758824E2],"tree_param":{"num_deleted":"0","num_feature":"26","num_nodes":"123","size_leaf_vector":"1"}},{"base_weights":[6.8853097E-3,-5.6554914E-1,2.8329754E0,-7.318152E-1,5.971869E-1,8.7941206E-1,3.5692048E0,-7.9444396E-1,1.3304065E-1,4.2312965E-1,1.52385E0,3.0531842E-1,1.6920072E0,2.713589E0,4.0263224E0,-8.911908E-1,-6.371018E-1,-4.3392277E-1,5.162145E-1,1.7213634E-1,1.3470896E0,3.8502377E-1,1.8909023E0,6.007996E-2,1.3225745E0,1.2318574E0,2.595087E0,1.1157576E0,2.8893178E0,3.3560412E0,4.3225527E0,-9.3562615E-1,-6.037207E-1,-6.7760473E-1,-3.138377E-1,1.4309677E0,-4.8460317E-1,1.2378744E0,1.6855405E-1,1.6724368E0,8.5965306E-2,-2.3761009E-1,1.4903048E0,1.2185804E0,-1.4904742E-1,2.197577E0,1.2181436E0,3.279293E-1,-4.648276E-1,1.0627422E0,2.7331653E0,8.253812E-1,2.301152E0,2.8129475E0,1.2106541E0,2.3619385E0,4.11121E-1,3.1358745E0,1.998976E0,2.0790038E0,3.5656636E0,3.4856825E0,8.84754E-2,-5.0588045E-3,-1.8981332E-2,-1.330201E-2,1.8153801E-4,-1.4022014E-2,-3.6721667E-3,-1.2921821E-2,-1.2030994E-3,2.9351541E-3,5.261206E-2,-1.2122445E-2,1.0642967E-3,1.3857437E-2,3.341207E-2,-1.9514334E-3,1.6101263E-2,1.6652303E-2,5.1487617E-2,-5.5782543E-4,1.5591447E-2,1.9252948E-2,-1.2002018E-2,1.9143393E-2,3.47261E-2,7.855512E-3,4.5938008E-2,8.621849E-3,-1.720877E-2,3.1408776E-2,5.021326E-2,1.5612389E-2,4.293706E-2,2.6346382E-2,2.448941E-3,-1.222998E-2,2.536962E-3,3.8817038E-3,2.7045796E-2,2.1477789E-2,6.891351E-2,2.7129842E-2,5.575428E-3,5.8692455E-2,2.9933492E-2,5.9788175E-2,1.9577432E-2,-6.0263225E-3,3.8043045E-2,5.6566782E-2,1.286242E-2,1.9913783E-2,-1.2525597E-2,4.1975725E-2,6.702178E-2,1.7540468E-2,5.0694134E-2,2.7292127E-2,5.8903463E-2,7.953334E-2,5.646109E-2,1.7896242E-2,7.09034E-2],"categories":[],"categories_nodes":[],"categories_segments":[],"categories_sizes":[],"default_left":[0,0,0,0,0,0,0,0,0,0,0,0,0,0,0,0,0,0,0,0,0,0,0,0,0,0,0,0,0,0,0,0,0,0,0,0,0,0,0,0,0,0,0,0,0,0,0,0,0,0,0,0,0,0,0,0,0,0,0,0,0,0,0,0,0,0,0,0,0,0,0,0,0,0,0,0,0,0,0,0,0,0,0,0,0,0,0,0,0,0,0,0,0,0,0,0,0,0,0,0,0,0,0,0,0,0,0,0,0,0,0,0,0,0,0,0,0,0,0,0,0,0,0,0,0],"id":3,"left_children":[1,3,5,7,9,11,13,15,17,19,21,23,25,27,29,31,33,35,37,39,41,43,45,47,49,51,53,55,57,59,61,63,65,67,69,71,73,75,77,79,81,83,85,87,89,91,93,95,97,99,101,103,105,107,109,111,113,115,117,119,121,123,-1,-1,-1,-1,-1,-1,-1,-1,-1,-1,-1,-1,-1,-1,-1,-1,-1,-1,-1,-1,-1,-1,-1,-1,-1,-1,-1,-1,-1,-1,-1,-1,-1,-1,-1,-1,-1,-1,-1,-1,-1,-1,-1,-1,-1,-1,-1,-1,-1,-1,-1,-1,-1,-1,-1,-1,-1,-1,-1,-1,-1,-1,-1],"loss_changes":[1.2262998E4,1.2190507E3,1.8332324E3,2.9884277E2,1.2663992E2,1.6313385E2,3.516377E2,7.7721924E1,8.131774E1,1.5416072E2,5.1274323E1,5.1508034E1,5.7063385E1,8.827344E1,1.0505078E2,4.0084717E1,2.5473145E1,1.4972652E1,5.579064E1,6.768803E1,3.2597534E1,1.4239884E1,1.668103E1,2.3725811E1,1.1800331E1,4.0681747E1,1.1085327E1,2.881108E1,5.803882E1,4.318701E1,1.9656738E1,2.5033691E1,1.6136917E1,2.0096191E1,1.8528929E1,6.161648E0,9.693775E0,1.5919533E1,2.5790548E1,1.9402359E1,3.9289234E1,6.076162E0,1.5444519E1,1.0176174E1,8.682041E0,8.467163E0,1.1173187E1,2.2527977E1,5.029649E0,8.670509E0,2.9256973E0,2.0682034E1,9.074005E0,1.0264282E1,9.238531E0,7.8328934E0,1.4496609E1,4.377881E1,3.762088E1,1.3957375E1,3.790442E1,4.440979E0,0E0,0E0,0E0,0E0,0E0,0E0,0E0,0E0,0E0,0E0,0E0,0E0,0E0,0E0,0E0,0E0,0E0,0E0,0E0,0E0,0E0,0E0,0E0,0E0,0E0,0E0,0E0,0E0,0E0,0E0,0E0,0E0,0E0,0E0,0E0,0E0,0E0,0E0,0E0,0E0,0E0,0E0,0E0,0E0,0E0,0E0,0E0,0E0,0E0,0E0,0E0,0E0,0E0,0E0,0E0,0E0,0E0,0E0,0E0,0E0,0E0,0E0,0E0],"parents":[2147483647,0,0,1,1,2,2,3,3,4,4,5,5,6,6,7,7,8,8,9,9,10,10,11,11,12,12,13,13,14,14,15,15,16,16,17,17,18,18,19,19,20,20,21,21,22,22,23,23,24,24,25,25,26,26,27,27,28,28,29,29,30,30,31,31,32,32,33,33,34,34,35,35,36,36,37,37,38,38,39,39,40,40,41,41,42,42,43,43,44,44,45,45,46,46,47,47,48,48,49,49,50,50,51,51,52,52,53,53,54,54,55,55,56,56,57,57,58,58,59,59,60,60,61,61],"right_children":[2,4,6,8,10,12,14,16,18,20,22,24,26,28,30,32,34,36,38,40,42,44,46,48,50,52,54,56,58,60,62,64,66,68,70,72,74,76,78,80,82,84,86,88,90,92,94,96,98,100,102,104,106,108,110,112,114,116,118,120,122,124,-1,-1,-1,-1,-1,-1,-1,-1,-1,-1,-1,-1,-1,-1,-1,-1,-1,-1,-1,-1,-1,-1,-1,-1,-1,-1,-1,-1,-1,-1,-1,-1,-1,-1,-1,-1,-1,-1,-1,-1,-1,-1,-1,-1,-1,-1,-1,-1,-1,-1,-1,-1,-1,-1,-1,-1,-1,-1,-1,-1,-1,-1,-1],"split_conditions":[1.0048E2,8.866E1,3.9796E2,8.28E1,2.1E1,1.12E2,1.2151E2,3.0044596E1,3.02056E2,8.753E1,-2.8748E-2,9.527E1,1.0572E2,1.846E1,1.0311E2,6.359E1,1.04652695E2,-1.2687E2,6.197411E-7,3.9649117E-6,1.12E2,6.77E1,2.3E1,2.1951666E-5,1.8430596E-2,1.6274E2,3.7980797E-5,7.491931E-6,2.8578648E-5,6.24992E2,7.2294E2,1.7848023E-6,9.75204E2,4.85E2,-1.45924E2,1.5132E2,9.59E1,1.3E1,8.82412E2,1.2306E2,1.0452E2,1.1512327E1,9.212E1,6.298E1,-1.3878509E-2,1.1035E2,7.824E1,-1.788E1,2.2661E2,1.2347E2,1.8E1,1.7470702E-5,1.0882964E-5,8.89454E-5,4.6153324E-5,1.9302759E-3,4.2318404E-1,1.04E2,8.942E1,6.801812E1,2.3819668E-5,2.4571278E0,8.84754E-2,-5.0588045E-3,-1.8981332E-2,-1.330201E-2,1.8153801E-4,-1.4022014E-2,-3.6721667E-3,-1.2921821E-2,-1.2030994E-3,2.9351541E-3,5.261206E-2,-1.2122445E-2,1.0642967E-3,1.3857437E-2,3.341207E-2,-1.9514334E-3,1.6101263E-2,1.6652303E-2,5.1487617E-2,-5.5782543E-4,1.5591447E-2,1.9252948E-2,-1.2002018E-2,1.9143393E-2,3.47261E-2,7.855512E-3,4.5938008E-2,8.621849E-3,-1.720877E-2,3.1408776E-2,5.021326E-2,1.5612389E-2,4.293706E-2,2.6346382E-2,2.448941E-3,-1.222998E-2,2.536962E-3,3.8817038E-3,2.7045796E-2,2.1477789E-2,6.891351E-2,2.7129842E-2,5.575428E-3,5.8692455E-2,2.9933492E-2,5.9788175E-2,1.9577432E-2,-6.0263225E-3,3.8043045E-2,5.6566782E-2,1.286242E-2,1.9913783E-2,-1.2525597E-2,4.1975725E-2,6.702178E-2,1.7540468E-2,5.0694134E-2,2.7292127E-2,5.8903463E-2,7.953334E-2,5.646109E-2,1.7896242E-2,7.09034E-2],"split_indices":[0,3,6,0,24,6,0,5,6,0,9,3,3,3,3,0,5,3,7,23,6,4,24,7,8,0,7,7,7,6,6,23,6,22,6,6,0,22,6,3,1,5,0,1,8,3,1,4,0,0,24,7,7,23,7,19,14,0,1,5,7,16,0,0,0,0,0,0,0,0,0,0,0,0,0,0,0,0,0,0,0,0,0,0,0,0,0,0,0,0,0,0,0,0,0,0,0,0,0,0,0,0,0,0,0,0,0,0,0,0,0,0,0,0,0,0,0,0,0,0,0,0,0,0,0],"split_type":[0,0,0,0,0,0,0,0,0,0,0,0,0,0,0,0,0,0,0,0,0,0,0,0,0,0,0,0,0,0,0,0,0,0,0,0,0,0,0,0,0,0,0,0,0,0,0,0,0,0,0,0,0,0,0,0,0,0,0,0,0,0,0,0,0,0,0,0,0,0,0,0,0,0,0,0,0,0,0,0,0,0,0,0,0,0,0,0,0,0,0,0,0,0,0,0,0,0,0,0,0,0,0,0,0,0,0,0,0,0,0,0,0,0,0,0,0,0,0,0,0,0,0,0,0],"sum_hessian":[7.578283E3,6.302491E3,1.2757917E3,5.5143364E3,7.88155E2,3.4980054E2,9.259912E2,5.1420547E3,3.7228152E2,6.6475006E2,1.2340495E2,2.0578818E2,1.4401237E2,3.2486227E2,6.011289E2,3.1812786E3,1.9607761E3,1.5008124E2,2.2220027E2,5.2367914E2,1.410709E2,3.0578918E1,9.282603E1,1.6666734E2,3.9120834E1,9.696798E1,4.70444E1,3.291637E1,2.919459E2,1.8802145E2,4.1310745E2,2.7534185E3,4.278602E2,1.7414835E3,2.1929259E2,3.2501483E0,1.4683109E2,7.1409874E1,1.507904E2,2.744437E1,4.962348E2,1.1637784E1,1.2943312E2,1.1440841E1,1.9138079E1,6.2204018E1,3.0622013E1,1.106038E2,5.6063538E1,3.4516296E1,4.6045356E0,7.154363E1,2.5424345E1,3.975633E1,7.2880692E0,1.1039874E1,2.1876497E1,2.2665709E2,6.528881E1,2.8050882E1,1.5997058E2,4.839678E1,3.647107E2,5.354455E1,2.6998738E3,3.8882852E2,3.9031677E1,1.6620137E3,7.946981E1,9.4273636E1,1.2501895E2,2.1118004E0,1.1383479E0,1.19665794E2,2.7165295E1,3.275616E1,3.865371E1,1.0692963E2,4.386078E1,1.5207468E1,1.2236902E1,4.2708755E2,6.914723E1,2.3154292E0,9.322354E0,4.2410797E1,8.702232E1,7.2516174E0,4.189223E0,1.0758516E1,8.379562E0,2.2716629E1,3.948739E1,2.206671E1,8.555304E0,1.8090036E1,9.251376E1,4.4899765E1,1.11637745E1,9.04654E0,2.5469757E1,2.1364405E0,2.468095E0,3.553478E1,3.6008854E1,1.2742576E1,1.2681769E1,3.569235E1,4.0639806E0,2.4642367E0,4.8238325E0,8.175846E0,2.8640282E0,1.4017783E1,7.8587146E0,4.079996E1,1.8585713E2,2.1952312E1,4.3336502E1,1.6783596E1,1.1267288E1,1.0017362E2,5.9796955E1,1.4463308E0,4.6950447E1],"tree_param":{"num_deleted":"0","num_feature":"26","num_nodes":"125","size_leaf_vector":"1"}},{"base_weights":[-3.6499598E-3,-4.1509962E-1,2.6436949E0,-6.209275E-1,8.4764457E-1,1.303279E0,3.6001587E0,-7.9480493E-1,-1.8484768E-1,4.586693E-1,1.829234E0,1.04918495E-1,2.1345108E0,3.0457554E0,3.9777331E0,-8.666187E-1,-4.517957E-1,-3.130523E-1,4.5436168E-1,2.2728305E0,3.8009298E-1,1.2642108E0,2.3566422E0,-3.0650502E-1,6.124861E-1,1.6962357E0,2.7560737E0,3.6169097E0,2.595509E0,3.529371E0,8.4572054E-2,-9.844222E-1,-7.510588E-1,-5.079516E-1,1.1215902E-1,-4.48644E-1,1.8252797E-2,1.4486237E0,2.8078178E-1,1.1687591E0,3.4599311E0,2.6033923E-1,1.2691147E0,1.5079739E0,7.433141E-1,3.1747682E0,1.796728E0,-4.915835E-1,4.984767E-1,-1.7629129E-1,9.34814E-1,2.1997995E0,1.1364998E0,3.5656343E0,2.0964084E0,3.6560333E0,1.5316697E0,1.7759377E0,3.0464125E0,3.687358E0,2.7652519E0,-2.0794177E-2,-1.5134098E-2,-1.7700119E-2,-1.3539928E-2,-1.5068725E-2,-8.124145E-3,1.1593241E-2,-6.0203657E-3,-1.1625559E-2,-3.1039913E-3,-7.366509E-3,5.227306E-3,-4.344307E-3,3.7895214E-2,2.2285155E-3,2.24454E-2,5.6036133E-3,3.553885E-2,1.7076116E-2,7.475411E-2,-3.8731466E-3,1.1338502E-2,1.6851176E-2,4.112096E-2,3.990725E-2,2.0900007E-2,-4.127559E-3,2.1621356E-2,5.6235626E-2,7.5995415E-2,4.2067792E-2,1.8963074E-2,-1.2459563E-2,5.5068466E-3,-1.1279878E-2,1.9490246E-2,1.8788412E-2,-8.691112E-3,-1.9322295E-3,2.2675319E-2,3.3425808E-2,6.169642E-2,1.4531123E-2,3.794148E-2,2.0884492E-2,7.395034E-2,7.286356E-2,3.4069207E-2,7.453141E-2,4.793011E-2,3.0050774E-3,4.470222E-2,4.326712E-2,1.721048E-2,6.1575808E-2,5.4700333E-3,2.408435E-2,7.424206E-2,5.796331E-2,8.026306E-3],"categories":[],"categories_nodes":[],"categories_segments":[],"categories_sizes":[],"default_left":[0,0,0,0,0,0,0,0,0,0,0,0,0,0,0,0,0,0,0,0,0,0,0,0,0,0,0,0,0,0,0,0,0,0,0,0,0,0,0,0,0,0,0,0,0,0,0,0,0,0,0,0,0,0,0,0,0,0,0,0,0,0,0,0,0,0,0,0,0,0,0,0,0,0,0,0,0,0,0,0,0,0,0,0,0,0,0,0,0,0,0,0,0,0,0,0,0,0,0,0,0,0,0,0,0,0,0,0,0,0,0,0,0,0,0,0,0,0,0,0,0],"id":4,"left_children":[1,3,5,7,9,11,13,15,17,19,21,23,25,27,29,31,33,35,37,39,41,43,45,47,49,51,53,55,57,59,-1,61,63,65,67,69,71,73,75,77,79,81,83,85,87,89,91,93,95,97,99,101,103,105,107,109,111,113,115,117,119,-1,-1,-1,-1,-1,-1,-1,-1,-1,-1,-1,-1,-1,-1,-1,-1,-1,-1,-1,-1,-1,-1,-1,-1,-1,-1,-1,-1,-1,-1,-1,-1,-1,-1,-1,-1,-1,-1,-1,-1,-1,-1,-1,-1,-1,-1,-1,-1,-1,-1,-1,-1,-1,-1,-1,-1,-1,-1,-1,-1],"loss_changes":[8.26207E3,1.7067695E3,1.3033936E3,4.2790356E2,3.5062573E2,4.2455908E2,1.1240625E2,9.901929E1,1.3212823E2,9.33047E1,7.4772156E1,3.6878883E1,6.390222E1,5.3684814E1,2.4510742E1,4.4674316E1,2.2249222E1,6.0298477E1,4.6099712E1,3.1636826E1,6.720762E1,1.5147415E1,5.5582947E1,1.4802159E1,2.0248606E1,3.984607E1,4.726416E1,3.0131836E0,4.6581543E1,5.718628E0,0E0,1.9970215E1,1.6148865E1,1.5615829E1,1.259041E1,3.6977142E1,3.681709E1,2.9999512E1,3.27465E1,7.940918E0,5.9361877E0,7.8101E1,2.345977E1,1.7389679E1,1.3956711E1,1.3528442E0,1.9274933E1,8.227776E0,1.0038876E1,7.2538333E0,1.164954E1,3.1336548E1,2.1450737E1,1.0968079E1,2.9596954E1,2.1203613E-1,3.225933E0,1.669719E1,7.180908E0,2.0582275E0,7.190338E0,0E0,0E0,0E0,0E0,0E0,0E0,0E0,0E0,0E0,0E0,0E0,0E0,0E0,0E0,0E0,0E0,0E0,0E0,0E0,0E0,0E0,0E0,0E0,0E0,0E0,0E0,0E0,0E0,0E0,0E0,0E0,0E0,0E0,0E0,0E0,0E0,0E0,0E0,0E0,0E0,0E0,0E0,0E0,0E0,0E0,0E0,0E0,0E0,0E0,0E0,0E0,0E0,0E0,0E0,0E0,0E0,0E0,0E0,0E0,0E0],"parents":[2147483647,0,0,1,1,2,2,3,3,4,4,5,5,6,6,7,7,8,8,9,9,10,10,11,11,12,12,13,13,14,14,15,15,16,16,17,17,18,18,19,19,20,20,21,21,22,22,23,23,24,24,25,25,26,26,27,27,28,28,29,29,31,31,32,32,33,33,34,34,35,35,36,36,37,37,38,38,39,39,40,40,41,41,42,42,43,43,44,44,45,45,46,46,47,47,48,48,49,49,50,50,51,51,52,52,53,53,54,54,55,55,56,56,57,57,58,58,59,59,60,60],"right_children":[2,4,6,8,10,12,14,16,18,20,22,24,26,28,30,32,34,36,38,40,42,44,46,48,50,52,54,56,58,60,-1,62,64,66,68,70,72,74,76,78,80,82,84,86,88,90,92,94,96,98,100,102,104,106,108,110,112,114,116,118,120,-1,-1,-1,-1,-1,-1,-1,-1,-1,-1,-1,-1,-1,-1,-1,-1,-1,-1,-1,-1,-1,-1,-1,-1,-1,-1,-1,-1,-1,-1,-1,-1,-1,-1,-1,-1,-1,-1,-1,-1,-1,-1,-1,-1,-1,-1,-1,-1,-1,-1,-1,-1,-1,-1,-1,-1,-1,-1,-1,-1],"split_conditions":[8.07768E2,8.87E1,9.522E1,4.3817955E1,4.5088E2,1.4734297E1,1.307488E3,6.376E1,2.94668E2,3.9649117E-6,1.1686E2,7.713592E0,1.218612E3,1.1384923E-3,1.2691E2,-2.74304E2,6.38E2,8.757546E1,-1.6022868E-5,1.9E1,2.0166442E-2,5.286385E-5,1.12442E-3,8.616E1,6.636E1,1.43803345E-5,2.0569E-2,6.226422E-5,1.151E2,5E0,8.4572054E-2,1.9E1,9.809044E0,8.160977E0,-1.9502033E-2,3.97E2,-1.40152E2,6E0,1.04652695E2,-1.17252E2,-8.15104E2,-2.444E1,2.1E1,3.2914618E-6,9E0,3.73E2,2.5770056E-5,1.3342211E-3,-3.4607E-2,8.618408E0,6E0,4.5972874E1,1.2657322E-3,1.7355537E1,-4.881936E-6,9.633584E-5,5.2945706E-4,5.686486E-5,9.189419E-5,8.9910335E-4,1.6627498E-2,-2.0794177E-2,-1.5134098E-2,-1.7700119E-2,-1.3539928E-2,-1.5068725E-2,-8.124145E-3,1.1593241E-2,-6.0203657E-3,-1.1625559E-2,-3.1039913E-3,-7.366509E-3,5.227306E-3,-4.344307E-3,3.7895214E-2,2.2285155E-3,2.24454E-2,5.6036133E-3,3.553885E-2,1.7076116E-2,7.475411E-2,-3.8731466E-3,1.1338502E-2,1.6851176E-2,4.112096E-2,3.990725E-2,2.0900007E-2,-4.127559E-3,2.1621356E-2,5.6235626E-2,7.5995415E-2,4.2067792E-2,1.8963074E-2,-1.2459563E-2,5.5068466E-3,-1.1279878E-2,1.9490246E-2,1.8788412E-2,-8.691112E-3,-1.9322295E-3,2.2675319E-2,3.3425808E-2,6.169642E-2,1.4531123E-2,3.794148E-2,2.0884492E-2,7.395034E-2,7.286356E-2,3.4069207E-2,7.453141E-2,4.793011E-2,3.0050774E-3,4.470222E-2,4.326712E-2,1.721048E-2,6.1575808E-2,5.4700333E-3,2.408435E-2,7.424206E-2,5.796331E-2,8.026306E-3],"split_indices":[6,2,2,5,6,5,6,2,6,23,2,5,6,18,2,6,11,5,7,24,8,23,18,2,2,7,10,7,2,25,0,24,5,5,14,11,6,22,5,6,6,6,24,7,24,11,7,18,9,5,24,5,18,5,7,23,13,23,7,18,8,0,0,0,0,0,0,0,0,0,0,0,0,0,0,0,0,0,0,0,0,0,0,0,0,0,0,0,0,0,0,0,0,0,0,0,0,0,0,0,0,0,0,0,0,0,0,0,0,0,0,0,0,0,0,0,0,0,0,0,0],"split_type":[0,0,0,0,0,0,0,0,0,0,0,0,0,0,0,0,0,0,0,0,0,0,0,0,0,0,0,0,0,0,0,0,0,0,0,0,0,0,0,0,0,0,0,0,0,0,0,0,0,0,0,0,0,0,0,0,0,0,0,0,0,0,0,0,0,0,0,0,0,0,0,0,0,0,0,0,0,0,0,0,0,0,0,0,0,0,0,0,0,0,0,0,0,0,0,0,0,0,0,0,0,0,0,0,0,0,0,0,0,0,0,0,0,0,0,0,0,0,0,0,0],"sum_hessian":[7.583098E3,6.5637974E3,1.01930054E3,5.6442847E3,9.195129E2,4.254397E2,5.9386084E2,4.0347095E3,1.6095753E3,6.595999E2,2.5991293E2,1.7470265E2,2.5073705E2,2.442656E2,3.4959528E2,3.334962E3,6.997475E2,1.3411038E3,2.6847156E2,2.6223753E1,6.3337616E2,1.2712181E2,1.3279114E2,9.670874E1,7.799391E1,1.4923662E2,1.01500435E2,1.0457502E2,1.3969057E2,1.3083368E2,2.187616E2,1.6477261E3,1.6872357E3,6.3647015E2,6.3277355E1,9.513819E2,3.8972183E2,3.8811954E1,2.296596E2,1.4615269E1,1.1608484E1,5.593262E2,7.404998E1,8.530625E1,4.1815556E1,5.2057106E1,8.0734024E1,7.8946884E1,1.7761856E1,2.27572E1,5.523671E1,7.7017815E1,7.2218796E1,4.3594624E1,5.7905807E1,1.0190968E2,2.6653326E0,5.1330246E1,8.836033E1,1.0524741E2,2.558626E1,1.3229631E3,3.2476294E2,5.968465E2,1.0903893E3,1.846204E2,4.5184976E2,2.949797E1,3.3779385E1,6.5455066E2,2.9683127E2,1.5026587E2,2.3945595E2,8.307091E0,3.0504866E1,1.9212532E2,3.7534283E1,6.5321875E0,8.083081E0,1.5104971E0,1.0097987E1,2.2560925E2,3.3371695E2,4.9363342E1,2.4686636E1,3.9944923E1,4.536133E1,1.1072107E1,3.074345E1,3.6409916E1,1.5647193E1,5.821668E1,2.2517345E1,6.75598E1,1.1387084E1,5.438599E0,1.2323257E1,3.781882E0,1.8975319E1,9.014952E0,4.622176E1,5.0029865E1,2.6987953E1,4.8196514E1,2.402228E1,2.6101508E0,4.098447E1,1.0054938E1,4.7850872E1,9.4650276E1,7.259411E0,1.3087708E0,1.3565619E0,3.5108498E1,1.6221752E1,8.723146E1,1.1288674E0,1.5285062E0,1.0371891E2,2.4010275E1,1.5759845E0],"tree_param":{"num_deleted":"0","num_feature":"26","num_nodes":"121","size_leaf_vector":"1"}},{"base_weights":[5.603568E-3,-4.1213894E-1,2.5474524E0,-6.51565E-1,1.0612123E0,1.1516856E0,3.423151E0,-7.1843296E-1,8.740383E-2,5.1059073E-1,1.9046221E0,5.172159E-1,1.9168997E0,2.8024664E0,3.7344916E0,-8.98048E-1,-5.660278E-1,-2.8987303E-1,5.8985215E-1,2.9804447E-1,1.053769E0,1.4649668E0,2.450927E0,-1.00701086E-1,8.950416E-1,2.5848103E0,1.6058894E0,1.6552495E0,3.0146556E0,3.0338292E0,3.8266795E0,-9.6199435E-1,-6.5908504E-1,-2.3242779E-1,-6.0769767E-1,-3.4624895E-1,8.621243E-1,3.8143846E-1,1.2560612E0,1.6039795E-1,9.858027E-1,7.540127E-1,1.9210315E0,1.0885738E0,2.1180582E0,3.0166175E0,1.9663297E0,-2.124238E-1,1.7202271E0,6.535078E-1,1.895012E0,1.4441996E0,2.7475746E0,1.3943691E0,2.4977443E0,2.7310112E0,1.1536498E0,2.544995E0,3.4961936E0,6.530896E-2,1.7824992E0,3.4367514E0,7.912333E-2,-2.1702897E-2,-1.6825432E-2,-1.8590225E-2,-3.7168781E-3,-6.3923355E-3,1.6831892E-2,1.2902357E-3,-1.2489972E-2,8.635295E-3,-8.737968E-3,-1.728416E-2,2.8128423E-2,5.7842457E-3,3.997173E-2,3.2860655E-2,5.143155E-3,-1.520416E-3,1.3373904E-2,4.2111248E-2,1.1679791E-2,6.7836456E-3,2.6066512E-2,-1.6789488E-2,4.2173337E-2,4.1492987E-2,1.7601356E-2,-6.1059627E-3,4.4190016E-2,3.696665E-2,6.55787E-2,1.50826E-2,4.1639704E-2,-1.2475762E-3,-1.9257557E-2,4.5788486E-2,6.855904E-3,1.0374092E-2,3.8046174E-2,3.3718077E-3,4.6904158E-2,-2.5835147E-3,4.3115035E-2,4.6210226E-2,6.687923E-2,6.294086E-2,2.4912026E-2,8.099907E-4,5.331935E-2,5.4907287E-3,5.9646674E-2,1.1500208E-2,3.261236E-2,5.462606E-2,2.6779884E-2,7.159026E-2,3.235749E-2,1.0746547E-2,4.9196318E-2,1.9701589E-2,6.9188416E-2],"categories":[],"categories_nodes":[],"categories_segments":[],"categories_sizes":[],"default_left":[0,0,0,0,0,0,0,0,0,0,0,0,0,0,0,0,0,0,0,0,0,0,0,0,0,0,0,0,0,0,0,0,0,0,0,0,0,0,0,0,0,0,0,0,0,0,0,0,0,0,0,0,0,0,0,0,0,0,0,0,0,0,0,0,0,0,0,0,0,0,0,0,0,0,0,0,0,0,0,0,0,0,0,0,0,0,0,0,0,0,0,0,0,0,0,0,0,0,0,0,0,0,0,0,0,0,0,0,0,0,0,0,0,0,0,0,0,0,0,0,0,0,0],"id":5,"left_children":[1,3,5,7,9,11,13,15,17,19,21,23,25,27,29,31,33,35,37,39,41,43,45,47,49,51,53,55,57,59,61,63,65,67,69,71,73,75,77,79,81,83,85,87,89,91,93,95,97,99,101,103,105,107,109,111,113,115,117,-1,119,121,-1,-1,-1,-1,-1,-1,-1,-1,-1,-1,-1,-1,-1,-1,-1,-1,-1,-1,-1,-1,-1,-1,-1,-1,-1,-1,-1,-1,-1,-1,-1,-1,-1,-1,-1,-1,-1,-1,-1,-1,-1,-1,-1,-1,-1,-1,-1,-1,-1,-1,-1,-1,-1,-1,-1,-1,-1,-1,-1,-1,-1],"loss_changes":[8.0402104E3,2.2947554E3,1.3023882E3,2.7651855E2,4.2137695E2,1.9978546E2,1.1634766E2,1.3993848E2,8.834424E1,6.3368256E1,8.26012E1,5.3192917E1,3.4712097E1,4.9347656E1,1.6424316E1,3.532715E1,3.8479248E1,1.7595469E1,2.7263817E1,3.7505997E1,3.8779343E1,4.718289E1,3.752722E1,1.8106256E1,3.2877342E1,6.7622375E0,2.1095642E1,1.6846909E1,3.3430054E1,1.0204437E1,5.576172E0,2.6656494E1,6.3814255E1,2.9309055E1,2.7926086E1,1.814614E1,1.3160234E1,2.233529E1,1.781337E1,4.0032154E1,2.8534988E1,2.613723E1,2.2022919E1,2.485579E1,1.6751068E1,1.5782166E1,1.0803589E1,9.291935E0,3.2537718E0,1.842258E1,2.0553856E1,1.0719145E1,5.1692505E0,2.412947E1,9.694138E0,6.0053864E0,6.515896E0,1.8457397E1,8.252441E0,0E0,7.8185806E0,2.2766113E0,0E0,0E0,0E0,0E0,0E0,0E0,0E0,0E0,0E0,0E0,0E0,0E0,0E0,0E0,0E0,0E0,0E0,0E0,0E0,0E0,0E0,0E0,0E0,0E0,0E0,0E0,0E0,0E0,0E0,0E0,0E0,0E0,0E0,0E0,0E0,0E0,0E0,0E0,0E0,0E0,0E0,0E0,0E0,0E0,0E0,0E0,0E0,0E0,0E0,0E0,0E0,0E0,0E0,0E0,0E0,0E0,0E0,0E0,0E0,0E0,0E0],"parents":[2147483647,0,0,1,1,2,2,3,3,4,4,5,5,6,6,7,7,8,8,9,9,10,10,11,11,12,12,13,13,14,14,15,15,16,16,17,17,18,18,19,19,20,20,21,21,22,22,23,23,24,24,25,25,26,26,27,27,28,28,29,29,30,30,31,31,32,32,33,33,34,34,35,35,36,36,37,37,38,38,39,39,40,40,41,41,42,42,43,43,44,44,45,45,46,46,47,47,48,48,49,49,50,50,51,51,52,52,53,53,54,54,55,55,56,56,57,57,58,58,60,60,61,61],"right_children":[2,4,6,8,10,12,14,16,18,20,22,24,26,28,30,32,34,36,38,40,42,44,46,48,50,52,54,56,58,60,62,64,66,68,70,72,74,76,78,80,82,84,86,88,90,92,94,96,98,100,102,104,106,108,110,112,114,116,118,-1,120,122,-1,-1,-1,-1,-1,-1,-1,-1,-1,-1,-1,-1,-1,-1,-1,-1,-1,-1,-1,-1,-1,-1,-1,-1,-1,-1,-1,-1,-1,-1,-1,-1,-1,-1,-1,-1,-1,-1,-1,-1,-1,-1,-1,-1,-1,-1,-1,-1,-1,-1,-1,-1,-1,-1,-1,-1,-1,-1,-1,-1,-1],"split_conditions":[8.07768E2,9.054E1,9.966E1,9.028E1,1.0178E2,7.864E1,1.0729E2,-1.87844E2,2.37404E2,8.393E1,1.136E2,9.50628E2,-1.7139921E-2,7E0,1.0836E2,1.9E1,-2.0694561E-2,1.3976E2,6.38652E2,4.60516E2,1.9E1,3.69E2,1.12724E-3,1.0425E2,1.3273011E-3,3E0,1.1172E2,2.1667E-2,1.307488E3,3.5706E-2,1.218612E3,-5.57336E2,1.1555955E-2,8.264E1,-1.0171E2,-3.289E1,-1.3378E2,2.4489E2,3.5706E-2,1.9E1,1.015E1,9.028E1,1.2268E-2,2.542E1,9.33E1,1.41248E2,-6.7824E1,-1.8127E-2,8.69E1,1.615388E3,1.36E2,1.0558E2,9.522E1,1.962E1,2.3E1,1.862E1,3.481506E-5,2.1E1,1.6627498E-2,6.530896E-2,-2.2888E-2,-7.7946E-2,7.912333E-2,-2.1702897E-2,-1.6825432E-2,-1.8590225E-2,-3.7168781E-3,-6.3923355E-3,1.6831892E-2,1.2902357E-3,-1.2489972E-2,8.635295E-3,-8.737968E-3,-1.728416E-2,2.8128423E-2,5.7842457E-3,3.997173E-2,3.2860655E-2,5.143155E-3,-1.520416E-3,1.3373904E-2,4.2111248E-2,1.1679791E-2,6.7836456E-3,2.6066512E-2,-1.6789488E-2,4.2173337E-2,4.1492987E-2,1.7601356E-2,-6.1059627E-3,4.4190016E-2,3.696665E-2,6.55787E-2,1.50826E-2,4.1639704E-2,-1.2475762E-3,-1.9257557E-2,4.5788486E-2,6.855904E-3,1.0374092E-2,3.8046174E-2,3.3718077E-3,4.6904158E-2,-2.5835147E-3,4.3115035E-2,4.6210226E-2,6.687923E-2,6.294086E-2,2.4912026E-2,8.099907E-4,5.331935E-2,5.4907287E-3,5.9646674E-2,1.1500208E-2,3.261236E-2,5.462606E-2,2.6779884E-2,7.159026E-2,3.235749E-2,1.0746547E-2,4.9196318E-2,1.9701589E-2,6.9188416E-2],"split_indices":[6,3,1,1,2,3,3,6,6,2,1,6,8,24,2,24,8,4,6,6,24,11,18,2,18,24,2,10,6,10,6,6,8,3,1,3,6,1,10,24,2,1,10,4,3,6,6,9,1,6,11,4,2,2,11,4,23,24,8,0,9,9,0,0,0,0,0,0,0,0,0,0,0,0,0,0,0,0,0,0,0,0,0,0,0,0,0,0,0,0,0,0,0,0,0,0,0,0,0,0,0,0,0,0,0,0,0,0,0,0,0,0,0,0,0,0,0,0,0,0,0,0,0],"split_type":[0,0,0,0,0,0,0,0,0,0,0,0,0,0,0,0,0,0,0,0,0,0,0,0,0,0,0,0,0,0,0,0,0,0,0,0,0,0,0,0,0,0,0,0,0,0,0,0,0,0,0,0,0,0,0,0,0,0,0,0,0,0,0,0,0,0,0,0,0,0,0,0,0,0,0,0,0,0,0,0,0,0,0,0,0,0,0,0,0,0,0,0,0,0,0,0,0,0,0,0,0,0,0,0,0,0,0,0,0,0,0,0,0,0,0,0,0,0,0,0,0,0,0],"sum_hessian":[7.569984E3,6.50221E3,1.0677739E3,5.5937573E3,9.084525E2,4.125423E2,6.552316E2,5.1296157E3,4.6414178E2,5.5059863E2,3.578539E2,2.2645515E2,1.8608716E2,2.222193E2,4.330123E2,2.3523699E3,2.7772458E3,2.6533267E2,1.9880911E2,3.968568E2,1.537418E2,2.0032108E2,1.5753284E2,8.620469E1,1.4025047E2,5.6798477E1,1.2928868E2,3.605983E1,1.8615947E2,5.429086E1,3.7872144E2,1.8533809E3,4.989891E2,3.0911493E2,2.4681309E3,2.5362054E2,1.1712134E1,1.5263275E2,4.6176357E1,3.3170355E2,6.515325E1,1.1564147E2,3.8100327E1,1.2877284E2,7.1548225E1,7.0274025E1,8.725882E1,8.205365E1,4.1510434E0,1.1429668E2,2.5953793E1,8.325871E0,4.8472607E1,1.06575676E2,2.2712997E1,1.0053617E1,2.6006214E1,9.742383E1,8.8735634E1,4.4453087E1,9.8377695E0,1.0127889E2,2.7744257E2,9.135106E2,9.398702E2,3.169238E2,1.820653E2,2.8655484E2,2.2560072E1,6.011407E1,2.4080168E3,2.607392E1,2.2754663E2,2.666647E0,9.045487E0,1.4551297E2,7.119784E0,3.2817963E1,1.3358394E1,2.2698087E2,1.0472269E2,1.6085777E1,4.906747E1,6.680734E1,4.8834133E1,2.2038052E0,3.589652E1,2.0914238E1,1.07858604E2,2.5165832E0,6.903165E1,1.4360922E1,5.5913105E1,8.25523E0,7.9003586E1,6.9284164E1,1.2769482E1,2.4687738E0,1.6822696E0,1.04438324E2,9.858353E0,5.6523843E0,2.0301409E1,2.8476474E0,5.478224E0,3.078554E1,1.7687067E1,6.76158E0,9.9814095E1,1.5348012E0,2.1178198E1,1.1273221E0,8.926294E0,1.2747272E1,1.3258943E1,8.329181E1,1.4132022E1,8.409942E1,4.636221E0,4.097777E0,5.739992E0,1.3351856E0,9.994371E1],"tree_param":{"num_deleted":"0","num_feature":"26","num_nodes":"123","size_leaf_vector":"1"}},{"base_weights":[-1.3779997E-4,-5.82679E-1,2.3548698E0,-7.3928726E-1,4.4227025E-1,5.4932606E-1,2.858918E0,-7.845618E-1,2.1053126E-2,7.776469E-2,9.3036926E-1,2.2154675E-1,1.3854462E0,1.8002564E0,3.2167602E0,-8.604991E-1,-5.6960213E-1,-4.4636193E-1,4.2121476E-1,-2.0447753E-1,6.0226405E-1,7.07244E-1,2.3511434E0,-1.1801344E-1,8.1406325E-1,9.815086E-1,2.5758283E0,1.9720364E0,5.651696E-1,2.4327939E0,3.4220953E0,-8.852787E-1,-4.1006938E-1,-6.1756563E-1,-1.8385065E-1,-3.192487E-1,-9.8856974E-1,7.0334566E-1,-4.5810707E-2,8.8819534E-1,-2.740007E-1,1.8365262E-1,1.0312155E0,5.7555145E-1,1.6834695E0,2.9507463E0,1.2131528E0,2.1265687E-1,-5.0878733E-1,3.8002983E-1,1.7984468E0,1.6475369E0,3.6268046E-1,8.213884E-1,2.9529505E0,1.0146266E0,2.1739128E0,1.1269972E0,-2.9532108E-3,2.857334E0,1.8218722E0,3.092743E0,3.6516354E0,-3.3287248E-3,-1.7928446E-2,-1.0976012E-2,-1.4495703E-3,-1.3002388E-2,2.880621E-3,-1.0667843E-2,1.906651E-3,-1.2127993E-2,-1.1844331E-4,-2.8312379E-3,-2.0407122E-2,1.935131E-2,-2.4985033E-3,-5.9279907E-3,6.7617744E-3,5.51079E-4,2.7138619E-2,-7.5228023E-3,1.2333518E-2,2.4222376E-2,8.437825E-4,9.464398E-3,3.4588903E-2,2.5198914E-2,7.837498E-3,-2.4276192E-3,3.9232057E-2,6.364834E-2,2.8452342E-2,-8.323901E-3,3.9648842E-2,8.932104E-3,-8.741384E-3,-1.2954713E-2,6.6324286E-3,2.728441E-2,4.453372E-3,3.8932607E-2,-1.355849E-2,3.6061544E-3,4.145211E-2,-4.107474E-3,1.7684689E-2,-7.556874E-3,2.8337462E-2,6.2312953E-2,1.9086828E-2,3.6952375E-3,3.4355856E-2,3.5603918E-2,5.219243E-2,-6.8917E-4,3.2824837E-2,-7.3046754E-3,2.8586766E-2,3.5100255E-2,6.2150296E-2,4.0868673E-2,1.7398724E-2,5.375561E-2,6.637563E-2,3.4214854E-2,7.334559E-2],"categories":[],"categories_nodes":[],"categories_segments":[],"categories_sizes":[],"default_left":[0,0,0,0,0,0,0,0,0,0,0,0,0,0,0,0,0,0,0,0,0,0,0,0,0,0,0,0,0,0,0,0,0,0,0,0,0,0,0,0,0,0,0,0,0,0,0,0,0,0,0,0,0,0,0,0,0,0,0,0,0,0,0,0,0,0,0,0,0,0,0,0,0,0,0,0,0,0,0,0,0,0,0,0,0,0,0,0,0,0,0,0,0,0,0,0,0,0,0,0,0,0,0,0,0,0,0,0,0,0,0,0,0,0,0,0,0,0,0,0,0,0,0,0,0,0,0],"id":6,"left_children":[1,3,5,7,9,11,13,15,17,19,21,23,25,27,29,31,33,35,37,39,41,43,45,47,49,51,53,55,57,59,61,63,65,67,69,71,73,75,77,79,81,83,85,87,89,91,93,95,97,99,101,103,105,107,109,111,113,115,117,119,121,123,125,-1,-1,-1,-1,-1,-1,-1,-1,-1,-1,-1,-1,-1,-1,-1,-1,-1,-1,-1,-1,-1,-1,-1,-1,-1,-1,-1,-1,-1,-1,-1,-1,-1,-1,-1,-1,-1,-1,-1,-1,-1,-1,-1,-1,-1,-1,-1,-1,-1,-1,-1,-1,-1,-1,-1,-1,-1,-1,-1,-1,-1,-1,-1,-1],"loss_changes":[1.0360055E4,9.721057E2,1.361332E3,1.8081323E2,1.4280415E2,8.960418E1,4.3763086E2,8.042407E1,5.5577118E1,6.834218E1,1.0714584E2,4.7752514E1,4.1805527E1,6.21026E1,1.3229297E2,4.049878E1,2.3882385E1,9.131775E0,2.1121927E1,2.3059895E1,2.880592E1,3.7352325E1,2.7914886E1,1.9677967E1,3.6239277E1,2.844149E1,1.2623016E1,4.8275085E1,1.2063366E1,4.271521E1,4.085205E1,2.7641113E1,8.988171E0,2.8681976E1,1.4186119E1,1.0119941E1,5.4358864E-1,2.1970867E1,5.9893074E0,7.3059216E0,2.5990887E1,1.2004109E1,3.01697E1,3.2713783E1,1.7763237E1,5.9272766E0,2.2917906E1,1.2771581E1,8.355125E0,9.181058E0,1.0925133E1,2.061396E1,1.1381977E1,4.398301E0,2.9885712E0,2.7316963E1,3.2206665E1,1.1404528E1,1.0787757E1,2.4124146E1,1.4781769E1,1.7609375E1,5.8999023E0,0E0,0E0,0E0,0E0,0E0,0E0,0E0,0E0,0E0,0E0,0E0,0E0,0E0,0E0,0E0,0E0,0E0,0E0,0E0,0E0,0E0,0E0,0E0,0E0,0E0,0E0,0E0,0E0,0E0,0E0,0E0,0E0,0E0,0E0,0E0,0E0,0E0,0E0,0E0,0E0,0E0,0E0,0E0,0E0,0E0,0E0,0E0,0E0,0E0,0E0,0E0,0E0,0E0,0E0,0E0,0E0,0E0,0E0,0E0,0E0,0E0,0E0,0E0,0E0],"parents":[2147483647,0,0,1,1,2,2,3,3,4,4,5,5,6,6,7,7,8,8,9,9,10,10,11,11,12,12,13,13,14,14,15,15,16,16,17,17,18,18,19,19,20,20,21,21,22,22,23,23,24,24,25,25,26,26,27,27,28,28,29,29,30,30,31,31,32,32,33,33,34,34,35,35,36,36,37,37,38,38,39,39,40,40,41,41,42,42,43,43,44,44,45,45,46,46,47,47,48,48,49,49,50,50,51,51,52,52,53,53,54,54,55,55,56,56,57,57,58,58,59,59,60,60,61,61,62,62],"right_children":[2,4,6,8,10,12,14,16,18,20,22,24,26,28,30,32,34,36,38,40,42,44,46,48,50,52,54,56,58,60,62,64,66,68,70,72,74,76,78,80,82,84,86,88,90,92,94,96,98,100,102,104,106,108,110,112,114,116,118,120,122,124,126,-1,-1,-1,-1,-1,-1,-1,-1,-1,-1,-1,-1,-1,-1,-1,-1,-1,-1,-1,-1,-1,-1,-1,-1,-1,-1,-1,-1,-1,-1,-1,-1,-1,-1,-1,-1,-1,-1,-1,-1,-1,-1,-1,-1,-1,-1,-1,-1,-1,-1,-1,-1,-1,-1,-1,-1,-1,-1,-1,-1,-1,-1,-1,-1],"split_conditions":[9.59E1,8.625E1,2.67672E2,8.28E1,8.87E1,9.054E1,1.1125E2,4.102061E1,3.66192E2,1.8E1,2.1E1,8.395223E1,1.3803E2,2E1,8.477E1,6.78176E2,1.2644765E2,2E1,7.817E1,7.1083805E-6,8.54779E-3,9.212E1,7.285E1,1.2227178E-3,9.5452E1,1.1519267E-3,3.0044596E1,5.884E1,3.25597E1,2.5208E-2,1.218612E3,9.339255E-7,1.1720012E1,6.17E2,-1.40152E2,1.12E2,-7.969E1,3.5706E-2,7.864E1,2.9846E-2,8.847E1,-3.056E1,6.423E1,4.093E1,4.5999203E0,1.2268E-2,7.2020157E-3,1.7E1,1.0048E2,5.2E1,2.8835E2,3.4936E1,7.9256E1,1.1371E2,2.1E1,1E1,1.04E2,2.3987E-2,1.0425E2,5.47748E2,4.7424E-2,1.2761E2,7.285E1,-3.3287248E-3,-1.7928446E-2,-1.0976012E-2,-1.4495703E-3,-1.3002388E-2,2.880621E-3,-1.0667843E-2,1.906651E-3,-1.2127993E-2,-1.1844331E-4,-2.8312379E-3,-2.0407122E-2,1.935131E-2,-2.4985033E-3,-5.9279907E-3,6.7617744E-3,5.51079E-4,2.7138619E-2,-7.5228023E-3,1.2333518E-2,2.4222376E-2,8.437825E-4,9.464398E-3,3.4588903E-2,2.5198914E-2,7.837498E-3,-2.4276192E-3,3.9232057E-2,6.364834E-2,2.8452342E-2,-8.323901E-3,3.9648842E-2,8.932104E-3,-8.741384E-3,-1.2954713E-2,6.6324286E-3,2.728441E-2,4.453372E-3,3.8932607E-2,-1.355849E-2,3.6061544E-3,4.145211E-2,-4.107474E-3,1.7684689E-2,-7.556874E-3,2.8337462E-2,6.2312953E-2,1.9086828E-2,3.6952375E-3,3.4355856E-2,3.5603918E-2,5.219243E-2,-6.8917E-4,3.2824837E-2,-7.3046754E-3,2.8586766E-2,3.5100255E-2,6.2150296E-2,4.0868673E-2,1.7398724E-2,5.375561E-2,6.637563E-2,3.4214854E-2,7.334559E-2],"split_indices":[0,3,6,0,2,3,0,5,6,24,24,5,2,24,2,6,5,24,4,23,8,0,4,18,6,18,5,3,5,10,6,23,5,22,6,6,4,10,3,10,0,2,2,4,5,9,8,24,4,11,2,6,6,4,24,24,0,10,2,6,10,0,1,0,0,0,0,0,0,0,0,0,0,0,0,0,0,0,0,0,0,0,0,0,0,0,0,0,0,0,0,0,0,0,0,0,0,0,0,0,0,0,0,0,0,0,0,0,0,0,0,0,0,0,0,0,0,0,0,0,0,0,0,0,0,0,0],"split_type":[0,0,0,0,0,0,0,0,0,0,0,0,0,0,0,0,0,0,0,0,0,0,0,0,0,0,0,0,0,0,0,0,0,0,0,0,0,0,0,0,0,0,0,0,0,0,0,0,0,0,0,0,0,0,0,0,0,0,0,0,0,0,0,0,0,0,0,0,0,0,0,0,0,0,0,0,0,0,0,0,0,0,0,0,0,0,0,0,0,0,0,0,0,0,0,0,0,0,0,0,0,0,0,0,0,0,0,0,0,0,0,0,0,0,0,0,0,0,0,0,0,0,0,0,0,0,0],"sum_hessian":[7.549672E3,6.0531104E3,1.4965614E3,5.251049E3,8.0206134E2,3.270675E2,1.1694939E3,4.9559165E3,2.951326E2,4.598277E2,3.422336E2,2.3586693E2,9.120057E1,2.9696506E2,8.725289E2,3.6599785E3,1.2959379E3,1.360739E2,1.590587E2,2.9935156E2,1.6047614E2,2.97077E2,4.5156624E1,1.504485E2,8.541842E1,6.9456215E1,2.1744352E1,2.6018146E2,3.6783604E1,1.8376505E2,6.887638E2,3.4682153E3,1.9176321E2,1.1520886E3,1.4384921E2,1.1151866E2,2.4555235E1,9.884204E1,6.021666E1,1.7202944E1,2.8214862E2,8.193974E1,7.853639E1,2.6316562E2,3.3911385E1,2.8530872E1,1.6625753E1,8.173808E1,6.871043E1,6.0242443E1,2.517598E1,3.2651707E1,3.6804512E1,4.4093432E0,1.7335009E1,4.635695E1,2.1382451E2,1.7999664E1,1.878394E1,1.0625179E2,7.751325E1,2.888235E2,3.999403E2,5.318719E1,3.415028E3,1.3546779E2,5.6295433E1,1.1050027E3,4.7086025E1,6.347146E1,8.0377754E1,5.7701885E1,5.3816772E1,1.0854297E0,2.3469807E1,7.48095E1,2.403254E1,3.6572216E1,2.3644444E1,6.4390483E0,1.0763896E1,2.5363985E2,2.8508766E1,9.001249E0,7.29385E1,4.4584267E1,3.395212E1,5.4443806E1,2.087218E2,4.603319E0,2.9308065E1,2.3834846E1,4.696025E0,5.479407E0,1.1146346E1,6.0328197E1,2.1409887E1,5.9158726E1,9.5517E0,7.2471204E0,5.2995323E1,2.3956373E1,1.2196071E0,7.6544986E0,2.4997206E1,1.7907099E1,1.8897413E1,1.5842819E0,2.8250613E0,1.5513242E1,1.8217676E0,2.1842073E1,2.4514877E1,1.1499662E2,9.882789E1,5.810117E0,1.2189548E1,1.558652E1,3.1974187E0,2.1136656E1,8.5115135E1,6.194828E1,1.5564972E1,1.08080666E2,1.8074283E2,4.080193E0,3.9586014E2],"tree_param":{"num_deleted":"0","num_feature":"26","num_nodes":"127","size_leaf_vector":"1"}},{"base_weights":[9.731003E-4,-5.738767E-1,2.292294E0,-7.154211E-1,4.8929337E-1,7.8827876E-1,2.8508835E0,-7.661144E-1,2.975247E-2,1.1414277E-1,9.682556E-1,8.427962E-2,1.2764025E0,1.8560424E0,3.1369271E0,-8.3804125E-1,-5.673372E-1,-5.066192E-1,3.5073712E-1,1.2219751E0,4.1662236E-3,7.242985E-1,1.910095E0,-9.206219E-2,8.054184E-1,1.029371E0,2.5914462E0,2.4988525E0,1.428578E0,2.2780035E0,3.2984862E0,-9.981872E-1,-7.677735E-1,3.1236705E-1,-5.886019E-1,-1.369763E-1,-6.2139547E-1,9.685182E-1,-1.7289246E-2,9.754441E-1,5.6916635E-2,-9.409453E-2,6.211334E-1,5.492248E-1,1.7198929E0,2.1358058E0,1.0815434E0,1.6640699E-1,-5.732612E-1,4.216815E-1,2.177229E0,1.3766471E0,2.5058204E-1,2.890869E0,1.627009E0,4.3120724E-1,2.6076646E0,8.5019505E-1,1.8114032E0,2.9013336E0,1.9173741E0,2.9330153E0,3.4634833E0,-5.3923302E-3,-2.0285338E-2,-1.6182397E-2,-1.0907507E-2,-1.0026155E-2,1.50740165E-2,-1.2965945E-2,-5.6679314E-3,-5.958703E-3,2.8099265E-2,-9.666108E-3,-2.1734284E-2,2.7205106E-2,6.693556E-3,9.561821E-3,-3.5765998E-3,5.8567487E-3,3.4906946E-2,-3.4880461E-3,8.9790225E-3,2.0860992E-3,2.1408482E-2,2.763911E-2,6.4926487E-3,1.209195E-2,4.2223815E-2,3.0849718E-2,4.98118E-2,3.2928407E-2,-1.1979348E-3,-1.2256364E-2,6.9771972E-3,-1.568736E-2,-3.052864E-3,-5.764796E-3,1.4332663E-2,3.2058628E-3,5.2074663E-2,3.9087053E-2,2.1098692E-2,-5.978704E-3,1.851346E-2,3.773766E-2,6.406532E-2,-1.2719538E-2,3.8222514E-2,-6.615067E-3,3.3800997E-2,6.24779E-2,4.3983426E-2,1.2602684E-2,4.154497E-2,3.800844E-2,5.252278E-3,5.9713047E-2,1.7591838E-2,2.999271E-2,4.883698E-2,6.071299E-2,3.7423667E-2,6.2053923E-2,7.094967E-2],"categories":[],"categories_nodes":[],"categories_segments":[],"categories_sizes":[],"default_left":[0,0,0,0,0,0,0,0,0,0,0,0,0,0,0,0,0,0,0,0,0,0,0,0,0,0,0,0,0,0,0,0,0,0,0,0,0,0,0,0,0,0,0,0,0,0,0,0,0,0,0,0,0,0,0,0,0,0,0,0,0,0,0,0,0,0,0,0,0,0,0,0,0,0,0,0,0,0,0,0,0,0,0,0,0,0,0,0,0,0,0,0,0,0,0,0,0,0,0,0,0,0,0,0,0,0,0,0,0,0,0,0,0,0,0,0,0,0,0,0,0,0,0,0,0],"id":7,"left_children":[1,3,5,7,9,11,13,15,17,19,21,23,25,27,29,31,33,35,37,39,41,43,45,47,49,51,53,55,57,59,61,63,65,67,69,71,73,75,77,79,-1,81,83,85,87,89,91,93,95,97,99,101,103,105,107,109,111,113,115,117,119,121,123,-1,-1,-1,-1,-1,-1,-1,-1,-1,-1,-1,-1,-1,-1,-1,-1,-1,-1,-1,-1,-1,-1,-1,-1,-1,-1,-1,-1,-1,-1,-1,-1,-1,-1,-1,-1,-1,-1,-1,-1,-1,-1,-1,-1,-1,-1,-1,-1,-1,-1,-1,-1,-1,-1,-1,-1,-1,-1,-1,-1,-1,-1],"loss_changes":[9.933245E3,9.076067E2,1.2684683E3,2.0102197E2,1.27273254E2,1.4112825E2,3.079209E2,7.075488E1,5.869428E1,4.8568916E1,7.013226E1,2.1610897E1,7.615671E1,6.47572E1,1.1111328E2,4.037744E1,2.5004517E1,5.3308983E0,4.849558E1,1.1636204E1,2.2106321E1,4.2426605E1,9.551117E0,1.7132193E1,1.665307E1,5.534967E1,6.187149E0,2.0919556E1,3.204532E1,2.558667E1,3.3095703E1,1.275E1,2.2965454E1,1.1858104E1,2.3426147E1,8.243821E0,5.7158318E0,1.9314255E1,1.0857176E1,1.6714533E1,0E0,1.3797752E1,1.1520933E1,3.940349E1,1.4758713E1,6.4347534E0,1.0159985E1,1.2993374E1,4.1505165E0,5.9277983E0,5.652401E0,2.4366669E1,2.4290154E1,2.578247E0,8.430668E0,6.406822E0,1.2717041E1,1.5512516E1,1.1962585E1,5.699463E0,1.621698E1,1.9345703E1,3.8027344E0,0E0,0E0,0E0,0E0,0E0,0E0,0E0,0E0,0E0,0E0,0E0,0E0,0E0,0E0,0E0,0E0,0E0,0E0,0E0,0E0,0E0,0E0,0E0,0E0,0E0,0E0,0E0,0E0,0E0,0E0,0E0,0E0,0E0,0E0,0E0,0E0,0E0,0E0,0E0,0E0,0E0,0E0,0E0,0E0,0E0,0E0,0E0,0E0,0E0,0E0,0E0,0E0,0E0,0E0,0E0,0E0,0E0,0E0,0E0,0E0,0E0,0E0],"parents":[2147483647,0,0,1,1,2,2,3,3,4,4,5,5,6,6,7,7,8,8,9,9,10,10,11,11,12,12,13,13,14,14,15,15,16,16,17,17,18,18,19,19,20,20,21,21,22,22,23,23,24,24,25,25,26,26,27,27,28,28,29,29,30,30,31,31,32,32,33,33,34,34,35,35,36,36,37,37,38,38,39,39,41,41,42,42,43,43,44,44,45,45,46,46,47,47,48,48,49,49,50,50,51,51,52,52,53,53,54,54,55,55,56,56,57,57,58,58,59,59,60,60,61,61,62,62],"right_children":[2,4,6,8,10,12,14,16,18,20,22,24,26,28,30,32,34,36,38,40,42,44,46,48,50,52,54,56,58,60,62,64,66,68,70,72,74,76,78,80,-1,82,84,86,88,90,92,94,96,98,100,102,104,106,108,110,112,114,116,118,120,122,124,-1,-1,-1,-1,-1,-1,-1,-1,-1,-1,-1,-1,-1,-1,-1,-1,-1,-1,-1,-1,-1,-1,-1,-1,-1,-1,-1,-1,-1,-1,-1,-1,-1,-1,-1,-1,-1,-1,-1,-1,-1,-1,-1,-1,-1,-1,-1,-1,-1,-1,-1,-1,-1,-1,-1,-1,-1,-1,-1,-1,-1,-1],"split_conditions":[9.696E1,9.054E1,4.33616E2,8.28E1,9.045E1,6.7532E1,1.1125E2,4.102061E1,2.67672E2,7.1083805E-6,1.6296905E-2,9.527E1,2.0874E2,1.6277775E-6,7.509E1,-4.74828E2,2.993978E-6,3.4E0,3.8311987E-6,2.2031E2,1.970203E-2,9.212E1,5.777313E-5,1.9900066E-5,1.3471E2,3.13713E-5,2.3819668E-5,6.11E0,8.5E1,6.2636127E-6,1.035848E3,9.339255E-7,6.781E1,2.47E2,1.04652695E2,4.85E2,7.782456E-3,7.817E1,5.047E1,6.051E1,5.6916635E-2,8.685E1,5.999E1,4.478E1,1.0195E2,1.0699E2,-2.47754E-1,1.0806E2,5.456E1,-6.4306045E-1,1.3809E2,1.7094328E-3,2.30796E2,-1.04246415E-1,2.7159496E-5,7.081E-3,-9.64278E-3,1.353168E3,1.42E2,6.2683E-2,1.4077E2,4.8044814E-5,1.0561E2,-5.3923302E-3,-2.0285338E-2,-1.6182397E-2,-1.0907507E-2,-1.0026155E-2,1.50740165E-2,-1.2965945E-2,-5.6679314E-3,-5.958703E-3,2.8099265E-2,-9.666108E-3,-2.1734284E-2,2.7205106E-2,6.693556E-3,9.561821E-3,-3.5765998E-3,5.8567487E-3,3.4906946E-2,-3.4880461E-3,8.9790225E-3,2.0860992E-3,2.1408482E-2,2.763911E-2,6.4926487E-3,1.209195E-2,4.2223815E-2,3.0849718E-2,4.98118E-2,3.2928407E-2,-1.1979348E-3,-1.2256364E-2,6.9771972E-3,-1.568736E-2,-3.052864E-3,-5.764796E-3,1.4332663E-2,3.2058628E-3,5.2074663E-2,3.9087053E-2,2.1098692E-2,-5.978704E-3,1.851346E-2,3.773766E-2,6.406532E-2,-1.2719538E-2,3.8222514E-2,-6.615067E-3,3.3800997E-2,6.24779E-2,4.3983426E-2,1.2602684E-2,4.154497E-2,3.800844E-2,5.252278E-3,5.9713047E-2,1.7591838E-2,2.999271E-2,4.883698E-2,6.071299E-2,3.7423667E-2,6.2053923E-2,7.094967E-2],"split_indices":[0,3,6,0,2,6,0,5,6,23,8,3,0,7,3,6,23,4,7,3,8,0,23,7,2,7,7,3,3,7,6,23,0,11,5,22,8,4,4,2,0,0,2,4,3,2,14,0,2,15,0,19,6,14,7,17,8,6,12,10,0,7,2,0,0,0,0,0,0,0,0,0,0,0,0,0,0,0,0,0,0,0,0,0,0,0,0,0,0,0,0,0,0,0,0,0,0,0,0,0,0,0,0,0,0,0,0,0,0,0,0,0,0,0,0,0,0,0,0,0,0,0,0,0,0],"split_type":[0,0,0,0,0,0,0,0,0,0,0,0,0,0,0,0,0,0,0,0,0,0,0,0,0,0,0,0,0,0,0,0,0,0,0,0,0,0,0,0,0,0,0,0,0,0,0,0,0,0,0,0,0,0,0,0,0,0,0,0,0,0,0,0,0,0,0,0,0,0,0,0,0,0,0,0,0,0,0,0,0,0,0,0,0,0,0,0,0,0,0,0,0,0,0,0,0,0,0,0,0,0,0,0,0,0,0,0,0,0,0,0,0,0,0,0,0,0,0,0,0,0,0,0,0],"sum_hessian":[7.5393813E3,6.0278545E3,1.511527E3,5.319918E3,7.079363E2,4.1000095E2,1.101526E3,4.9810356E3,3.3888254E2,3.9768497E2,3.1025128E2,1.6835812E2,2.4164282E2,2.4766202E2,8.53864E2,3.6551982E3,1.3258373E3,1.2665732E2,2.122252E2,3.5000584E1,3.626844E2,2.4782753E2,6.2423756E1,1.3597916E2,3.2378975E1,2.0492952E2,3.6713314E1,9.6980064E1,1.5068196E2,1.3757127E2,7.162927E2,1.1106752E3,2.544523E3,3.096936E1,1.2948679E3,3.0529354E1,9.612797E1,7.86198E1,1.3360541E2,3.1776958E1,3.2236242E0,3.1358847E2,4.9095913E1,2.1208447E2,3.5743065E1,4.7819252E1,1.4604504E1,8.888827E1,4.7090885E1,2.6323023E1,6.0559545E0,1.4119876E2,6.3730755E1,2.6491272E1,1.0222042E1,5.0966463E0,9.188342E1,6.1295635E1,8.938632E1,4.78389E1,8.9732376E1,2.2863629E2,4.8765643E2,2.436728E1,1.086308E3,2.1434019E3,4.011213E2,1.0842834E1,2.0126526E1,1.0820958E3,2.1277211E2,2.8374226E1,2.1551287E0,7.5701195E1,2.0426771E1,4.7881306E1,3.0738495E1,3.237249E1,1.01232925E2,1.7575043E1,1.4201917E1,2.7377966E2,3.9808804E1,2.3404911E1,2.5691E1,4.3955517E1,1.6812895E2,9.944345E0,2.5798717E1,1.9895271E1,2.792398E1,9.47373E0,5.1307745E0,1.6416674E1,7.2471596E1,3.077847E1,1.6312414E1,7.7330484E0,1.8589973E1,1.2972239E0,4.7587304E0,4.8690113E1,9.2508644E1,3.544008E1,2.8290676E1,7.957473E0,1.8533798E1,1.0020775E0,9.219965E0,3.6341813E0,1.4624652E0,3.765272E1,5.4230698E1,5.3257862E1,8.037776E0,8.431326E1,5.0730605E0,4.5465927E1,2.3729742E0,5.2097E1,3.763538E1,2.067896E2,2.1846695E1,9.926113E1,3.883953E2],"tree_param":{"num_deleted":"0","num_feature":"26","num_nodes":"125","size_leaf_vector":"1"}},{"base_weights":[6.271808E-4,-5.756334E-1,2.1947734E0,-7.2109467E-1,4.3046415E-1,1.377056E0,2.7842197E0,-7.641071E-1,-2.8642254E-2,2.0565853E-2,8.28433E-1,8.3316696E-1,1.8103008E0,1.8432976E0,3.0051622E0,-8.3395785E-1,-5.675191E-1,3.972654E-1,-2.870416E-1,1.4136957E0,-5.861144E-2,4.8907647E-1,1.6854448E0,2.1192286E0,6.858883E-1,1.0615647E0,2.1003165E0,4.8438802E-1,1.9771416E0,2.5380743E0,3.166195E0,-8.7003374E-1,-5.3812724E-1,-6.291115E-1,-2.417388E-1,8.429854E-3,7.593279E-1,-4.8113105E-1,3.5054542E-3,1.7515064E0,-6.143869E-1,-1.4119588E-1,5.9629214E-1,2.9131737E-1,1.108619E0,1.2283227E0,2.0590549E0,3.2053444E0,1.4636674E0,1.4740592E0,5.3767765E-1,1.7909409E0,5.645327E-1,2.6292155E0,1.7353462E0,1.0440366E0,-3.8920563E-1,1.5074911E0,2.2902255E0,2.8687649E0,2.092524E0,2.9917374E0,3.3067908E0,-6.020708E-3,-1.763316E-2,-1.4606848E-2,-8.361866E-3,1.020326E-2,-1.2948291E-2,-6.2049692E-3,6.7381794E-3,-1.0006919E-2,7.564154E-3,3.427366E-3,2.1724278E-2,-1.023016E-2,1.4606082E-2,5.424228E-3,-9.925154E-3,4.944964E-2,1.485354E-2,-1.5061615E-2,-2.8630933E-3,-3.6789703E-3,1.5589538E-2,9.027635E-3,5.450621E-2,1.962167E-2,1.5631939E-3,-2.8227882E-3,2.6299754E-2,1.3592504E-2,3.212478E-2,5.6381144E-2,3.5990726E-2,2.1035368E-2,6.786199E-2,1.2130981E-2,4.3026812E-2,-1.9338812E-3,3.7224963E-2,9.135718E-3,3.2922275E-2,2.7287777E-3,4.0263224E-2,1.7624084E-2,1.3174544E-3,5.730803E-2,3.0878255E-2,1.7881E-2,3.6343455E-2,-4.237315E-3,3.217216E-2,1.8268667E-2,-1.708276E-2,1.9525452E-2,4.027274E-2,-4.7335923E-3,4.650057E-2,5.8515687E-2,2.2370383E-2,4.374853E-2,1.8624043E-2,6.1057456E-2,4.7908824E-2,5.355335E-2,6.737081E-2],"categories":[],"categories_nodes":[],"categories_segments":[],"categories_sizes":[],"default_left":[0,0,0,0,0,0,0,0,0,0,0,0,0,0,0,0,0,0,0,0,0,0,0,0,0,0,0,0,0,0,0,0,0,0,0,0,0,0,0,0,0,0,0,0,0,0,0,0,0,0,0,0,0,0,0,0,0,0,0,0,0,0,0,0,0,0,0,0,0,0,0,0,0,0,0,0,0,0,0,0,0,0,0,0,0,0,0,0,0,0,0,0,0,0,0,0,0,0,0,0,0,0,0,0,0,0,0,0,0,0,0,0,0,0,0,0,0,0,0,0,0,0,0,0,0,0,0],"id":8,"left_children":[1,3,5,7,9,11,13,15,17,19,21,23,25,27,29,31,33,35,37,39,41,43,45,47,49,51,53,55,57,59,61,63,65,67,69,71,73,75,77,79,81,83,85,87,89,91,93,95,97,99,101,103,105,107,109,111,113,115,117,119,121,123,125,-1,-1,-1,-1,-1,-1,-1,-1,-1,-1,-1,-1,-1,-1,-1,-1,-1,-1,-1,-1,-1,-1,-1,-1,-1,-1,-1,-1,-1,-1,-1,-1,-1,-1,-1,-1,-1,-1,-1,-1,-1,-1,-1,-1,-1,-1,-1,-1,-1,-1,-1,-1,-1,-1,-1,-1,-1,-1,-1,-1,-1,-1,-1,-1],"loss_changes":[9.523705E3,8.733439E2,7.5133545E2,1.5522168E2,1.2300716E2,1.5360449E2,1.8353027E2,6.691455E1,3.377649E1,4.1175476E1,1.1045532E2,5.4179504E1,7.714795E1,3.0968628E1,4.7243164E1,3.81521E1,2.5726135E1,1.6312965E1,1.0769911E1,1.4829033E1,1.920128E1,3.3431305E1,1.5936951E1,1.6456467E1,3.0165474E1,3.672129E1,4.610254E1,8.748655E0,1.9995972E1,2.2500977E1,3.413086E0,2.1057373E1,8.8302E0,2.2934082E1,8.29808E0,1.0894829E1,1.1348423E1,4.586628E0,1.0498782E1,1.0868595E1,1.279074E-1,1.2530038E1,1.1040392E1,3.082801E1,1.7286423E1,9.505821E0,6.37027E0,6.118469E-1,1.06970825E1,2.5341934E1,1.9390404E1,1.506488E1,9.947351E0,2.2548828E1,9.268829E0,7.9077444E0,5.256629E0,1.5971237E1,8.795746E0,7.540222E0,7.4536743E0,1.8950195E0,2.28125E0,0E0,0E0,0E0,0E0,0E0,0E0,0E0,0E0,0E0,0E0,0E0,0E0,0E0,0E0,0E0,0E0,0E0,0E0,0E0,0E0,0E0,0E0,0E0,0E0,0E0,0E0,0E0,0E0,0E0,0E0,0E0,0E0,0E0,0E0,0E0,0E0,0E0,0E0,0E0,0E0,0E0,0E0,0E0,0E0,0E0,0E0,0E0,0E0,0E0,0E0,0E0,0E0,0E0,0E0,0E0,0E0,0E0,0E0,0E0,0E0,0E0,0E0,0E0,0E0],"parents":[2147483647,0,0,1,1,2,2,3,3,4,4,5,5,6,6,7,7,8,8,9,9,10,10,11,11,12,12,13,13,14,14,15,15,16,16,17,17,18,18,19,19,20,20,21,21,22,22,23,23,24,24,25,25,26,26,27,27,28,28,29,29,30,30,31,31,32,32,33,33,34,34,35,35,36,36,37,37,38,38,39,39,40,40,41,41,42,42,43,43,44,44,45,45,46,46,47,47,48,48,49,49,50,50,51,51,52,52,53,53,54,54,55,55,56,56,57,57,58,58,59,59,60,60,61,61,62,62],"right_children":[2,4,6,8,10,12,14,16,18,20,22,24,26,28,30,32,34,36,38,40,42,44,46,48,50,52,54,56,58,60,62,64,66,68,70,72,74,76,78,80,82,84,86,88,90,92,94,96,98,100,102,104,106,108,110,112,114,116,118,120,122,124,126,-1,-1,-1,-1,-1,-1,-1,-1,-1,-1,-1,-1,-1,-1,-1,-1,-1,-1,-1,-1,-1,-1,-1,-1,-1,-1,-1,-1,-1,-1,-1,-1,-1,-1,-1,-1,-1,-1,-1,-1,-1,-1,-1,-1,-1,-1,-1,-1,-1,-1,-1,-1,-1,-1,-1,-1,-1,-1,-1,-1,-1,-1,-1,-1],"split_conditions":[9.59E1,8.866E1,9.522E1,8.28E1,8.393E1,6.18E1,1.1125E2,4.141575E1,3.8311987E-6,1.7848023E-6,1.179598E-2,5.31E-3,1.0677E2,5.719E1,1.0729E2,6.781E1,1.0856827E2,8.847E1,1.2326534E-3,4.089E-3,-2.991E-3,8.753E1,1.171E2,-5.1716106E-6,-3.754E1,3.4542748E-7,1.9348E-2,6.715E1,1.0275E2,2.6428E-2,1.5219E2,1.7848023E-6,8.618408E0,9.339255E-7,5E1,1.1763867E-3,1.6052574E-2,1.4697327E-4,5E0,2.6503534E0,1.2268E-2,9.01E2,1.636E2,5.493E1,4.5999203E0,1.9266251E-2,7.1083805E-6,4.102061E1,1.484E1,1.0677E2,8.477E1,2.058E1,2.4498846E1,2.896777E-5,1.813E1,5.153334E1,2.6389647E0,1.1325E2,-7.3307E-2,9.403E-3,5.33811E-5,4.2643234E1,1.0293E2,-6.020708E-3,-1.763316E-2,-1.4606848E-2,-8.361866E-3,1.020326E-2,-1.2948291E-2,-6.2049692E-3,6.7381794E-3,-1.0006919E-2,7.564154E-3,3.427366E-3,2.1724278E-2,-1.023016E-2,1.4606082E-2,5.424228E-3,-9.925154E-3,4.944964E-2,1.485354E-2,-1.5061615E-2,-2.8630933E-3,-3.6789703E-3,1.5589538E-2,9.027635E-3,5.450621E-2,1.962167E-2,1.5631939E-3,-2.8227882E-3,2.6299754E-2,1.3592504E-2,3.212478E-2,5.6381144E-2,3.5990726E-2,2.1035368E-2,6.786199E-2,1.2130981E-2,4.3026812E-2,-1.9338812E-3,3.7224963E-2,9.135718E-3,3.2922275E-2,2.7287777E-3,4.0263224E-2,1.7624084E-2,1.3174544E-3,5.730803E-2,3.0878255E-2,1.7881E-2,3.6343455E-2,-4.237315E-3,3.217216E-2,1.8268667E-2,-1.708276E-2,1.9525452E-2,4.027274E-2,-4.7335923E-3,4.650057E-2,5.8515687E-2,2.2370383E-2,4.374853E-2,1.8624043E-2,6.1057456E-2,4.7908824E-2,5.355335E-2,6.737081E-2],"split_indices":[0,3,2,0,2,3,0,5,7,23,8,10,0,3,3,0,5,0,18,9,9,0,3,7,3,7,10,4,0,10,0,23,5,23,12,18,14,23,25,16,9,22,4,4,5,8,23,5,2,0,2,4,5,7,4,5,16,2,9,17,7,5,4,0,0,0,0,0,0,0,0,0,0,0,0,0,0,0,0,0,0,0,0,0,0,0,0,0,0,0,0,0,0,0,0,0,0,0,0,0,0,0,0,0,0,0,0,0,0,0,0,0,0,0,0,0,0,0,0,0,0,0,0,0,0,0,0],"split_type":[0,0,0,0,0,0,0,0,0,0,0,0,0,0,0,0,0,0,0,0,0,0,0,0,0,0,0,0,0,0,0,0,0,0,0,0,0,0,0,0,0,0,0,0,0,0,0,0,0,0,0,0,0,0,0,0,0,0,0,0,0,0,0,0,0,0,0,0,0,0,0,0,0,0,0,0,0,0,0,0,0,0,0,0,0,0,0,0,0,0,0,0,0,0,0,0,0,0,0,0,0,0,0,0,0,0,0,0,0,0,0,0,0,0,0,0,0,0,0,0,0,0,0,0,0,0,0],"sum_hessian":[7.530194E3,5.9644546E3,1.5657396E3,5.211291E3,7.5316327E2,6.572696E2,9.0847003E2,4.90642E3,3.0487143E2,3.7153885E2,3.816244E2,2.927184E2,3.6455118E2,1.7453314E2,7.339369E2,3.6177393E3,1.2886805E3,1.1491877E2,1.8995267E2,1.9074093E1,3.5246475E2,2.7449966E2,1.07124725E2,2.8701653E1,2.6401678E2,1.0308251E2,2.6146866E2,1.606324E1,1.5846991E2,1.9245824E2,5.4147864E2,3.2227869E3,3.9495236E2,1.0829968E3,2.0568373E2,5.5904083E1,5.9014683E1,1.1348631E2,7.646636E1,1.6467525E1,2.6065664E0,3.1369208E2,3.877269E1,2.091946E2,6.530508E1,5.010618E1,5.7018547E1,9.339221E0,1.9362432E1,4.03727E1,2.2364407E2,4.072168E1,6.2360832E1,1.0422559E2,1.5724307E2,9.671988E0,6.3912516E0,6.571187E1,9.275803E1,1.0734633E2,8.511191E1,2.5158273E2,2.898959E2,6.50598E1,3.157727E3,1.4987189E2,2.4508049E2,1.6698927E1,1.0662979E3,1.843243E2,2.1359447E1,2.338107E1,3.2523014E1,2.1631334E1,3.738335E1,1.11273865E2,2.2124503E0,5.0091423E1,2.6374935E1,8.7577915E0,7.709735E0,1.5517447E0,1.0548217E0,3.0053647E2,1.31556015E1,3.7436604E1,1.3360868E0,4.853511E1,1.6065948E2,9.300123E0,5.6004955E1,2.1576923E1,2.8529255E1,1.2003516E1,4.501503E1,1.2783365E0,8.060884E0,9.457101E0,9.905331E0,8.13219E0,3.2240513E1,2.0974907E2,1.3895011E1,5.012914E0,3.5708767E1,3.7670944E1,2.4689888E1,8.42506E1,1.9974993E1,1.4995342E1,1.4224773E2,3.193253E0,6.4787345E0,1.4273816E0,4.96387E0,3.3490845E1,3.222102E1,1.1813958E0,9.1576645E1,1.0330909E2,4.037237E0,7.786525E1,7.246662E0,2.2445103E2,2.713169E1,2.9875782E1,2.600201E2],"tree_param":{"num_deleted":"0","num_feature":"26","num_nodes":"127","size_leaf_vector":"1"}},{"base_weights":[1.8572776E-3,-5.6040525E-1,2.073091E0,-6.340395E-1,3.147034E-1,1.5510944E0,2.6053772E0,-7.7981967E-1,-3.063041E-1,6.796794E-1,6.9574445E-2,1.8074218E0,9.388324E-1,1.371245E0,2.8151522E0,-8.352502E-1,-3.9803255E-1,9.7010946E-1,-3.6392775E-1,3.0656165E-1,1.1816827E0,-3.9602134E-1,2.113562E-1,1.1318179E0,2.017808E0,1.6100328E0,6.1545426E-1,1.6787511E0,4.99695E-1,3.021268E0,2.5083363E0,-9.061508E-1,-6.7616254E-1,-4.3068314E-1,9.379079E-1,2.4857752E-1,1.7568195E0,-4.3934587E-1,2.1365848E-1,1.7696436E-1,1.50216E0,4.647963E-1,1.7187507E0,-4.67234E-1,7.3415756E-1,4.0966686E-2,8.447637E-1,1.4804502E0,6.338079E-1,2.4494457E0,1.6003654E0,9.082336E-2,1.8447869E0,9.509713E-2,1.2568637E0,-3.7949508E-1,1.77959E0,7.308683E-1,-6.7787117E-1,3.0678005E0,2.4292727E0,2.7091613E0,1.9308628E0,-1.8916069E-2,-1.5469225E-2,-8.394517E-3,-1.5785282E-2,-1.3778735E-2,-6.0556903E-3,-1.6087871E-2,2.775322E-2,2.3015192E-2,-1.3270508E-3,4.399704E-2,1.1964143E-2,-1.0766162E-2,-4.146731E-3,-5.368393E-3,1.3609801E-2,2.1449074E-3,3.466777E-2,3.75361E-2,5.004626E-3,-4.93677E-3,1.4704514E-2,4.0670715E-2,1.9864766E-2,1.4770531E-2,-1.0478753E-2,-1.4982942E-2,3.971086E-2,6.7658094E-3,-7.037643E-3,2.2156242E-2,-4.9762535E-3,5.5366725E-2,2.4092102E-2,3.0753748E-2,7.237298E-3,5.470193E-2,3.9155483E-2,5.073536E-2,2.8790973E-2,9.237549E-3,-1.3851521E-2,2.7225398E-2,4.5838684E-2,-6.283048E-4,2.1937156E-2,7.5284457E-3,3.0990219E-2,1.18931355E-2,-1.8026384E-2,1.7888139E-3,3.708423E-2,2.2386117E-2,-6.3708134E-4,-1.9359823E-2,5.4713814E-3,2.2810869E-2,6.14558E-2,4.158327E-3,5.104854E-2,4.9385756E-2,6.1804097E-2,2.3213169E-2,4.836612E-2],"categories":[],"categories_nodes":[],"categories_segments":[],"categories_sizes":[],"default_left":[0,0,0,0,0,0,0,0,0,0,0,0,0,0,0,0,0,0,0,0,0,0,0,0,0,0,0,0,0,0,0,0,0,0,0,0,0,0,0,0,0,0,0,0,0,0,0,0,0,0,0,0,0,0,0,0,0,0,0,0,0,0,0,0,0,0,0,0,0,0,0,0,0,0,0,0,0,0,0,0,0,0,0,0,0,0,0,0,0,0,0,0,0,0,0,0,0,0,0,0,0,0,0,0,0,0,0,0,0,0,0,0,0,0,0,0,0,0,0,0,0,0,0,0,0,0,0],"id":9,"left_children":[1,3,5,7,9,11,13,15,17,19,21,23,25,27,29,31,33,35,37,39,41,43,45,47,49,51,53,55,57,59,61,63,65,67,69,71,73,75,77,79,81,83,85,87,89,91,93,95,97,99,101,103,105,107,109,111,113,115,117,119,121,123,125,-1,-1,-1,-1,-1,-1,-1,-1,-1,-1,-1,-1,-1,-1,-1,-1,-1,-1,-1,-1,-1,-1,-1,-1,-1,-1,-1,-1,-1,-1,-1,-1,-1,-1,-1,-1,-1,-1,-1,-1,-1,-1,-1,-1,-1,-1,-1,-1,-1,-1,-1,-1,-1,-1,-1,-1,-1,-1,-1,-1,-1,-1,-1,-1],"loss_changes":[8.758414E3,3.8134973E2,4.42104E2,2.604458E2,4.108437E1,1.2591931E2,2.0157959E2,7.957349E1,1.24026245E2,3.4215096E1,1.8312666E1,7.903406E1,5.154628E1,3.0581635E1,3.5254395E1,3.6566162E1,2.13676E1,4.0945602E1,7.020642E1,1.6351519E1,2.937001E1,5.5590143E0,2.2881699E1,2.3044006E1,7.4456055E1,2.7679413E1,5.4940517E1,1.857402E1,9.206587E0,3.572998E0,2.701538E1,1.1249512E1,2.925473E1,1.530986E1,1.0347526E1,1.1211603E1,1.650148E1,3.258316E1,4.216912E1,1.0436514E1,4.3869476E0,6.9038596E0,8.126297E0,4.5971003E0,9.339962E0,1.9785664E1,1.32089E1,2.5263931E1,1.3854486E1,2.4415405E1,3.0081604E1,3.6634293E0,1.1490875E1,1.1714419E1,1.8433914E1,3.002373E0,1.0224762E1,8.103137E0,1.8575222E0,2.734375E-2,8.763138E0,1.1E1,2.5436157E1,0E0,0E0,0E0,0E0,0E0,0E0,0E0,0E0,0E0,0E0,0E0,0E0,0E0,0E0,0E0,0E0,0E0,0E0,0E0,0E0,0E0,0E0,0E0,0E0,0E0,0E0,0E0,0E0,0E0,0E0,0E0,0E0,0E0,0E0,0E0,0E0,0E0,0E0,0E0,0E0,0E0,0E0,0E0,0E0,0E0,0E0,0E0,0E0,0E0,0E0,0E0,0E0,0E0,0E0,0E0,0E0,0E0,0E0,0E0,0E0,0E0,0E0,0E0,0E0],"parents":[2147483647,0,0,1,1,2,2,3,3,4,4,5,5,6,6,7,7,8,8,9,9,10,10,11,11,12,12,13,13,14,14,15,15,16,16,17,17,18,18,19,19,20,20,21,21,22,22,23,23,24,24,25,25,26,26,27,27,28,28,29,29,30,30,31,31,32,32,33,33,34,34,35,35,36,36,37,37,38,38,39,39,40,40,41,41,42,42,43,43,44,44,45,45,46,46,47,47,48,48,49,49,50,50,51,51,52,52,53,53,54,54,55,55,56,56,57,57,58,58,59,59,60,60,61,61,62,62],"right_children":[2,4,6,8,10,12,14,16,18,20,22,24,26,28,30,32,34,36,38,40,42,44,46,48,50,52,54,56,58,60,62,64,66,68,70,72,74,76,78,80,82,84,86,88,90,92,94,96,98,100,102,104,106,108,110,112,114,116,118,120,122,124,126,-1,-1,-1,-1,-1,-1,-1,-1,-1,-1,-1,-1,-1,-1,-1,-1,-1,-1,-1,-1,-1,-1,-1,-1,-1,-1,-1,-1,-1,-1,-1,-1,-1,-1,-1,-1,-1,-1,-1,-1,-1,-1,-1,-1,-1,-1,-1,-1,-1,-1,-1,-1,-1,-1,-1,-1,-1,-1,-1,-1,-1,-1,-1,-1],"split_conditions":[9.59E1,8.28E1,1.0293E2,4.141575E1,3.8311987E-6,2.3819668E-5,1.097E2,6.781E1,3.9649117E-6,9.023E1,6E0,1.0526E2,3.332893E1,2.8578648E-5,1.1653766E-3,1.6E1,1.3976E2,1.9E1,2.0635225E-2,4.4E2,1.1E1,9.4990355E-1,1.0048E2,2.5208E-2,4.1834198E1,1.0048E2,1.3492E2,2E0,6.52E2,5.2187963E-5,5.6427345E1,4.517E1,2E0,8.618408E0,-5.7255993E-6,1E0,6.9E2,8.223052E1,1.9E1,2.854991E0,-3.6926E-2,2.6448112E0,2.7581444E0,4.833308E0,3.0491512E-5,1.6E1,5.09983E1,-1.9269855E-5,1.1301614E1,2.6428E-2,5.31E-3,9.012E1,1.1606E2,2.021538E-3,8E0,3E0,3.5254633E0,4.462016E1,8.01E2,1.3732399E-3,1.1606E2,1.5219E2,1.5219E2,-1.8916069E-2,-1.5469225E-2,-8.394517E-3,-1.5785282E-2,-1.3778735E-2,-6.0556903E-3,-1.6087871E-2,2.775322E-2,2.3015192E-2,-1.3270508E-3,4.399704E-2,1.1964143E-2,-1.0766162E-2,-4.146731E-3,-5.368393E-3,1.3609801E-2,2.1449074E-3,3.466777E-2,3.75361E-2,5.004626E-3,-4.93677E-3,1.4704514E-2,4.0670715E-2,1.9864766E-2,1.4770531E-2,-1.0478753E-2,-1.4982942E-2,3.971086E-2,6.7658094E-3,-7.037643E-3,2.2156242E-2,-4.9762535E-3,5.5366725E-2,2.4092102E-2,3.0753748E-2,7.237298E-3,5.470193E-2,3.9155483E-2,5.073536E-2,2.8790973E-2,9.237549E-3,-1.3851521E-2,2.7225398E-2,4.5838684E-2,-6.283048E-4,2.1937156E-2,7.5284457E-3,3.0990219E-2,1.18931355E-2,-1.8026384E-2,1.7888139E-3,3.708423E-2,2.2386117E-2,-6.3708134E-4,-1.9359823E-2,5.4713814E-3,2.2810869E-2,6.14558E-2,4.158327E-3,5.104854E-2,4.9385756E-2,6.1804097E-2,2.3213169E-2,4.836612E-2],"split_indices":[0,0,4,5,7,7,0,0,23,0,24,0,5,7,18,24,4,24,8,22,22,14,4,10,5,0,0,24,11,7,5,0,22,5,7,24,11,5,24,16,9,16,16,5,23,24,5,7,5,10,10,4,0,19,24,25,5,5,11,19,0,0,0,0,0,0,0,0,0,0,0,0,0,0,0,0,0,0,0,0,0,0,0,0,0,0,0,0,0,0,0,0,0,0,0,0,0,0,0,0,0,0,0,0,0,0,0,0,0,0,0,0,0,0,0,0,0,0,0,0,0,0,0,0,0,0,0],"split_type":[0,0,0,0,0,0,0,0,0,0,0,0,0,0,0,0,0,0,0,0,0,0,0,0,0,0,0,0,0,0,0,0,0,0,0,0,0,0,0,0,0,0,0,0,0,0,0,0,0,0,0,0,0,0,0,0,0,0,0,0,0,0,0,0,0,0,0,0,0,0,0,0,0,0,0,0,0,0,0,0,0,0,0,0,0,0,0,0,0,0,0,0,0,0,0,0,0,0,0,0,0,0,0,0,0,0,0,0,0,0,0,0,0,0,0,0,0,0,0,0,0,0,0,0,0,0,0],"sum_hessian":[7.518685E3,5.913988E3,1.6046971E3,5.4552427E3,4.5874527E2,8.121556E2,7.9254156E2,3.774795E3,1.6804476E3,1.8360316E2,2.751421E2,5.711063E2,2.410493E2,1.1623759E2,6.7630396E2,3.295189E3,4.7960593E2,7.190284E1,1.6085448E3,1.06245834E2,7.735733E1,6.3808563E1,2.1133354E2,1.3712917E2,4.3397714E2,7.708132E1,1.6396799E2,8.52374E1,3.1000195E1,3.9924677E2,2.7705716E2,2.276102E3,1.01908685E3,4.6882538E2,1.078054E1,3.819147E1,3.3711372E1,1.4229791E3,1.8556563E2,9.689129E1,9.35455E0,3.3931065E1,4.342627E1,6.0578117E1,3.2304475E0,1.6737389E2,4.395966E1,7.950141E1,5.7627754E1,2.1096765E2,2.2300949E2,1.0502347E1,6.657898E1,9.1160416E1,7.280756E1,3.851904E0,8.138549E1,2.6230171E1,4.7700224E0,3.6627438E2,3.2972404E1,2.0282898E2,7.42282E1,1.7476962E3,5.284059E2,3.1334564E2,7.057412E2,1.5382812E2,3.1499725E2,2.0501053E0,8.730435E0,9.195384E0,2.8996086E1,2.373633E1,9.975042E0,9.9657556E2,4.264036E2,9.150113E1,9.40645E1,9.376026E1,3.1310236E0,6.8157706E0,2.53878E0,9.367563E0,2.4563501E1,2.90285E1,1.4397771E1,2.1807957E0,5.839732E1,1.6618972E0,1.5685503E0,9.534889E1,7.2024994E1,3.5425423E1,8.534239E0,1.2430258E1,6.707115E1,1.225161E1,4.5376144E1,1.3055505E2,8.041259E1,3.052051E1,1.9248898E2,7.405282E0,3.0970647E0,3.3931717E1,3.2647263E1,8.17987E1,9.361719E0,1.8733458E1,5.407411E1,1.2949297E0,2.5569742E0,3.5342677E0,7.785122E1,1.7069527E1,9.160645E0,3.6420627E0,1.1279598E0,1.5386969E0,3.647357E2,1.8732132E0,3.1099192E1,1.2906233E2,7.376665E1,3.0080074E1,4.4148125E1],"tree_param":{"num_deleted":"0","num_feature":"26","num_nodes":"127","size_leaf_vector":"1"}},{"base_weights":[5.2622077E-4,-5.7764065E-1,1.931339E0,-7.102604E-1,4.2803597E-1,3.643985E-1,2.3276744E0,-7.818427E-1,-3.3297607E-1,2.115235E-1,1.1862503E0,3.291281E-2,1.2062902E0,1.672896E0,2.7683394E0,-8.5920113E-1,-5.6559074E-1,-7.4562675E-1,-2.0149179E-1,-2.2010101E-2,6.778565E-1,1.7684469E-1,1.6930524E0,-2.2862582E-1,5.290564E-1,8.724057E-1,1.8953862E0,1.3307235E0,2.2291365E0,2.0848017E0,2.9285672E0,-9.869172E-1,-7.9451406E-1,4.347255E-1,-5.941395E-1,-7.655809E-1,5.5148613E-1,-3.7586772E-1,1.7732444E-1,9.139153E-1,-9.154677E-2,1.2489388E0,3.4017965E-1,5.142009E-1,-4.4766876E-1,2.1804128E0,1.3222281E0,2.7722972E-2,-4.8241064E-1,2.3112997E-1,1.3386707E0,3.8355026E-1,1.368636E0,1.3743364E0,2.7440968E0,2.0552218E0,9.79232E-1,2.3414185E0,1.3827549E0,1.7258792E0,2.7370129E0,2.1254468E0,2.9961748E0,-6.7789224E-3,-2.0114066E-2,-4.717656E-3,-1.6102936E-2,1.8000372E-2,-1.3507916E-2,-3.56299E-3,-1.27804065E-2,-1.5724309E-2,1.15115065E-2,3.251057E-2,-1.3723438E-2,-1.3326914E-2,-4.358892E-3,1.2143596E-2,-1.4238093E-3,2.7906718E-2,3.6859438E-3,-3.364928E-3,6.882689E-3,1.9768821E-2,4.7654763E-2,3.0916252E-3,2.392815E-2,2.8601596E-2,2.1280663E-3,-1.3771892E-2,1.2172456E-2,7.590056E-3,4.607269E-2,3.449385E-2,1.2514818E-2,-3.6691008E-3,1.2673264E-2,1.8788313E-2,-1.0372685E-2,1.7026091E-2,2.2921507E-4,1.33989295E-2,5.0981835E-2,-1.509361E-2,1.4908034E-2,3.460873E-2,8.084598E-3,5.0983024E-3,3.6544543E-2,2.0880343E-2,5.8894593E-2,5.2123398E-2,3.478868E-2,1.3091054E-2,2.9425258E-2,4.8460383E-2,2.8066706E-2,4.328886E-3,3.5850767E-2,5.1180966E-2,2.9097557E-2,5.5954E-2,2.0826947E-2,5.330131E-2,2.7969958E-2,4.660263E-2,6.0541753E-2],"categories":[],"categories_nodes":[],"categories_segments":[],"categories_sizes":[],"default_left":[0,0,0,0,0,0,0,0,0,0,0,0,0,0,0,0,0,0,0,0,0,0,0,0,0,0,0,0,0,0,0,0,0,0,0,0,0,0,0,0,0,0,0,0,0,0,0,0,0,0,0,0,0,0,0,0,0,0,0,0,0,0,0,0,0,0,0,0,0,0,0,0,0,0,0,0,0,0,0,0,0,0,0,0,0,0,0,0,0,0,0,0,0,0,0,0,0,0,0,0,0,0,0,0,0,0,0,0,0,0,0,0,0,0,0,0,0,0,0,0,0,0,0,0,0,0,0],"id":10,"left_children":[1,3,5,7,9,11,13,15,17,19,21,23,25,27,29,31,33,35,37,39,41,43,45,47,49,51,53,55,57,59,61,63,65,67,69,71,73,75,77,79,81,83,85,87,89,91,93,95,97,99,101,103,105,107,109,111,113,115,117,119,121,123,125,-1,-1,-1,-1,-1,-1,-1,-1,-1,-1,-1,-1,-1,-1,-1,-1,-1,-1,-1,-1,-1,-1,-1,-1,-1,-1,-1,-1,-1,-1,-1,-1,-1,-1,-1,-1,-1,-1,-1,-1,-1,-1,-1,-1,-1,-1,-1,-1,-1,-1,-1,-1,-1,-1,-1,-1,-1,-1,-1,-1,-1,-1,-1,-1],"loss_changes":[8.355526E3,7.685322E2,1.0703057E3,1.3718579E2,1.1001848E2,9.74627E1,3.925161E2,7.1062744E1,4.3979828E1,5.7050392E1,7.591766E1,3.2782253E1,2.104895E1,1.0289868E2,8.3833496E1,2.522461E1,3.2522583E1,5.4995575E0,4.0901695E1,2.285766E1,3.32815E1,1.0957445E1,1.5021515E1,1.078158E1,2.0720236E1,1.604858E1,1.0093384E1,8.63161E1,1.6753784E1,3.259375E1,2.9619629E1,1.249292E1,1.2253174E1,1.7099009E1,2.0401855E1,5.8106155E0,5.83878E0,1.9288582E1,2.093209E1,8.275482E0,1.0973108E1,1.6716698E1,1.748868E1,1.2368803E1,5.0997615E0,8.283585E0,1.5403786E1,1.0774008E1,4.773844E0,8.837439E0,1.7106876E1,1.5309696E1,1.0994686E1,1.03984375E1,6.513901E-1,1.5021912E1,3.6652176E1,1.0706116E1,1.2554836E1,2.0105133E1,2.7340698E0,1.7809875E1,5.482422E0,0E0,0E0,0E0,0E0,0E0,0E0,0E0,0E0,0E0,0E0,0E0,0E0,0E0,0E0,0E0,0E0,0E0,0E0,0E0,0E0,0E0,0E0,0E0,0E0,0E0,0E0,0E0,0E0,0E0,0E0,0E0,0E0,0E0,0E0,0E0,0E0,0E0,0E0,0E0,0E0,0E0,0E0,0E0,0E0,0E0,0E0,0E0,0E0,0E0,0E0,0E0,0E0,0E0,0E0,0E0,0E0,0E0,0E0,0E0,0E0,0E0,0E0,0E0,0E0],"parents":[2147483647,0,0,1,1,2,2,3,3,4,4,5,5,6,6,7,7,8,8,9,9,10,10,11,11,12,12,13,13,14,14,15,15,16,16,17,17,18,18,19,19,20,20,21,21,22,22,23,23,24,24,25,25,26,26,27,27,28,28,29,29,30,30,31,31,32,32,33,33,34,34,35,35,36,36,37,37,38,38,39,39,40,40,41,41,42,42,43,43,44,44,45,45,46,46,47,47,48,48,49,49,50,50,51,51,52,52,53,53,54,54,55,55,56,56,57,57,58,58,59,59,60,60,61,61,62,62],"right_children":[2,4,6,8,10,12,14,16,18,20,22,24,26,28,30,32,34,36,38,40,42,44,46,48,50,52,54,56,58,60,62,64,66,68,70,72,74,76,78,80,82,84,86,88,90,92,94,96,98,100,102,104,106,108,110,112,114,116,118,120,122,124,126,-1,-1,-1,-1,-1,-1,-1,-1,-1,-1,-1,-1,-1,-1,-1,-1,-1,-1,-1,-1,-1,-1,-1,-1,-1,-1,-1,-1,-1,-1,-1,-1,-1,-1,-1,-1,-1,-1,-1,-1,-1,-1,-1,-1,-1,-1,-1,-1,-1,-1,-1,-1,-1,-1,-1,-1,-1,-1,-1,-1,-1,-1,-1,-1],"split_conditions":[9.312E1,9.054E1,2.2394E2,6.781E1,1.6296905E-2,8.787E1,1.1961E2,4.141575E1,1.41248E2,9.824E1,6.529E1,8.395223E1,1.151E2,1.0434E2,7.2294E2,-4.82716E2,2.993978E-6,1.7729E2,8.28E1,7.1083805E-6,8.206E1,1.2485078E-3,2.3626346E-5,1.8211104E-3,9.5452E1,7.9256E1,3.5E2,-2.6048453E-6,1.7045E2,1.3515E2,5.719E1,1.7848023E-6,2.993978E-6,2.7232618E0,-1.2602E2,1.309E2,6.7532E1,9.636705E0,3.8311987E-6,3.867E1,1.175E2,8.437E1,8.753E1,-2.0778075E-6,1.4132967E-3,9.33E1,4E0,-4.4431023E-2,-1.289E2,9.394658E-5,2.2661E2,1.0806E2,2.3819668E-5,5.634E1,1.04E2,-1.2867618E-2,1.0677E2,4.390136E-5,1.0425E2,-1.3860917E-5,9.404E-3,2.3819668E-5,7.52E1,-6.7789224E-3,-2.0114066E-2,-4.717656E-3,-1.6102936E-2,1.8000372E-2,-1.3507916E-2,-3.56299E-3,-1.27804065E-2,-1.5724309E-2,1.15115065E-2,3.251057E-2,-1.3723438E-2,-1.3326914E-2,-4.358892E-3,1.2143596E-2,-1.4238093E-3,2.7906718E-2,3.6859438E-3,-3.364928E-3,6.882689E-3,1.9768821E-2,4.7654763E-2,3.0916252E-3,2.392815E-2,2.8601596E-2,2.1280663E-3,-1.3771892E-2,1.2172456E-2,7.590056E-3,4.607269E-2,3.449385E-2,1.2514818E-2,-3.6691008E-3,1.2673264E-2,1.8788313E-2,-1.0372685E-2,1.7026091E-2,2.2921507E-4,1.33989295E-2,5.0981835E-2,-1.509361E-2,1.4908034E-2,3.460873E-2,8.084598E-3,5.0983024E-3,3.6544543E-2,2.0880343E-2,5.8894593E-2,5.2123398E-2,3.478868E-2,1.3091054E-2,2.9425258E-2,4.8460383E-2,2.8066706E-2,4.328886E-3,3.5850767E-2,5.1180966E-2,2.9097557E-2,5.5954E-2,2.0826947E-2,5.330131E-2,2.7969958E-2,4.660263E-2,6.0541753E-2],"split_indices":[0,3,6,0,8,3,0,5,6,2,2,5,2,3,6,6,23,2,0,23,4,18,23,19,6,6,11,7,3,3,3,23,23,16,0,4,6,5,7,4,4,0,0,7,18,3,25,15,4,13,0,0,7,6,0,8,0,7,2,7,17,7,1,0,0,0,0,0,0,0,0,0,0,0,0,0,0,0,0,0,0,0,0,0,0,0,0,0,0,0,0,0,0,0,0,0,0,0,0,0,0,0,0,0,0,0,0,0,0,0,0,0,0,0,0,0,0,0,0,0,0,0,0,0,0,0,0],"split_type":[0,0,0,0,0,0,0,0,0,0,0,0,0,0,0,0,0,0,0,0,0,0,0,0,0,0,0,0,0,0,0,0,0,0,0,0,0,0,0,0,0,0,0,0,0,0,0,0,0,0,0,0,0,0,0,0,0,0,0,0,0,0,0,0,0,0,0,0,0,0,0,0,0,0,0,0,0,0,0,0,0,0,0,0,0,0,0,0,0,0,0,0,0,0,0,0,0,0,0,0,0,0,0,0,0,0,0,0,0,0,0,0,0,0,0,0,0,0,0,0,0,0,0,0,0,0,0],"sum_hessian":[7.482805E3,5.759014E3,1.723791E3,5.0883066E3,6.7070734E2,3.4837698E2,1.3754141E3,4.2759556E3,8.1235126E2,5.2272046E2,1.4798685E2,2.5070407E2,9.7672905E1,5.552184E2,8.201957E2,3.1471672E3,1.1287883E3,1.9516714E2,6.1718414E2,3.4893237E2,1.7378809E2,4.9916443E1,9.8070404E1,1.6451848E2,8.6185585E1,6.732046E1,3.0352451E1,3.4585638E2,2.0936201E2,1.5841275E2,6.617829E2,1.0533022E3,2.093865E3,3.0926668E1,1.0978617E3,1.9261385E2,2.5532968E0,4.2264212E2,1.9454199E2,2.3291992E1,3.2564038E2,6.3573444E1,1.1021464E2,3.2523952E1,1.7392492E1,4.0267914E1,5.7802494E1,8.228894E1,8.2229546E1,6.3941513E1,2.2244072E1,3.4805325E1,3.251513E1,2.042948E1,9.922973E0,1.1139683E2,2.3445956E2,1.8328128E2,2.6080734E1,1.04532814E2,5.387993E1,5.3902702E1,6.078802E2,3.0213745E1,1.0230885E3,3.954225E1,2.0543228E3,2.192595E1,9.000719E0,1.0739664E2,9.90465E2,1.9010278E2,2.5110664E0,1.1992201E0,1.3540767E0,1.4771718E2,2.7492496E2,7.0740005E1,1.2380199E2,1.3483088E1,9.808905E0,2.7741635E2,4.8224022E1,5.321805E1,1.0355396E1,9.155044E1,1.8664194E1,9.247658E0,2.3276295E1,1.444572E1,2.9467716E0,2.8400373E0,3.7427876E1,3.569811E1,2.2104387E1,6.1539032E1,2.074991E1,1.4234488E0,8.080609E1,1.5972431E1,4.796908E1,1.5328809E1,6.9152627E0,8.133906E0,2.6671417E1,2.3067114E1,9.448017E0,6.334702E0,1.4094776E1,1.702271E0,8.220701E0,3.794394E1,7.345289E1,1.4265517E2,9.18044E1,1.6715787E2,1.6123411E1,7.1783023E0,1.8902431E1,2.3583755E1,8.094906E1,5.139076E1,2.4891677E0,2.9407352E1,2.4495352E1,3.0349705E1,5.775305E2],"tree_param":{"num_deleted":"0","num_feature":"26","num_nodes":"127","size_leaf_vector":"1"}},{"base_weights":[-4.204412E-3,-5.685351E-1,1.8288909E0,-7.0553726E-1,3.9324716E-1,1.1565533E0,2.489916E0,-7.6993304E-1,-3.1933048E-1,1.3883549E-1,9.6448827E-1,7.018864E-1,1.5424048E0,1.7157098E0,2.6651428E0,-8.5102665E-1,-5.4212075E-1,-4.270435E-1,5.566042E-2,-7.7109E-2,6.1069244E-1,4.5138228E-1,1.4695598E0,4.9056676E-1,1.2944928E0,8.811206E-1,1.8559706E0,1.2443493E-1,1.8437107E0,1.8958551E0,2.7450533E0,-2.3544194E-1,-8.6349213E-1,5.5295914E-1,-5.6147736E-1,-4.531595E-1,4.5144883E-1,1.6838376E-1,-5.0027424E-1,-1.3863316E-1,8.481948E-1,3.4202734E-1,1.05459E0,1.2010748E0,8.93933E-2,9.3517166E-1,1.7658781E0,-1.187414E-1,6.00082E-1,3.3803955E-1,1.5447739E0,2.4127355E-1,1.0651174E0,1.2674768E0,2.069856E0,1.0201769E0,-5.0065035E-1,1.328816E0,2.0307195E0,1.0852593E0,2.1907985E0,2.8748167E0,2.5490117E0,-8.82862E-3,5.942956E-3,-1.8462157E-2,-1.5172138E-2,-7.630125E-3,2.0792563E-2,-1.957044E-3,-1.2228277E-2,-1.0238903E-2,-1.983348E-3,2.0899737E-2,-6.039928E-3,1.4675227E-2,1.1708912E-3,-1.2151605E-2,1.35419285E-2,-3.6870406E-3,1.1946032E-2,2.3592098E-2,8.426485E-4,2.6554458E-2,2.3361437E-3,1.1840752E-2,3.7850406E-2,2.799059E-2,-4.5518656E-3,-2.9772718E-3,9.522236E-3,1.29657155E-2,3.551217E-2,3.978118E-2,2.1913141E-2,-6.3327597E-3,6.876108E-3,2.124056E-2,9.237727E-3,2.9958593E-2,5.7275646E-4,4.0354542E-2,2.0686435E-2,1.5810499E-2,-7.199516E-3,3.426377E-2,1.3967693E-2,3.64403E-2,2.0124115E-2,4.5148987E-2,2.5110971E-2,2.9885694E-2,-5.9550563E-3,-1.9579213E-2,3.0429047E-3,1.46475285E-2,3.477618E-2,5.733138E-4,4.14411E-2,6.2519675E-3,2.9820113E-2,2.975217E-2,5.0002083E-2,4.8347715E-2,5.853213E-2,5.1234443E-2,1.0025955E-2],"categories":[],"categories_nodes":[],"categories_segments":[],"categories_sizes":[],"default_left":[0,0,0,0,0,0,0,0,0,0,0,0,0,0,0,0,0,0,0,0,0,0,0,0,0,0,0,0,0,0,0,0,0,0,0,0,0,0,0,0,0,0,0,0,0,0,0,0,0,0,0,0,0,0,0,0,0,0,0,0,0,0,0,0,0,0,0,0,0,0,0,0,0,0,0,0,0,0,0,0,0,0,0,0,0,0,0,0,0,0,0,0,0,0,0,0,0,0,0,0,0,0,0,0,0,0,0,0,0,0,0,0,0,0,0,0,0,0,0,0,0,0,0,0,0,0,0],"id":11,"left_children":[1,3,5,7,9,11,13,15,17,19,21,23,25,27,29,31,33,35,37,39,41,43,45,47,49,51,53,55,57,59,61,63,65,67,69,71,73,75,77,79,81,83,85,87,89,91,93,95,97,99,101,103,105,107,109,111,113,115,117,119,121,123,125,-1,-1,-1,-1,-1,-1,-1,-1,-1,-1,-1,-1,-1,-1,-1,-1,-1,-1,-1,-1,-1,-1,-1,-1,-1,-1,-1,-1,-1,-1,-1,-1,-1,-1,-1,-1,-1,-1,-1,-1,-1,-1,-1,-1,-1,-1,-1,-1,-1,-1,-1,-1,-1,-1,-1,-1,-1,-1,-1,-1,-1,-1,-1,-1],"loss_changes":[7.7112676E3,7.512964E2,7.7695215E2,1.2383911E2,1.0323986E2,1.5185352E2,1.1534082E2,7.852612E1,2.8892914E1,5.0311195E1,5.6093735E1,4.9710724E1,9.597363E1,3.357025E1,3.8993652E1,2.3979248E1,2.416092E1,1.294606E1,1.0134386E1,1.9433746E1,1.8123169E1,2.9767075E1,1.5755096E1,1.9953773E1,2.4628906E1,1.7793E1,3.7455444E1,8.028603E0,1.2083374E1,1.4570419E1,9.184082E0,7.14411E0,1.8611572E1,9.513506E0,2.5549133E1,1.1182823E1,7.7096453E0,8.283888E0,3.8589225E0,1.0843582E1,5.6388807E0,2.1607727E1,2.1342873E1,1.0458889E1,7.0105557E0,8.815556E0,8.229691E0,4.3406153E0,1.5643547E1,8.236765E0,1.7949768E1,1.2019414E1,2.703444E1,1.0837921E1,3.259906E1,4.098885E0,2.8276258E0,9.435791E0,9.103394E0,6.0842075E0,7.372223E0,1.9924316E0,5.6743164E0,0E0,0E0,0E0,0E0,0E0,0E0,0E0,0E0,0E0,0E0,0E0,0E0,0E0,0E0,0E0,0E0,0E0,0E0,0E0,0E0,0E0,0E0,0E0,0E0,0E0,0E0,0E0,0E0,0E0,0E0,0E0,0E0,0E0,0E0,0E0,0E0,0E0,0E0,0E0,0E0,0E0,0E0,0E0,0E0,0E0,0E0,0E0,0E0,0E0,0E0,0E0,0E0,0E0,0E0,0E0,0E0,0E0,0E0,0E0,0E0,0E0,0E0,0E0,0E0],"parents":[2147483647,0,0,1,1,2,2,3,3,4,4,5,5,6,6,7,7,8,8,9,9,10,10,11,11,12,12,13,13,14,14,15,15,16,16,17,17,18,18,19,19,20,20,21,21,22,22,23,23,24,24,25,25,26,26,27,27,28,28,29,29,30,30,31,31,32,32,33,33,34,34,35,35,36,36,37,37,38,38,39,39,40,40,41,41,42,42,43,43,44,44,45,45,46,46,47,47,48,48,49,49,50,50,51,51,52,52,53,53,54,54,55,55,56,56,57,57,58,58,59,59,60,60,61,61,62,62],"right_children":[2,4,6,8,10,12,14,16,18,20,22,24,26,28,30,32,34,36,38,40,42,44,46,48,50,52,54,56,58,60,62,64,66,68,70,72,74,76,78,80,82,84,86,88,90,92,94,96,98,100,102,104,106,108,110,112,114,116,118,120,122,124,126,-1,-1,-1,-1,-1,-1,-1,-1,-1,-1,-1,-1,-1,-1,-1,-1,-1,-1,-1,-1,-1,-1,-1,-1,-1,-1,-1,-1,-1,-1,-1,-1,-1,-1,-1,-1,-1,-1,-1,-1,-1,-1,-1,-1,-1,-1,-1,-1,-1,-1,-1,-1,-1,-1,-1,-1,-1,-1,-1,-1,-1,-1,-1,-1],"split_conditions":[9.312E1,8.866E1,1.0302E2,6.947E1,1.0631537E-2,6.921E1,1.1125E2,4.141575E1,8.591E1,9.824E1,8.393E1,9.966E1,1.0526E2,2.649E1,8.413E1,1.7848023E-6,9.339255E-7,1.2511E2,1.7E1,9.01E2,7.75E1,1.7790991E-5,1.1035E2,9.811E1,1.04E2,6.606E1,7.045E1,-1.144E1,1.0195E2,1.0087E2,1.7689677E-3,6.31E2,2.649E1,2.89E2,-1.2602E2,8.851E1,8.375E1,1E0,4.57E2,1.1531E2,-5.970576E-3,-2.117E1,3.4453274E1,2.6E2,-2.991E-3,1.77E-3,4.5671158E-2,6.87883E-5,-2.1485362E-2,8.1E1,-3.0889888E-3,1.6464783E-4,-1.0302575E-2,1.7702671E-3,4.948708E-3,2E0,1.8139322E-3,1.0275E2,-6.3908E-2,8E0,1.2988E2,1.1961E2,3.9063797E2,-8.82862E-3,5.942956E-3,-1.8462157E-2,-1.5172138E-2,-7.630125E-3,2.0792563E-2,-1.957044E-3,-1.2228277E-2,-1.0238903E-2,-1.983348E-3,2.0899737E-2,-6.039928E-3,1.4675227E-2,1.1708912E-3,-1.2151605E-2,1.35419285E-2,-3.6870406E-3,1.1946032E-2,2.3592098E-2,8.426485E-4,2.6554458E-2,2.3361437E-3,1.1840752E-2,3.7850406E-2,2.799059E-2,-4.5518656E-3,-2.9772718E-3,9.522236E-3,1.29657155E-2,3.551217E-2,3.978118E-2,2.1913141E-2,-6.3327597E-3,6.876108E-3,2.124056E-2,9.237727E-3,2.9958593E-2,5.7275646E-4,4.0354542E-2,2.0686435E-2,1.5810499E-2,-7.199516E-3,3.426377E-2,1.3967693E-2,3.64403E-2,2.0124115E-2,4.5148987E-2,2.5110971E-2,2.9885694E-2,-5.9550563E-3,-1.9579213E-2,3.0429047E-3,1.46475285E-2,3.477618E-2,5.733138E-4,4.14411E-2,6.2519675E-3,2.9820113E-2,2.975217E-2,5.0002083E-2,4.8347715E-2,5.853213E-2,5.1234443E-2,1.0025955E-2],"split_indices":[0,3,2,0,8,3,0,5,0,2,2,1,0,3,3,23,23,2,12,22,0,23,3,0,0,1,1,3,3,1,19,11,3,11,0,1,1,25,12,1,15,0,5,12,9,9,14,23,8,11,8,13,8,19,8,12,19,0,9,22,0,0,5,0,0,0,0,0,0,0,0,0,0,0,0,0,0,0,0,0,0,0,0,0,0,0,0,0,0,0,0,0,0,0,0,0,0,0,0,0,0,0,0,0,0,0,0,0,0,0,0,0,0,0,0,0,0,0,0,0,0,0,0,0,0,0,0],"split_type":[0,0,0,0,0,0,0,0,0,0,0,0,0,0,0,0,0,0,0,0,0,0,0,0,0,0,0,0,0,0,0,0,0,0,0,0,0,0,0,0,0,0,0,0,0,0,0,0,0,0,0,0,0,0,0,0,0,0,0,0,0,0,0,0,0,0,0,0,0,0,0,0,0,0,0,0,0,0,0,0,0,0,0,0,0,0,0,0,0,0,0,0,0,0,0,0,0,0,0,0,0,0,0,0,0,0,0,0,0,0,0,0,0,0,0,0,0,0,0,0,0,0,0,0,0,0,0],"sum_hessian":[7.452299E3,5.698628E3,1.7536709E3,4.988326E3,7.1030164E2,8.7075934E2,8.8291156E2,4.2745913E3,7.137349E2,4.9229358E2,2.1800806E2,4.0102817E2,4.6973114E2,1.6494118E2,7.1797034E2,3.1504133E3,1.1241781E3,5.543606E2,1.5937431E2,3.3830533E2,1.5398824E2,1.0908325E2,1.08924805E2,2.9696143E2,1.0406675E2,1.5231711E2,3.1741403E2,1.242677E1,1.525144E2,6.9888535E1,6.4808185E2,6.2923885E1,3.0874895E3,1.9046999E1,1.1051311E3,5.388264E2,1.553419E1,1.3308635E2,2.6287958E1,3.1801074E2,2.0294605E1,9.7031364E1,5.6956875E1,3.4765213E1,7.431803E1,4.0336647E1,6.858816E1,4.523026E1,2.5173117E2,2.2071352E1,8.19954E1,3.453461E1,1.177825E2,8.645735E1,2.3095668E2,4.8478217E0,7.5789485E0,4.2794167E1,1.09720245E2,1.9893791E1,4.9994743E1,3.8173828E2,2.6634357E2,4.5497887E1,1.7425999E1,1.9635983E3,1.1238911E3,6.596664E0,1.24503355E1,1.0774585E2,9.973852E2,4.6170697E2,7.711944E1,8.472726E0,7.0614643E0,2.0725456E1,1.1236089E2,2.4535715E1,1.7522429E0,3.0011597E2,1.7894764E1,1.405324E1,6.241364E0,1.7136549E1,7.989481E1,3.779817E1,1.9158709E1,3.0542925E1,4.222288E0,4.636665E1,2.7951385E1,3.1392189E1,8.944458E0,4.9977936E1,1.8610226E1,3.1898298E1,1.3331961E1,5.642718E1,1.9530399E2,3.838847E0,1.8232506E1,4.10283E1,4.09671E1,1.78832E1,1.665141E1,4.1237762E1,7.654474E1,2.577569E1,6.0681664E1,1.8627255E2,4.468413E1,3.4668546E0,1.3809671E0,4.085682E0,3.4932666E0,1.856824E1,2.4225927E1,2.25378E0,1.0746646E2,7.459371E0,1.2434421E1,1.7047544E1,3.2947197E1,4.3673306E1,3.3806497E2,2.6445102E2,1.8925325E0],"tree_param":{"num_deleted":"0","num_feature":"26","num_nodes":"127","size_leaf_vector":"1"}},{"base_weights":[4.0774094E-3,-5.366571E-1,1.851752E0,-7.128453E-1,2.710627E-1,6.084156E-1,2.277041E0,-7.7826154E-1,-3.2658744E-1,-4.8519284E-2,7.856303E-1,7.588876E-2,1.0831892E0,1.4659978E0,2.526732E0,-8.485043E-1,-5.7410467E-1,-6.71929E-1,-1.9210945E-1,-1.6528736E-1,4.4270524E-1,5.7414883E-1,1.6007633E0,-1.2325696E-1,9.689682E-1,1.4694843E0,4.3451792E-1,1.7989929E0,8.297237E-1,1.9987682E0,2.6614602E0,-9.727802E-1,-7.7561706E-1,-6.389433E-1,-2.6694837E-1,-4.273743E-2,-7.2460175E-1,-3.1560367E-1,1.847877E-1,-2.741345E-1,4.146952E-1,9.096011E-2,8.903951E-1,3.6710715E-1,1.0247028E0,1.0095032E0,1.9720621E0,4.760178E-1,-2.5569364E-1,4.3713115E-2,1.3781861E0,1.8604763E0,1.069259E0,1.13128506E-1,1.2194699E0,2.278747E0,1.5568771E0,2.6896387E-1,1.1545659E0,2.7993152E0,1.6875526E0,2.3634422E0,2.7642148E0,-2.0671431E-2,-1.5585104E-2,-2.069951E-3,-1.5746616E-2,-1.3635338E-2,-5.7358965E-3,-1.136851E-2,1.1687924E-4,1.9260215E-2,-9.7141005E-3,1.3494786E-2,-1.4768317E-2,-6.5781525E-3,4.2059936E-2,8.066786E-3,-9.693393E-3,-7.6742E-3,4.2309957E-3,-8.4172934E-5,1.704959E-2,8.250914E-3,-1.0276021E-2,2.8503884E-3,2.5657818E-2,2.2366542E-2,2.8275326E-3,-6.593156E-3,2.4511294E-2,3.119216E-2,5.9376857E-3,4.214917E-2,-3.2054612E-3,-5.962458E-3,1.8738717E-2,-1.20696165E-2,-1.7343565E-3,3.612181E-2,-7.938321E-3,6.2955474E-3,3.6780328E-2,2.9679175E-2,4.6382744E-2,1.6451435E-2,4.0136408E-2,2.924428E-2,-5.794115E-4,-1.4681698E-2,2.7087266E-2,8.773614E-3,4.8176367E-2,2.5306176E-2,4.343655E-2,-9.873726E-3,1.2024753E-2,-1.6794233E-2,2.4693457E-2,2.8651532E-2,5.8576524E-2,1.7540183E-2,3.8482957E-2,4.8879437E-2,3.0534778E-2,4.073678E-2,5.614731E-2],"categories":[],"categories_nodes":[],"categories_segments":[],"categories_sizes":[],"default_left":[0,0,0,0,0,0,0,0,0,0,0,0,0,0,0,0,0,0,0,0,0,0,0,0,0,0,0,0,0,0,0,0,0,0,0,0,0,0,0,0,0,0,0,0,0,0,0,0,0,0,0,0,0,0,0,0,0,0,0,0,0,0,0,0,0,0,0,0,0,0,0,0,0,0,0,0,0,0,0,0,0,0,0,0,0,0,0,0,0,0,0,0,0,0,0,0,0,0,0,0,0,0,0,0,0,0,0,0,0,0,0,0,0,0,0,0,0,0,0,0,0,0,0,0,0,0,0],"id":12,"left_children":[1,3,5,7,9,11,13,15,17,19,21,23,25,27,29,31,33,35,37,39,41,43,45,47,49,51,53,55,57,59,61,63,65,67,69,71,73,75,77,79,81,83,85,87,89,91,93,95,97,99,101,103,105,107,109,111,113,115,117,119,121,123,125,-1,-1,-1,-1,-1,-1,-1,-1,-1,-1,-1,-1,-1,-1,-1,-1,-1,-1,-1,-1,-1,-1,-1,-1,-1,-1,-1,-1,-1,-1,-1,-1,-1,-1,-1,-1,-1,-1,-1,-1,-1,-1,-1,-1,-1,-1,-1,-1,-1,-1,-1,-1,-1,-1,-1,-1,-1,-1,-1,-1,-1,-1,-1,-1],"loss_changes":[7.4568677E3,8.218716E2,8.921157E2,1.1951831E2,1.7018166E2,1.0914963E2,2.5119727E2,5.7634277E1,3.1833687E1,3.6736664E1,6.742384E1,3.652746E1,5.6575745E1,6.178961E1,6.3041016E1,2.6541016E1,2.0553436E1,6.348488E0,2.317954E1,3.2761585E1,1.929311E1,2.9133507E1,1.5815613E1,1.3476718E1,1.4114727E1,2.0338928E1,2.171971E1,1.9126953E1,1.8719002E1,4.4954834E1,1.68208E1,1.2253906E1,1.4911011E1,1.2750916E1,1.5060992E1,7.565852E0,3.9306183E0,1.2742825E1,1.8224983E1,2.3286835E1,1.5063166E1,1.3828145E1,1.5673824E1,3.6860176E1,2.7347252E1,1.2605263E1,1.441922E1,1.1271313E1,8.084946E0,1.0433892E1,1.2125412E1,8.789444E0,1.5201118E1,1.203824E1,7.5999336E0,1.4097443E1,2.107962E1,1.0337529E1,1.1555771E1,5.4157715E0,2.6330048E1,9.908447E0,1.1895996E1,0E0,0E0,0E0,0E0,0E0,0E0,0E0,0E0,0E0,0E0,0E0,0E0,0E0,0E0,0E0,0E0,0E0,0E0,0E0,0E0,0E0,0E0,0E0,0E0,0E0,0E0,0E0,0E0,0E0,0E0,0E0,0E0,0E0,0E0,0E0,0E0,0E0,0E0,0E0,0E0,0E0,0E0,0E0,0E0,0E0,0E0,0E0,0E0,0E0,0E0,0E0,0E0,0E0,0E0,0E0,0E0,0E0,0E0,0E0,0E0,0E0,0E0,0E0,0E0],"parents":[2147483647,0,0,1,1,2,2,3,3,4,4,5,5,6,6,7,7,8,8,9,9,10,10,11,11,12,12,13,13,14,14,15,15,16,16,17,17,18,18,19,19,20,20,21,21,22,22,23,23,24,24,25,25,26,26,27,27,28,28,29,29,30,30,31,31,32,32,33,33,34,34,35,35,36,36,37,37,38,38,39,39,40,40,41,41,42,42,43,43,44,44,45,45,46,46,47,47,48,48,49,49,50,50,51,51,52,52,53,53,54,54,55,55,56,56,57,57,58,58,59,59,60,60,61,61,62,62],"right_children":[2,4,6,8,10,12,14,16,18,20,22,24,26,28,30,32,34,36,38,40,42,44,46,48,50,52,54,56,58,60,62,64,66,68,70,72,74,76,78,80,82,84,86,88,90,92,94,96,98,100,102,104,106,108,110,112,114,116,118,120,122,124,126,-1,-1,-1,-1,-1,-1,-1,-1,-1,-1,-1,-1,-1,-1,-1,-1,-1,-1,-1,-1,-1,-1,-1,-1,-1,-1,-1,-1,-1,-1,-1,-1,-1,-1,-1,-1,-1,-1,-1,-1,-1,-1,-1,-1,-1,-1,-1,-1,-1,-1,-1,-1,-1,-1,-1,-1,-1,-1,-1,-1,-1,-1,-1,-1],"split_conditions":[9.59E1,7.927E1,4.05956E2,6.836E1,8.87E1,8.3932E1,1.1125E2,4.141575E1,1.41248E2,1.564236E-2,1.6296905E-2,1.0083E2,2.256705E-5,1.858099E-5,8.71E1,-4.38512E2,1.0856827E2,-4.634E1,8.591E1,8.437E1,6.479E1,8.437E1,1.1035E2,6.7E1,1.2761E2,1.1653766E-3,9.833E1,-1.1941498E-5,7.97E1,-4.5967E-6,1.2761E2,1.2270191E-2,2.993978E-6,6.6E1,-1.45924E2,1.1356522E-3,-6.1884E1,2.9073088E0,8.286E1,8.056113E1,4.0486808E-5,1.2626356E-3,9.054E1,3.382E1,4.713876E0,6.51E1,2.0263132E-3,5.451707E1,1.1771E2,-2.7351597E-1,7.312E1,1.3E1,2.2661E2,-3.746E1,2.6157172E0,1.127E1,1.0677E2,1.0048E2,-5.315E1,5.47748E2,1.1961E2,1.5403E2,5.9202E2,-2.0671431E-2,-1.5585104E-2,-2.069951E-3,-1.5746616E-2,-1.3635338E-2,-5.7358965E-3,-1.136851E-2,1.1687924E-4,1.9260215E-2,-9.7141005E-3,1.3494786E-2,-1.4768317E-2,-6.5781525E-3,4.2059936E-2,8.066786E-3,-9.693393E-3,-7.6742E-3,4.2309957E-3,-8.4172934E-5,1.704959E-2,8.250914E-3,-1.0276021E-2,2.8503884E-3,