{"learner":{"attributes":{"scikit_learn":"{\"_estimator_type\": \"classifier\"}"},"feature_names":["Controlled output requirements in MW","price_lag1","price_lag2","price_lag3","price_lag4","price_roll_mean_4","price_roll_std_4","price_change","MW_lag1","MW_delta","hour","dayofweek","month"],"feature_types":["float","float","float","float","float","float","float","float","float","float","int","int","int"],"gradient_booster":{"model":{"cats":{"enc":[],"feature_segments":[],"sorted_idx":[]},"gbtree_model_param":{"num_parallel_tree":"1","num_trees":"300"},"iteration_indptr":[0,1,2,3,4,5,6,7,8,9,10,11,12,13,14,15,16,17,18,19,20,21,22,23,24,25,26,27,28,29,30,31,32,33,34,35,36,37,38,39,40,41,42,43,44,45,46,47,48,49,50,51,52,53,54,55,56,57,58,59,60,61,62,63,64,65,66,67,68,69,70,71,72,73,74,75,76,77,78,79,80,81,82,83,84,85,86,87,88,89,90,91,92,93,94,95,96,97,98,99,100,101,102,103,104,105,106,107,108,109,110,111,112,113,114,115,116,117,118,119,120,121,122,123,124,125,126,127,128,129,130,131,132,133,134,135,136,137,138,139,140,141,142,143,144,145,146,147,148,149,150,151,152,153,154,155,156,157,158,159,160,161,162,163,164,165,166,167,168,169,170,171,172,173,174,175,176,177,178,179,180,181,182,183,184,185,186,187,188,189,190,191,192,193,194,195,196,197,198,199,200,201,202,203,204,205,206,207,208,209,210,211,212,213,214,215,216,217,218,219,220,221,222,223,224,225,226,227,228,229,230,231,232,233,234,235,236,237,238,239,240,241,242,243,244,245,246,247,248,249,250,251,252,253,254,255,256,257,258,259,260,261,262,263,264,265,266,267,268,269,270,271,272,273,274,275,276,277,278,279,280,281,282,283,284,285,286,287,288,289,290,291,292,293,294,295,296,297,298,299,300],"tree_info":[0,0,0,0,0,0,0,0,0,0,0,0,0,0,0,0,0,0,0,0,0,0,0,0,0,0,0,0,0,0,0,0,0,0,0,0,0,0,0,0,0,0,0,0,0,0,0,0,0,0,0,0,0,0,0,0,0,0,0,0,0,0,0,0,0,0,0,0,0,0,0,0,0,0,0,0,0,0,0,0,0,0,0,0,0,0,0,0,0,0,0,0,0,0,0,0,0,0,0,0,0,0,0,0,0,0,0,0,0,0,0,0,0,0,0,0,0,0,0,0,0,0,0,0,0,0,0,0,0,0,0,0,0,0,0,0,0,0,0,0,0,0,0,0,0,0,0,0,0,0,0,0,0,0,0,0,0,0,0,0,0,0,0,0,0,0,0,0,0,0,0,0,0,0,0,0,0,0,0,0,0,0,0,0,0,0,0,0,0,0,0,0,0,0,0,0,0,0,0,0,0,0,0,0,0,0,0,0,0,0,0,0,0,0,0,0,0,0,0,0,0,0,0,0,0,0,0,0,0,0,0,0,0,0,0,0,0,0,0,0,0,0,0,0,0,0,0,0,0,0,0,0,0,0,0,0,0,0,0,0,0,0,0,0,0,0,0,0,0,0,0,0,0,0,0,0,0,0,0,0,0,0,0,0,0,0,0,0,0,0,0,0,0,0,0,0,0,0,0,0],"trees":[{"base_weights":[8.5607014E-4,1.1166067E0,-9.808761E-1,6.6526115E-1,2.6277478E0,-4.7958207E-1,-4.9752068E-2,1.0732845E0,1.04285955E-1,4.9729676E0,1.7748271E0,-4.6812188E-2,1.0815685E0,-1.0476299E-1,1.6240344E0,1.2396885E0,-4.4192448E-1,3.41736E0,9.089491E0,2.7609978E0,1.2210704E0,-3.9868358E-1,1.4776365E-1,-4.7591485E-2,1.10520065E-1,3.0782526E-2,1.2270154E-1,1.561737E-1,3.9936196E-2,5.1538892E-2,-4.1711323E-2,-1.574607E-2,1.8868317E-1,5.204175E-1,4.4559807E-2,-3.5513688E-2,1.822495E-1,1.0684202E-1,-4.467241E-2,-2.8425386E-2,-2.5774306E-4],"categories":[],"categories_nodes":[],"categories_segments":[],"categories_sizes":[],"default_left":[0,0,0,0,0,0,0,0,0,0,0,0,0,0,0,0,0,0,0,0,0,0,0,0,0,0,0,0,0,0,0,0,0,0,0,0,0,0,0,0,0],"id":0,"left_children":[1,3,5,7,9,11,-1,13,15,17,19,-1,21,23,25,27,29,31,33,35,37,39,-1,-1,-1,-1,-1,-1,-1,-1,-1,-1,-1,-1,-1,-1,-1,-1,-1,-1,-1],"loss_changes":[1.1279388E3,3.2697778E2,3.4125366E0,8.51413E1,2.1222058E2,1.3120426E1,0E0,1.40001E2,9.849915E1,1.5411102E2,4.1731415E1,0E0,1.3125603E1,1.3859283E2,1.2145538E2,4.0339188E1,6.289701E1,3.1227234E1,6.995764E1,9.129137E1,1.0780041E2,2.1678168E-1,0E0,0E0,0E0,0E0,0E0,0E0,0E0,0E0,0E0,0E0,0E0,0E0,0E0,0E0,0E0,0E0,0E0,0E0,0E0],"parents":[2147483647,0,0,1,1,2,2,3,3,4,4,5,5,7,7,8,8,9,9,10,10,12,12,13,13,14,14,15,15,16,16,17,17,18,18,19,19,20,20,21,21],"right_children":[2,4,6,8,10,12,-1,14,16,18,20,-1,22,24,26,28,30,32,34,36,38,40,-1,-1,-1,-1,-1,-1,-1,-1,-1,-1,-1,-1,-1,-1,-1,-1,-1,-1,-1],"split_conditions":[-4.1012E1,4.346E1,-2.0984E1,4.6275E0,8.5E0,3.292E1,-4.9752068E-2,-5.82E0,-7.42E0,2.1E1,5.29E0,-4.6812188E-2,-8.147E1,5.9E0,-1.39E1,1.635E1,5.29E0,-1.0546E2,-1.75756E2,-6.45E0,-5.61E0,8.7E1,1.4776365E-1,-4.7591485E-2,1.10520065E-1,3.0782526E-2,1.2270154E-1,1.561737E-1,3.9936196E-2,5.1538892E-2,-4.1711323E-2,-1.574607E-2,1.8868317E-1,5.204175E-1,4.4559807E-2,-3.5513688E-2,1.822495E-1,1.0684202E-1,-4.467241E-2,-2.8425386E-2,-2.5774306E-4],"split_indices":[0,3,0,5,4,5,0,7,7,10,1,0,7,1,1,1,1,7,0,7,7,2,0,0,0,0,0,0,0,0,0,0,0,0,0,0,0,0,0,0,0],"split_type":[0,0,0,0,0,0,0,0,0,0,0,0,0,0,0,0,0,0,0,0,0,0,0,0,0,0,0,0,0,0,0,0,0,0,0,0,0,0,0,0,0],"sum_hessian":[1.027735E3,4.8096967E2,5.467653E2,3.7146213E2,1.09507545E2,1.5983467E1,5.307818E2,2.1451912E2,1.56943E2,2.7916601E1,8.159094E1,1.2675859E1,3.3076072E0,6.859819E1,1.4592093E2,5.0564796E1,1.063782E2,2.1588573E1,6.328027E0,2.7906698E1,5.3684246E1,2.2875967E0,1.0200106E0,5.0653923E1,1.7944263E1,6.66671E1,7.925383E1,8.437369E0,4.212743E1,2.203421E1,8.434399E1,1.8914759E0,1.9697098E1,5.218889E0,1.1091378E0,5.704137E0,2.220256E1,3.7453205E1,1.6231043E1,1.287392E0,1.0002046E0],"tree_param":{"num_deleted":"0","num_feature":"13","num_nodes":"41","size_leaf_vector":"1"}},{"base_weights":[-1.7284937E-2,7.4811596E-1,-4.9930853E-1,-8.700564E-1,1.0543277E0,3.777481E-1,-9.757818E-1,-9.1222155E-1,1.7028548E-2,1.660925E0,-3.192666E-1,1.3999007E0,-1.0918284E-1,-6.366674E-1,-9.918182E-1,-9.2712384E-1,-4.9812463E-4,-3.2827076E-2,4.7321998E-2,1.0727847E0,4.0331016E0,1.0067987E0,-7.7877605E-1,-7.8421646E-1,2.0679374E0,8.54482E-1,-9.848628E-1,6.49703E-2,-8.125159E-1,-4.441568E-1,-4.9713265E-2,-4.706148E-2,-1.8498885E-2,-4.525488E-2,6.4372405E-2,2.97992E-1,1.2283464E-1,2.938268E-2,1.1457809E-1,1.8744227E-2,-4.6165995E-2,-4.4357147E-2,1.1847947E-2,1.8889314E-1,5.91891E-2,6.1957534E-2,-4.676118E-2,-8.729943E-3,-4.9851153E-2,-6.6070035E-3,-4.4884115E-2,-4.037048E-4,-3.0659242E-2],"categories":[],"categories_nodes":[],"categories_segments":[],"categories_sizes":[],"default_left":[0,0,0,0,0,0,0,0,0,0,0,0,0,0,0,0,0,0,0,0,0,0,0,0,0,0,0,0,0,0,0,0,0,0,0,0,0,0,0,0,0,0,0,0,0,0,0,0,0,0,0,0,0],"id":1,"left_children":[1,3,5,7,9,11,13,15,17,19,21,23,25,27,29,31,-1,-1,-1,33,35,37,39,41,43,45,47,-1,49,51,-1,-1,-1,-1,-1,-1,-1,-1,-1,-1,-1,-1,-1,-1,-1,-1,-1,-1,-1,-1,-1,-1,-1],"loss_changes":[3.827246E2,1.995449E2,2.663525E2,2.4218712E0,2.8176373E2,1.12029144E2,1.6129456E0,8.1677246E-1,3.0633945E0,3.2255182E2,6.429809E1,1.07551544E2,1.3010237E2,8.351056E0,8.4106445E-2,1.2662888E-1,0E0,0E0,0E0,8.1456024E1,1.25639404E2,1.3333113E1,1.3348637E1,2.073722E0,7.999608E1,5.1732407E1,6.212311E-1,0E0,1.0552931E0,2.5689936E-1,0E0,0E0,0E0,0E0,0E0,0E0,0E0,0E0,0E0,0E0,0E0,0E0,0E0,0E0,0E0,0E0,0E0,0E0,0E0,0E0,0E0,0E0,0E0],"parents":[2147483647,0,0,1,1,2,2,3,3,4,4,5,5,6,6,7,7,8,8,9,9,10,10,11,11,12,12,13,13,14,14,15,15,19,19,20,20,21,21,22,22,23,23,24,24,25,25,26,26,28,28,29,29],"right_children":[2,4,6,8,10,12,14,16,18,20,22,24,26,28,30,32,-1,-1,-1,34,36,38,40,42,44,46,48,-1,50,52,-1,-1,-1,-1,-1,-1,-1,-1,-1,-1,-1,-1,-1,-1,-1,-1,-1,-1,-1,-1,-1,-1,-1],"split_conditions":[1.02E1,-1.073E1,-1.036E1,8.86E0,4.037E1,6.471E1,8.4875E0,1.4268E2,-2.129E1,2.884E1,-2.2368E1,-6.781E1,-6.319E1,-8.78E0,-1.002E1,-1.147E1,-4.9812463E-4,-3.2827076E-2,4.7321998E-2,-3.982E1,1.36E0,2.1E1,-8.73144E2,4.35625E1,-3.954E1,-6.0356E1,6.566E1,6.49703E-2,-2.84836E2,6.005E1,-4.9713265E-2,-4.706148E-2,-1.8498885E-2,-4.525488E-2,6.4372405E-2,2.97992E-1,1.2283464E-1,2.938268E-2,1.1457809E-1,1.8744227E-2,-4.6165995E-2,-4.4357147E-2,1.1847947E-2,1.8889314E-1,5.91891E-2,6.1957534E-2,-4.676118E-2,-8.729943E-3,-4.9851153E-2,-6.6070035E-3,-4.4884115E-2,-4.037048E-4,-3.0659242E-2],"split_indices":[1,7,7,1,7,1,5,2,7,3,9,7,7,7,7,7,0,0,0,1,7,10,8,5,7,9,1,0,9,1,0,0,0,0,0,0,0,0,0,0,0,0,0,0,0,0,0,0,0,0,0,0,0],"split_type":[0,0,0,0,0,0,0,0,0,0,0,0,0,0,0,0,0,0,0,0,0,0,0,0,0,0,0,0,0,0,0,0,0,0,0,0,0,0,0,0,0,0,0,0,0,0,0,0,0,0,0,0,0],"sum_hessian":[1.0353467E3,3.998602E2,6.3548645E2,6.333353E1,3.3652667E2,2.2377861E2,4.1170782E2,6.0432693E1,2.9008389E0,2.3329247E2,1.032342E2,7.1600914E1,1.5217769E2,2.0427958E1,3.9127988E2,5.9423656E1,1.0090374E0,1.8521378E0,1.048701E0,1.8810684E2,4.5185623E1,2.6260342E1,7.6973854E1,1.6729763E1,5.487115E1,7.246067E1,7.9717026E1,1.1689205E0,1.9259037E1,2.5524282E0,3.8872745E2,5.7283974E1,2.1396837E0,1.8101889E1,1.7000496E2,1.9082148E1,2.6103474E1,2.0899445E1,5.360897E0,8.392943E0,6.858091E1,1.5317165E1,1.4125972E0,1.7586544E1,3.7284607E1,5.989485E1,1.2565818E1,1.405771E0,7.831126E1,2.426423E0,1.6832615E1,1.0056573E0,1.5467709E0],"tree_param":{"num_deleted":"0","num_feature":"13","num_nodes":"53","size_leaf_vector":"1"}},{"base_weights":[-9.166261E-3,7.3835075E-1,-4.851524E-1,3.0116463E-2,1.202072E0,1.5785356E-1,-7.774019E-1,6.014486E-1,-3.687216E-1,1.7890941E0,3.5081863E-1,9.210051E-1,-5.3289235E-1,-4.6754652E-1,-9.860287E-1,-5.057784E-1,1.8281281E0,1.5468898E-2,-8.2545125E-1,1.4400027E0,4.0883183E0,7.372018E-1,-8.135003E-1,-4.5531154E-1,1.3108298E0,1.8680202E0,-6.9621867E-1,5.041377E-1,-5.8624935E-1,-6.2244997E-4,-9.8981047E-1,-3.6338285E-2,1.4830698E-2,1.561297E-1,3.62915E-2,-9.796102E-3,1.1542115E-1,1.7276993E-2,-4.6719607E-2,4.9247812E-2,1.0131011E-1,2.7856E-1,4.7699153E-2,7.087291E-2,3.0527376E-3,2.4630902E-2,-4.4345934E-2,1.22807305E-2,-4.3259244E-2,4.750317E-2,1.0596788E-1,1.681331E-1,-1.12592E-2,-1.4086487E-2,-4.7962993E-2,-4.075676E-2,8.76217E-2,-1.6833615E-2,-3.736419E-2,-7.497134E-3,-4.9680155E-2],"categories":[],"categories_nodes":[],"categories_segments":[],"categories_sizes":[],"default_left":[0,0,0,0,0,0,0,0,0,0,0,0,0,0,0,0,0,0,0,0,0,0,0,0,0,0,0,0,0,0,0,0,0,0,0,0,0,0,0,0,0,0,0,0,0,0,0,0,0,0,0,0,0,0,0,0,0,0,0,0,0],"id":2,"left_children":[1,3,5,7,9,11,13,15,17,19,21,23,25,27,29,31,33,35,37,39,41,43,45,47,49,51,53,55,57,-1,59,-1,-1,-1,-1,-1,-1,-1,-1,-1,-1,-1,-1,-1,-1,-1,-1,-1,-1,-1,-1,-1,-1,-1,-1,-1,-1,-1,-1,-1,-1],"loss_changes":[3.685331E2,1.3230334E2,1.1903812E2,3.678728E1,1.2104385E2,1.0516596E2,2.7674255E1,9.1039764E1,1.67034E1,1.0958493E2,4.586658E1,5.140937E1,4.2420773E1,2.0714603E1,9.4203186E-1,6.537923E0,4.295582E1,2.5969149E1,5.8689632E0,3.1733337E1,8.029898E1,3.4904175E1,2.8866844E0,6.4312263E0,1.9589348E1,2.2502962E1,1.051395E1,3.405207E1,6.1073914E0,0E0,6.7341614E-1,0E0,0E0,0E0,0E0,0E0,0E0,0E0,0E0,0E0,0E0,0E0,0E0,0E0,0E0,0E0,0E0,0E0,0E0,0E0,0E0,0E0,0E0,0E0,0E0,0E0,0E0,0E0,0E0,0E0,0E0],"parents":[2147483647,0,0,1,1,2,2,3,3,4,4,5,5,6,6,7,7,8,8,9,9,10,10,11,11,12,12,13,13,14,14,15,15,16,16,17,17,18,18,19,19,20,20,21,21,22,22,23,23,24,24,25,25,26,26,27,27,28,28,30,30],"right_children":[2,4,6,8,10,12,14,16,18,20,22,24,26,28,30,32,34,36,38,40,42,44,46,48,50,52,54,56,58,-1,60,-1,-1,-1,-1,-1,-1,-1,-1,-1,-1,-1,-1,-1,-1,-1,-1,-1,-1,-1,-1,-1,-1,-1,-1,-1,-1,-1,-1,-1,-1],"split_conditions":[9.21E0,-1.39E1,-1.87252E2,-2.9748E1,1.03672E2,2.84496E2,1.0804E2,-1.16628E2,-2.96708E2,7.346E1,-2.58128E2,1.5756668E1,-1.133632E3,-1.2296E2,1.961E1,-1.0665E1,7.85E0,1.727E1,-6.088E0,-2.96708E2,4.951E1,3.23268E2,9.160424E0,1.465E1,7.169E1,6.754E1,-4.193E2,-8.5176E1,2.09975E1,-6.2244997E-4,5.15E-1,-3.6338285E-2,1.4830698E-2,1.561297E-1,3.62915E-2,-9.796102E-3,1.1542115E-1,1.7276993E-2,-4.6719607E-2,4.9247812E-2,1.0131011E-1,2.7856E-1,4.7699153E-2,7.087291E-2,3.0527376E-3,2.4630902E-2,-4.4345934E-2,1.22807305E-2,-4.3259244E-2,4.750317E-2,1.0596788E-1,1.681331E-1,-1.12592E-2,-1.4086487E-2,-4.7962993E-2,-4.075676E-2,8.76217E-2,-1.6833615E-2,-3.736419E-2,-7.497134E-3,-4.9680155E-2],"split_indices":[1,1,9,9,9,8,8,8,8,3,8,6,9,9,1,5,4,2,9,8,4,9,6,1,3,3,9,8,5,0,6,0,0,0,0,0,0,0,0,0,0,0,0,0,0,0,0,0,0,0,0,0,0,0,0,0,0,0,0,0,0],"split_type":[0,0,0,0,0,0,0,0,0,0,0,0,0,0,0,0,0,0,0,0,0,0,0,0,0,0,0,0,0,0,0,0,0,0,0,0,0,0,0,0,0,0,0,0,0,0,0,0,0,0,0,0,0,0,0,0,0,0,0,0,0],"sum_hessian":[1.033758E3,4.0195413E2,6.3180396E2,1.5946725E2,2.4248688E2,1.975704E2,4.3423352E2,6.534833E1,9.411893E1,1.428655E2,9.962138E1,9.370722E1,1.0386318E2,1.7603093E2,2.582026E2,3.4655354E1,3.0692972E1,5.1643627E1,4.24753E1,1.25445404E2,1.7420094E1,7.507449E1,2.4546888E1,2.0646088E1,7.3061134E1,5.9506526E0,9.791253E1,1.880978E1,1.5722115E2,1.0157003E0,2.571869E2,2.724582E1,7.409534E0,1.327311E1,1.741986E1,4.812176E1,3.521864E0,3.4304147E0,3.9044884E1,7.213204E1,5.3313366E1,1.1297618E1,6.1224766E0,3.6877E1,3.8197495E1,1.002506E0,2.3544382E1,7.7660637E0,1.2880024E1,5.2023308E1,2.103783E1,3.1178799E0,2.8327727E0,3.8817173E1,5.909536E1,9.313611E0,9.49617E0,6.28714E1,9.4349754E1,1.3383802E0,2.5584851E2],"tree_param":{"num_deleted":"0","num_feature":"13","num_nodes":"61","size_leaf_vector":"1"}},{"base_weights":[-1.2403247E-3,3.4596017E-1,-6.961358E-1,8.56324E-1,4.745008E-2,6.1453575E-1,-9.6687657E-1,4.728371E-1,2.0137508E0,3.3884805E-1,-7.883738E-1,1.0266565E0,-8.6162394E-1,-6.2735945E-1,-9.8299783E-1,-4.9240395E-2,8.6166584E-1,2.6063042E0,1.0830549E0,6.2122804E-1,-6.1934024E-1,-2.2098054E-1,-9.84953E-1,1.6599549E0,-1.1077312E-1,-3.8962052E-4,-4.6462443E-2,3.1227082E-1,-4.6310317E-2,-6.667759E-3,-4.93285E-2,-4.298911E-2,5.2183694E-3,1.0292268E-1,2.8577143E-2,8.595231E-2,1.9182004E-1,8.178608E-2,1.0893026E-2,-4.220835E-2,4.0899113E-2,1.4906508E-2,-4.6848007E-2,3.3699784E-2,-4.7514483E-2,-5.91807E-3,-4.983532E-2,5.264594E-2,1.7483798E-1,9.288587E-2,-2.7626002E-2,7.211503E-2,-2.1787127E-2],"categories":[],"categories_nodes":[],"categories_segments":[],"categories_sizes":[],"default_left":[0,0,0,0,0,0,0,0,0,0,0,0,0,0,0,0,0,0,0,0,0,0,0,0,0,0,0,0,0,0,0,0,0,0,0,0,0,0,0,0,0,0,0,0,0,0,0,0,0,0,0,0,0],"id":3,"left_children":[1,3,5,7,9,11,13,15,17,19,21,23,25,27,29,31,33,35,37,39,41,43,45,47,49,-1,-1,51,-1,-1,-1,-1,-1,-1,-1,-1,-1,-1,-1,-1,-1,-1,-1,-1,-1,-1,-1,-1,-1,-1,-1,-1,-1],"loss_changes":[2.4979468E2,1.05139946E2,1.2300018E2,1.1211037E2,1.0662048E2,3.7183586E1,9.5022583E-1,3.914807E1,3.1968887E1,8.818122E1,1.2406532E1,3.411235E1,7.7607536E-1,4.7094784E0,6.925659E-1,1.0445613E1,3.7178276E1,3.4698364E1,1.219652E1,7.3095024E1,2.1948376E1,2.0491247E1,7.3526764E-1,3.0123016E1,1.6490158E1,0E0,0E0,4.4713297E0,0E0,0E0,0E0,0E0,0E0,0E0,0E0,0E0,0E0,0E0,0E0,0E0,0E0,0E0,0E0,0E0,0E0,0E0,0E0,0E0,0E0,0E0,0E0,0E0,0E0],"parents":[2147483647,0,0,1,1,2,2,3,3,4,4,5,5,6,6,7,7,8,8,9,9,10,10,11,11,12,12,13,13,14,14,15,15,16,16,17,17,18,18,19,19,20,20,21,21,22,22,23,23,24,24,27,27],"right_children":[2,4,6,8,10,12,14,16,18,20,22,24,26,28,30,32,34,36,38,40,42,44,46,48,50,-1,-1,52,-1,-1,-1,-1,-1,-1,-1,-1,-1,-1,-1,-1,-1,-1,-1,-1,-1,-1,-1,-1,-1,-1,-1,-1,-1],"split_conditions":[1.65748E2,-8.236E1,-3.954E1,2E1,-8.5176E1,8.8785E1,2.60225E1,-2.51596E2,9.53E0,2.614E1,4.348E0,5.91576E1,2.37796E2,2.8179289E1,-3.777E1,-1.767E1,3E0,5.1619778E1,-1.25E0,-2.631E1,-3.8875E0,9.116E0,-1.7991E2,8.367E1,-9.93316E2,-3.8962052E-4,-4.6462443E-2,-2.13208E2,-4.6310317E-2,-6.667759E-3,-4.93285E-2,-4.298911E-2,5.2183694E-3,1.0292268E-1,2.8577143E-2,8.595231E-2,1.9182004E-1,8.178608E-2,1.0893026E-2,-4.220835E-2,4.0899113E-2,1.4906508E-2,-4.6848007E-2,3.3699784E-2,-4.7514483E-2,-5.91807E-3,-4.983532E-2,5.264594E-2,1.7483798E-1,9.288587E-2,-2.7626002E-2,7.211503E-2,-2.1787127E-2],"split_indices":[8,9,7,10,8,5,5,8,4,7,9,6,8,6,7,7,10,6,7,7,5,8,2,2,9,0,0,9,0,0,0,0,0,0,0,0,0,0,0,0,0,0,0,0,0,0,0,0,0,0,0,0,0],"split_type":[0,0,0,0,0,0,0,0,0,0,0,0,0,0,0,0,0,0,0,0,0,0,0,0,0,0,0,0,0,0,0,0,0,0,0,0,0,0,0,0,0,0,0,0,0,0,0,0,0,0,0,0,0],"sum_hessian":[1.0333425E3,6.893933E2,3.4394922E2,2.5372687E2,4.3566644E2,5.866735E1,2.8528186E2,1.916399E2,6.208698E1,3.2348325E2,1.1218319E2,4.610114E1,1.2566212E1,1.4741322E1,2.7054056E2,8.217606E1,1.0946384E2,3.6834736E1,2.5252243E1,2.5012314E2,7.3360115E1,2.9412626E1,8.277056E1,2.9318043E1,1.6783098E1,1.0040686E0,1.1562143E1,3.5462697E0,1.1195052E1,1.2931477E0,2.692474E2,1.2359813E1,6.981625E1,2.0169096E1,8.929474E1,2.279232E1,1.4042416E1,1.4865752E1,1.0386491E1,2.921842E1,2.2090472E2,1.8881306E1,5.447881E1,1.3240414E1,1.6172213E1,1.2557133E0,8.151485E1,2.321806E1,6.099983E0,2.4885151E0,1.4294583E1,1.0427716E0,2.503498E0],"tree_param":{"num_deleted":"0","num_feature":"13","num_nodes":"53","size_leaf_vector":"1"}},{"base_weights":[1.1801549E-2,8.071987E-1,-9.86769E-1,5.0879025E-1,1.6128409E0,-6.0715663E-1,-9.9509287E-1,4.094815E-2,9.116214E-1,2.4170349E0,1.1129193E0,-4.5517124E-2,5.194451E-1,-1.4473731E-2,-4.9863838E-2,-5.282168E-1,2.4302533E-1,1.5202262E0,2.55365E-1,5.98332E-1,2.841427E0,1.538059E0,3.8156995E-1,-2.8298795E-2,7.466794E-2,-4.892878E-2,9.275083E-3,9.561891E-2,3.9564883E-3,3.2432206E-2,9.800555E-2,-1.1849145E-2,4.480814E-2,-2.5253026E-2,6.930803E-2,1.5526643E-1,-8.563804E-3,4.4266913E-2,1.2953968E-1,1.8024174E-3,8.436712E-2],"categories":[],"categories_nodes":[],"categories_segments":[],"categories_sizes":[],"default_left":[0,0,0,0,0,0,0,0,0,0,0,0,0,0,0,0,0,0,0,0,0,0,0,0,0,0,0,0,0,0,0,0,0,0,0,0,0,0,0,0,0],"id":4,"left_children":[1,3,5,7,9,11,13,15,17,19,21,-1,23,-1,-1,25,27,29,31,33,35,37,39,-1,-1,-1,-1,-1,-1,-1,-1,-1,-1,-1,-1,-1,-1,-1,-1,-1,-1],"loss_changes":[8.2411694E2,1.3802667E2,8.494873E-1,7.9663414E1,5.988272E1,4.720703E0,4.025879E-1,2.2752975E1,9.035266E1,4.3692017E1,2.983107E1,0E0,4.305949E0,0E0,0E0,1.6849577E1,3.975415E1,4.384427E1,3.50805E1,1.1473621E1,3.823065E1,3.9990753E1,1.6765015E1,0E0,0E0,0E0,0E0,0E0,0E0,0E0,0E0,0E0,0E0,0E0,0E0,0E0,0E0,0E0,0E0,0E0,0E0],"parents":[2147483647,0,0,1,1,2,2,3,3,4,4,5,5,6,6,7,7,8,8,9,9,10,10,12,12,15,15,16,16,17,17,18,18,19,19,20,20,21,21,22,22],"right_children":[2,4,6,8,10,12,14,16,18,20,22,-1,24,-1,-1,26,28,30,32,34,36,38,40,-1,-1,-1,-1,-1,-1,-1,-1,-1,-1,-1,-1,-1,-1,-1,-1,-1,-1],"split_conditions":[-3.5256E1,4.271E1,-2.0984E1,-4.85972E2,1.782E1,3.5675E1,5.15E-1,-1.571E1,6.54E0,-3.99E1,5.2221878E1,-4.5517124E-2,-9.584E1,-1.4473731E-2,-4.9863838E-2,1.668E1,-3.723E1,-5.61E0,-2.03132E2,3E0,-8.5108E1,-1.70284E2,7.33575E1,-2.8298795E-2,7.466794E-2,-4.892878E-2,9.275083E-3,9.561891E-2,3.9564883E-3,3.2432206E-2,9.800555E-2,-1.1849145E-2,4.480814E-2,-2.5253026E-2,6.930803E-2,1.5526643E-1,-8.563804E-3,4.4266913E-2,1.2953968E-1,1.8024174E-3,8.436712E-2],"split_indices":[0,3,0,0,4,5,6,1,4,4,6,0,7,0,0,7,3,7,0,11,0,0,5,0,0,0,0,0,0,0,0,0,0,0,0,0,0,0,0,0,0],"split_type":[0,0,0,0,0,0,0,0,0,0,0,0,0,0,0,0,0,0,0,0,0,0,0,0,0,0,0,0,0,0,0,0,0,0,0,0,0,0,0,0,0],"sum_hessian":[1.0355878E3,5.7654254E2,4.5904514E2,4.2190222E2,1.5464034E2,1.1436206E1,4.4760895E2,1.9570964E2,2.261926E2,5.7810013E1,9.683032E1,9.162416E0,2.2737896E0,1.7930868E0,4.4581586E2,5.0856033E1,1.448536E2,1.16673965E2,1.0951863E2,1.1393563E1,4.641645E1,6.0536747E1,3.6293575E1,1.273427E0,1.0003625E0,3.09533E1,1.990273E1,1.19964E1,1.3285721E2,3.9964123E1,7.670984E1,6.2289528E1,4.7229103E1,4.895748E0,6.497815E0,4.2649746E1,3.7667022E0,3.8504204E1,2.2032541E1,2.951199E1,6.781587E0],"tree_param":{"num_deleted":"0","num_feature":"13","num_nodes":"41","size_leaf_vector":"1"}},{"base_weights":[7.4349664E-4,7.2464585E-1,-9.719565E-1,2.5557396E-1,1.0730863E0,-1.915075E-1,-9.8732376E-1,-1.09502815E-1,1.2745864E0,1.4280732E0,7.9027456E-1,-7.416726E-1,1.1211168E0,-1.0113019E-2,-9.8956364E-1,-4.1668653E-1,2.5483564E-1,1.9547313E0,6.977554E-1,1.5572367E0,-7.471772E-2,1.933167E-1,1.3464811E0,-7.3719624E-4,-4.269238E-2,1.2378364E-1,-2.8343413E-2,-6.351162E-1,-4.9696833E-2,-5.822643E-3,-3.7945103E-2,-2.9191285E-2,2.7843846E-2,1.894809E-2,1.3051294E-1,1.27582615E-2,1.1330773E-1,6.1544802E-2,1.0876208E-1,-3.0036373E-2,2.6589422E-2,-2.4453107E-2,3.9102044E-2,7.9423E-2,2.1647787E-2,2.287564E-2,-4.3254096E-2],"categories":[],"categories_nodes":[],"categories_segments":[],"categories_sizes":[],"default_left":[0,0,0,0,0,0,0,0,0,0,0,0,0,0,0,0,0,0,0,0,0,0,0,0,0,0,0,0,0,0,0,0,0,0,0,0,0,0,0,0,0,0,0,0,0,0,0],"id":5,"left_children":[1,3,5,7,9,11,13,15,17,19,21,23,25,-1,27,29,31,33,35,37,39,41,43,-1,-1,-1,-1,45,-1,-1,-1,-1,-1,-1,-1,-1,-1,-1,-1,-1,-1,-1,-1,-1,-1,-1,-1],"loss_changes":[7.299943E2,9.687216E1,5.1161194E0,9.4872574E1,3.307846E1,7.895922E0,5.6222534E-1,2.1191702E1,2.5018768E1,2.920221E1,6.3450363E1,5.985799E-1,8.919731E0,0E0,3.845215E-2,1.0452923E1,2.2313206E1,3.0314156E1,2.575941E1,2.5160675E1,4.407472E0,3.8031986E1,2.1232712E1,0E0,0E0,0E0,0E0,2.414906E0,0E0,0E0,0E0,0E0,0E0,0E0,0E0,0E0,0E0,0E0,0E0,0E0,0E0,0E0,0E0,0E0,0E0,0E0,0E0],"parents":[2147483647,0,0,1,1,2,2,3,3,4,4,5,5,6,6,7,7,8,8,9,9,10,10,11,11,12,12,14,14,15,15,16,16,17,17,18,18,19,19,20,20,21,21,22,22,27,27],"right_children":[2,4,6,8,10,12,14,16,18,20,22,24,26,-1,28,30,32,34,36,38,40,42,44,-1,-1,-1,-1,46,-1,-1,-1,-1,-1,-1,-1,-1,-1,-1,-1,-1,-1,-1,-1,-1,-1,-1,-1],"split_conditions":[-4.1012E1,-4.49204E2,-3.016E1,1.9E1,7.18E0,3.1915E1,-1.133632E3,1.31341715E1,-8.52328E2,-7.5844E1,-2.03132E2,2.7396906E1,5.059904E1,-1.0113019E-2,-2.0984E1,5.0025E0,-3.5125E1,-1.132908E3,7.346E1,-1.14E0,-5.5032E1,3.994E1,6.280055E1,-7.3719624E-4,-4.269238E-2,1.2378364E-1,-2.8343413E-2,3E0,-4.9696833E-2,-5.822643E-3,-3.7945103E-2,-2.9191285E-2,2.7843846E-2,1.894809E-2,1.3051294E-1,1.27582615E-2,1.1330773E-1,6.1544802E-2,1.0876208E-1,-3.0036373E-2,2.6589422E-2,-2.4453107E-2,3.9102044E-2,7.9423E-2,2.1647787E-2,2.287564E-2,-4.3254096E-2],"split_indices":[0,0,0,10,4,5,9,6,0,0,0,6,6,0,0,5,5,8,2,4,8,4,6,0,0,0,0,12,0,0,0,0,0,0,0,0,0,0,0,0,0,0,0,0,0,0,0],"split_type":[0,0,0,0,0,0,0,0,0,0,0,0,0,0,0,0,0,0,0,0,0,0,0,0,0,0,0,0,0,0,0,0,0,0,0,0,0,0,0,0,0,0,0,0,0,0,0],"sum_hessian":[1.0347175E3,5.9337286E2,4.413447E2,2.5364644E2,3.3972644E2,8.782348E0,4.3256235E2,1.8740004E2,6.624639E1,1.4884532E2,1.9088113E2,6.4950314E0,2.2873166E0,1.4903907E0,4.3107196E2,1.01597084E2,8.580296E1,2.9304518E1,3.694187E1,1.3703136E2,1.1813956E1,9.271779E1,9.8163345E1,1.0195394E0,5.475492E0,1.0100994E0,1.2772173E0,7.035748E0,4.2403622E2,5.483199E1,4.676509E1,2.2472336E1,6.3330627E1,9.072931E0,2.0231586E1,2.9718292E1,7.223581E0,9.163483E1,4.5396534E1,6.331934E0,5.482022E0,4.3021584E1,4.96962E1,7.702244E1,2.1140907E1,1.0512923E0,5.984456E0],"tree_param":{"num_deleted":"0","num_feature":"13","num_nodes":"47","size_leaf_vector":"1"}},{"base_weights":[8.97768E-3,6.271389E-1,-4.0302706E-1,-8.7552506E-1,9.47773E-1,3.2270572E-1,-9.390094E-1,-9.4026154E-1,3.9448404E-1,1.4656533E0,-5.7474382E-2,2.623643E0,1.11358695E-1,-3.6162487E-1,-4.8927646E-2,-4.8274953E-2,-4.881236E-1,-3.509449E-2,9.881108E-2,-9.3751127E-1,1.7823334E0,3.7198675E-1,-4.9121175E-2,-7.857065E-1,6.8839226E0,5.954939E-1,-5.752042E-1,1.8842609E-1,-7.9595745E-1,6.246841E-3,-3.8305085E-2,-4.8616473E-2,-1.024809E-2,5.025949E-2,1.3640903E-1,6.925489E-2,5.3618453E-3,1.0304972E-2,-4.6341818E-2,4.9705505E-2,3.9014927E-1,6.673742E-2,9.261977E-3,4.6053097E-2,-4.977599E-2,-9.393919E-3,-4.7856208E-2],"categories":[],"categories_nodes":[],"categories_segments":[],"categories_sizes":[],"default_left":[0,0,0,0,0,0,0,0,0,0,0,0,0,0,0,0,0,0,0,0,0,0,0,0,0,0,0,0,0,0,0,0,0,0,0,0,0,0,0,0,0,0,0,0,0,0,0],"id":6,"left_children":[1,3,5,7,9,11,13,15,17,19,21,23,25,27,-1,-1,29,-1,-1,31,33,35,-1,37,39,41,43,-1,45,-1,-1,-1,-1,-1,-1,-1,-1,-1,-1,-1,-1,-1,-1,-1,-1,-1,-1],"loss_changes":[2.6431262E2,2.0080417E2,2.425425E2,6.4144783E0,1.7841193E2,1.2871916E2,7.830475E0,3.302002E-1,8.791464E0,1.7375067E2,4.701254E1,3.2892822E2,8.145218E1,4.70615E1,0E0,0E0,1.0731994E0,0E0,0E0,4.8892212E-1,1.4436554E2,2.1556156E1,0E0,2.0484638E0,4.63938E1,4.3303608E1,6.470146E1,0E0,2.0792255E0,0E0,0E0,0E0,0E0,0E0,0E0,0E0,0E0,0E0,0E0,0E0,0E0,0E0,0E0,0E0,0E0,0E0,0E0],"parents":[2147483647,0,0,1,1,2,2,3,3,4,4,5,5,6,6,7,7,8,8,9,9,10,10,11,11,12,12,13,13,16,16,19,19,20,20,21,21,23,23,24,24,25,25,26,26,28,28],"right_children":[2,4,6,8,10,12,14,16,18,20,22,24,26,28,-1,-1,30,-1,-1,32,34,36,-1,38,40,42,44,-1,46,-1,-1,-1,-1,-1,-1,-1,-1,-1,-1,-1,-1,-1,-1,-1,-1,-1,-1],"split_conditions":[7.19E0,-7.17E0,-7.69E0,6.22E0,2.403E1,1.505E1,9.21E0,4.66E0,-1.227E1,-2.526E1,-2.241E1,-1.519E1,-3.954E1,-5.4E0,-4.8927646E-2,-4.8274953E-2,1.2676932E1,-3.509449E-2,9.881108E-2,2.214E1,1.2445032E1,4.23E1,-4.9121175E-2,-1.145E1,8.5E0,7.007E1,3.994E1,1.8842609E-1,2.01E0,6.246841E-3,-3.8305085E-2,-4.8616473E-2,-1.024809E-2,5.025949E-2,1.3640903E-1,6.925489E-2,5.3618453E-3,1.0304972E-2,-4.6341818E-2,4.9705505E-2,3.9014927E-1,6.673742E-2,9.261977E-3,4.6053097E-2,-4.977599E-2,-9.393919E-3,-4.7856208E-2],"split_indices":[1,7,7,1,7,1,1,1,7,1,1,7,7,7,0,0,6,0,0,7,6,7,0,2,1,1,1,0,3,0,0,0,0,0,0,0,0,0,0,0,0,0,0,0,0,0,0],"split_type":[0,0,0,0,0,0,0,0,0,0,0,0,0,0,0,0,0,0,0,0,0,0,0,0,0,0,0,0,0,0,0,0,0,0,0,0,0,0,0,0,0,0,0,0,0,0,0],"sum_hessian":[1.035808E3,4.1405237E2,6.217556E2,7.2508385E1,3.41544E2,2.6429367E2,3.5746198E2,6.92387E1,3.2696793E0,2.2511296E2,1.1643103E2,2.1273623E1,2.4302007E2,2.3562668E1,3.338993E2,6.450287E1,4.7358317E0,2.2596605E0,1.010019E0,2.5982355E1,1.9913062E2,7.9920944E1,3.651009E1,1.2269974E1,9.003649E0,1.4259836E2,1.0042171E2,1.511639E0,2.205103E1,1.6491977E0,3.086634E0,2.4490974E1,1.491381E0,1.1044643E2,8.868418E1,1.5681448E1,6.4239494E1,1.4711248E0,1.0798849E1,1.4962959E0,7.5073524E0,5.008844E1,9.250991E1,2.1761696E1,7.866001E1,5.0737176E0,1.6977312E1],"tree_param":{"num_deleted":"0","num_feature":"13","num_nodes":"47","size_leaf_vector":"1"}},{"base_weights":[-1.6934078E-3,6.022839E-1,-9.699453E-1,3.4834594E-1,1.1818439E0,-1.8882683E-1,-9.7712594E-1,1.4295799E-1,8.836543E-1,9.0884495E-1,2.2823894E0,-3.7304353E-2,4.7437172E-2,-4.4919157E-1,-9.8189217E-1,3.4906462E-1,-4.30953E-1,1.1978215E0,1.5581706E-1,3.436903E-2,1.1090897E0,1.5866996E0,3.6795013E0,2.352318E-2,-3.8795367E-2,-6.307845E-1,-4.9329516E-2,-1.6920596E-2,2.8275395E-2,2.5665319E-2,-3.061605E-2,5.347705E-2,1.6927505E-1,5.3110283E-2,-6.1494946E-3,4.613517E-2,-2.7130513E-2,7.9509415E-2,4.220586E-2,9.306357E-2,-2.5215793E-2,-7.820374E-3,2.0903142E-1,-4.3197542E-2,2.445027E-2],"categories":[],"categories_nodes":[],"categories_segments":[],"categories_sizes":[],"default_left":[0,0,0,0,0,0,0,0,0,0,0,0,0,0,0,0,0,0,0,0,0,0,0,0,0,0,0,0,0,0,0,0,0,0,0,0,0,0,0,0,0,0,0,0,0],"id":7,"left_children":[1,3,5,7,9,11,13,15,17,19,21,-1,-1,23,25,27,29,31,33,35,37,39,41,-1,-1,43,-1,-1,-1,-1,-1,-1,-1,-1,-1,-1,-1,-1,-1,-1,-1,-1,-1,-1,-1],"loss_changes":[6.0896765E2,9.3969376E1,2.0592346E0,4.905616E1,5.650186E1,3.8035355E0,5.557251E-1,3.8532787E1,2.8132835E1,2.7607193E1,3.1181808E1,0E0,0E0,1.9838465E0,2.3895264E-2,3.5798832E1,1.5074621E1,2.061435E1,9.857384E0,1.6106607E1,1.5029312E1,1.6546532E1,2.3534973E1,0E0,0E0,2.4970767E0,0E0,0E0,0E0,0E0,0E0,0E0,0E0,0E0,0E0,0E0,0E0,0E0,0E0,0E0,0E0,0E0,0E0,0E0,0E0],"parents":[2147483647,0,0,1,1,2,2,3,3,4,4,5,5,6,6,7,7,8,8,9,9,10,10,13,13,14,14,15,15,16,16,17,17,18,18,19,19,20,20,21,21,22,22,25,25],"right_children":[2,4,6,8,10,12,14,16,18,20,22,-1,-1,24,26,28,30,32,34,36,38,40,42,-1,-1,44,-1,-1,-1,-1,-1,-1,-1,-1,-1,-1,-1,-1,-1,-1,-1,-1,-1,-1,-1],"split_conditions":[-3.5256E1,3.532E1,-3.016E1,-2.39412E2,2.1E1,3.1915E1,1.2160969E0,8.81E0,1.635E1,-4.85972E2,7.818E1,-3.7304353E-2,4.7437172E-2,3.906E1,-2.0984E1,-1.027412E3,-1.095748E3,9.003E1,-2.105E1,1.504E1,7E0,7.817E1,7.285E1,2.352318E-2,-3.8795367E-2,8.45E1,-4.9329516E-2,-1.6920596E-2,2.8275395E-2,2.5665319E-2,-3.061605E-2,5.347705E-2,1.6927505E-1,5.3110283E-2,-6.1494946E-3,4.613517E-2,-2.7130513E-2,7.9509415E-2,4.220586E-2,9.306357E-2,-2.5215793E-2,-7.820374E-3,2.0903142E-1,-4.3197542E-2,2.445027E-2],"split_indices":[0,3,0,0,10,5,6,3,2,0,2,0,0,4,0,0,0,7,3,4,10,4,3,0,0,4,0,0,0,0,0,0,0,0,0,0,0,0,0,0,0,0,0,0,0],"split_type":[0,0,0,0,0,0,0,0,0,0,0,0,0,0,0,0,0,0,0,0,0,0,0,0,0,0,0,0,0,0,0,0,0,0,0,0,0,0,0,0,0,0,0,0,0],"sum_hessian":[1.0393236E3,6.4029663E2,3.99027E2,4.4633368E2,1.9396294E2,3.8833878E0,3.9514362E2,3.2348535E2,1.2284831E2,1.5687474E2,3.7088192E1,2.8375165E0,1.0458714E0,4.3876686E0,3.9075595E2,2.38298E2,8.518735E1,8.535817E1,3.749014E1,2.9447613E1,1.27427124E2,2.6185072E1,1.090312E1,1.0348225E0,3.3528461E0,6.945696E0,3.8381024E2,5.6925438E1,1.8137257E2,1.3431018E1,7.175633E1,8.203662E1,3.321547E0,8.158243E0,2.9331898E1,1.1359301E1,1.8088312E1,4.34804E1,8.394673E1,2.3242912E1,2.9421608E0,1.3392947E0,9.563826E0,5.937782E0,1.0079138E0],"tree_param":{"num_deleted":"0","num_feature":"13","num_nodes":"45","size_leaf_vector":"1"}},{"base_weights":[-1.5812889E-2,5.41961E-1,-9.783605E-1,3.3109435E-1,1.0041693E0,-5.822109E-1,-9.8821324E-1,5.270857E-1,-1.4091331E-1,2.9012352E-1,1.2180697E0,-7.2591215E-1,2.0823793E-2,-6.8324045E-3,-4.9541973E-2,-7.156429E-2,7.930568E-1,-3.0891246E-1,1.0199816E0,-2.5490567E-1,1.0199146E0,1.9282038E0,9.1055346E-1,-1.853683E-1,-4.411494E-2,-4.8529405E-2,3.9885383E-2,5.5062678E-2,1.8480947E-2,2.0812253E-2,-2.400284E-2,-1.0333427E-2,8.873047E-2,6.665861E-3,-3.0955866E-2,9.715968E-2,2.5785808E-2,6.4495414E-2,1.6170587E-1,1.0458514E-2,5.5046726E-2,2.3965675E-2,-3.1294927E-2],"categories":[],"categories_nodes":[],"categories_segments":[],"categories_sizes":[],"default_left":[0,0,0,0,0,0,0,0,0,0,0,0,0,0,0,0,0,0,0,0,0,0,0,0,0,0,0,0,0,0,0,0,0,0,0,0,0,0,0,0,0,0,0],"id":8,"left_children":[1,3,5,7,9,11,13,15,17,19,21,23,-1,-1,-1,25,27,29,31,33,35,37,39,41,-1,-1,-1,-1,-1,-1,-1,-1,-1,-1,-1,-1,-1,-1,-1,-1,-1,-1,-1],"loss_changes":[5.602597E2,6.406271E1,9.189453E-1,4.2185112E1,3.1186218E1,1.9849904E0,6.968384E-1,5.13043E1,2.6516647E1,1.9715376E1,3.28761E1,7.337389E-1,0E0,0E0,0E0,7.886615E1,2.8686203E1,1.4860555E1,1.6303553E1,4.1548514E0,8.825745E0,3.5028397E1,1.4799767E1,1.3681271E0,0E0,0E0,0E0,0E0,0E0,0E0,0E0,0E0,0E0,0E0,0E0,0E0,0E0,0E0,0E0,0E0,0E0,0E0,0E0],"parents":[2147483647,0,0,1,1,2,2,3,3,4,4,5,5,6,6,7,7,8,8,9,9,10,10,11,11,15,15,16,16,17,17,18,18,19,19,20,20,21,21,22,22,23,23],"right_children":[2,4,6,8,10,12,14,16,18,20,22,24,-1,-1,-1,26,28,30,32,34,36,38,40,42,-1,-1,-1,-1,-1,-1,-1,-1,-1,-1,-1,-1,-1,-1,-1,-1,-1,-1,-1],"split_conditions":[-3.5256E1,3.532E1,-2.0984E1,7.87E0,4E0,-6.45E0,-1.133632E3,-1.227E1,-1.1662E2,-2.03132E2,5.59E0,-1.91084E2,2.0823793E-2,-6.8324045E-3,-4.9541973E-2,1.195E1,5.29E0,-3.8E-1,7E0,-1.84E0,-1.48188E2,-1.14E0,-4.39908E2,2.4326E2,-4.411494E-2,-4.8529405E-2,3.9885383E-2,5.5062678E-2,1.8480947E-2,2.0812253E-2,-2.400284E-2,-1.0333427E-2,8.873047E-2,6.665861E-3,-3.0955866E-2,9.715968E-2,2.5785808E-2,6.4495414E-2,1.6170587E-1,1.0458514E-2,5.5046726E-2,2.3965675E-2,-3.1294927E-2],"split_indices":[0,3,0,3,12,7,9,1,0,0,4,9,0,0,0,7,1,1,12,7,0,4,0,8,0,0,0,0,0,0,0,0,0,0,0,0,0,0,0,0,0,0,0],"split_type":[0,0,0,0,0,0,0,0,0,0,0,0,0,0,0,0,0,0,0,0,0,0,0,0,0,0,0,0,0,0,0,0,0,0,0,0,0,0,0,0,0,0,0],"sum_hessian":[1.0415521E3,6.5970526E2,3.818469E2,4.5420584E2,2.0549945E2,1.0724865E1,3.7112204E2,3.2085907E2,1.3334676E2,4.791271E1,1.5758675E2,9.614557E0,1.1103076E0,1.3040552E0,3.69818E2,9.8926155E1,2.2193292E2,1.1713014E2,1.621661E1,2.7800901E1,2.0111807E1,4.602739E1,1.1155935E2,2.6478145E0,6.9667425E0,4.8573555E1,5.0352596E1,1.2751856E2,9.441437E1,2.2091957E1,9.5038185E1,6.4531393E0,9.763471E0,1.376373E1,1.403717E1,6.095611E0,1.4016195E1,3.2251476E1,1.3775914E1,2.4264637E1,8.7294716E1,1.0203102E0,1.6275043E0],"tree_param":{"num_deleted":"0","num_feature":"13","num_nodes":"43","size_leaf_vector":"1"}},{"base_weights":[-8.788399E-3,5.0804883E-1,-9.7905284E-1,1.148465E-1,7.377329E-1,-7.715241E-3,-9.8172146E-1,-1.0479129E-1,1.058942E0,1.0680614E0,4.178131E-1,-6.0891396E-1,-4.934384E-2,1.7777623E0,-1.4788523E-1,9.4828404E-2,1.7331005E0,6.9349563E-1,1.7362309E0,-1.4878544E-1,9.442713E-1,1.2572624E-2,-4.221886E-2,1.6587818E-1,-2.4059485E-3,-1.7278821E-3,-3.1957883E-2,-2.1334972E-2,6.623398E-2,1.1852205E-1,1.8415168E-2,2.539711E-2,8.0716E-2,9.820928E-2,-6.7393347E-3,-1.3505617E-2,5.8125444E-2,7.836282E-2,2.7919618E-2],"categories":[],"categories_nodes":[],"categories_segments":[],"categories_sizes":[],"default_left":[0,0,0,0,0,0,0,0,0,0,0,0,0,0,0,0,0,0,0,0,0,0,0,0,0,0,0,0,0,0,0,0,0,0,0,0,0,0,0],"id":9,"left_children":[1,3,5,7,9,-1,11,13,15,17,19,21,-1,23,25,27,29,31,33,35,37,-1,-1,-1,-1,-1,-1,-1,-1,-1,-1,-1,-1,-1,-1,-1,-1,-1,-1],"loss_changes":[5.214052E2,6.118347E1,6.4382935E-1,5.2228554E1,4.479094E1,0E0,9.09729E-2,1.6878702E1,3.0726437E1,5.134413E1,6.5496056E1,1.7360492E0,0E0,1.3262033E1,1.1177034E1,1.3788016E1,2.3405388E1,2.245253E1,3.2149017E1,1.7240324E1,2.6460236E1,0E0,0E0,0E0,0E0,0E0,0E0,0E0,0E0,0E0,0E0,0E0,0E0,0E0,0E0,0E0,0E0,0E0,0E0],"parents":[2147483647,0,0,1,1,2,2,3,3,4,4,6,6,7,7,8,8,9,9,10,10,11,11,13,13,14,14,15,15,16,16,17,17,18,18,19,19,20,20],"right_children":[2,4,6,8,10,-1,12,14,16,18,20,22,-1,24,26,28,30,32,34,36,38,-1,-1,-1,-1,-1,-1,-1,-1,-1,-1,-1,-1,-1,-1,-1,-1,-1,-1],"split_conditions":[-3.016E1,-4.85972E2,-1.133632E3,2.1E1,5.29E0,-7.715241E-3,-2.0984E1,-1.385528E3,-1.88E0,-2.72E0,-2.108E1,4.1507927E1,-4.934384E-2,7E0,1.425E1,-2.90136E2,-6.91136E2,2.09975E1,-1.16628E2,4.15552E2,6.471E1,1.2572624E-2,-4.221886E-2,1.6587818E-1,-2.4059485E-3,-1.7278821E-3,-3.1957883E-2,-2.1334972E-2,6.623398E-2,1.1852205E-1,1.8415168E-2,2.539711E-2,8.0716E-2,9.820928E-2,-6.7393347E-3,-1.3505617E-2,5.8125444E-2,7.836282E-2,2.7919618E-2],"split_indices":[0,0,9,10,1,0,0,9,1,1,8,6,0,10,1,8,0,5,8,9,1,0,0,0,0,0,0,0,0,0,0,0,0,0,0,0,0,0,0],"split_type":[0,0,0,0,0,0,0,0,0,0,0,0,0,0,0,0,0,0,0,0,0,0,0,0,0,0,0,0,0,0,0,0,0,0,0,0,0,0,0],"sum_hessian":[1.037764E3,6.7740344E2,3.6036063E2,2.5033984E2,4.2706357E2,1.3519619E0,3.5900867E2,2.0381303E2,4.6526802E1,2.0896317E2,2.181004E2,6.5214415E0,3.524872E2,3.6602955E0,2.0015274E2,1.9615442E1,2.691136E1,1.352064E2,7.375677E1,1.05391075E2,1.12709335E2,1.3866848E0,5.1347566E0,1.5425051E0,2.1177905E0,1.6350537E2,3.6647366E1,1.4232914E1,5.382529E0,1.7842382E1,9.068977E0,1.13821976E2,2.1384422E1,6.570218E1,8.054591E0,9.71924E1,8.19867E0,4.193903E1,7.07703E1],"tree_param":{"num_deleted":"0","num_feature":"13","num_nodes":"39","size_leaf_vector":"1"}},{"base_weights":[-1.4689395E-2,4.720877E-1,-9.583818E-1,2.4718241E-1,9.77272E-1,-4.6487334E-1,-9.7969544E-1,4.5867136E-1,-1.3780399E-1,1.5410924E0,7.053838E-1,-4.6364497E-2,7.126872E-1,-5.737481E-3,-4.91282E-2,-3.5255322E-1,6.43774E-1,1.4363453E0,-2.3314506E-1,1.0430247E0,2.476538E0,-1.775004E-1,8.1489843E-1,1.2462616E-1,-2.9913557E-1,-3.5205785E-2,1.8555311E-2,1.3938665E-2,4.1481964E-2,-6.414001E-3,1.1687088E-1,-2.0272976E-2,4.0892538E-2,3.4925385E-4,6.7780875E-2,1.5587877E-1,4.01618E-2,1.8924564E-2,-2.4082787E-2,2.5307382E-2,5.918215E-2,-3.4668203E-2,2.2826597E-2],"categories":[],"categories_nodes":[],"categories_segments":[],"categories_sizes":[],"default_left":[0,0,0,0,0,0,0,0,0,0,0,0,0,0,0,0,0,0,0,0,0,0,0,0,0,0,0,0,0,0,0,0,0,0,0,0,0,0,0,0,0,0,0],"id":10,"left_children":[1,3,5,7,9,11,13,15,17,19,21,-1,23,-1,-1,25,27,29,31,33,35,37,39,-1,41,-1,-1,-1,-1,-1,-1,-1,-1,-1,-1,-1,-1,-1,-1,-1,-1,-1,-1],"loss_changes":[4.7652432E2,7.751529E1,3.2575684E0,3.8728546E1,3.1179E1,9.654793E0,7.246094E-1,4.628682E1,2.5720554E1,2.8928528E1,1.4053131E1,0E0,1.0150987E1,0E0,0E0,1.492396E1,1.67361E1,1.4115213E1,2.9370762E1,1.4843433E1,2.192163E1,3.0056052E0,1.3991127E1,0E0,1.5744741E0,0E0,0E0,0E0,0E0,0E0,0E0,0E0,0E0,0E0,0E0,0E0,0E0,0E0,0E0,0E0,0E0,0E0,0E0],"parents":[2147483647,0,0,1,1,2,2,3,3,4,4,5,5,6,6,7,7,8,8,9,9,10,10,12,12,15,15,16,16,17,17,18,18,19,19,20,20,21,21,22,22,24,24],"right_children":[2,4,6,8,10,12,14,16,18,20,22,-1,24,-1,-1,26,28,30,32,34,36,38,40,-1,42,-1,-1,-1,-1,-1,-1,-1,-1,-1,-1,-1,-1,-1,-1,-1,-1,-1,-1],"split_conditions":[-4.1012E1,4.09E1,-2.0984E1,5.805E0,6.86E0,3.1915E1,-1.133632E3,-1.027412E3,-7.70288E2,-1.14E0,7.365E0,-4.6364497E-2,5.143E1,-5.737481E-3,-4.91282E-2,-1.88E0,-1.143E1,2.01E0,-1.1662E2,1.62E1,-8.236E1,-2.70664E2,-1.9762E2,1.2462616E-1,5.61E1,-3.5205785E-2,1.8555311E-2,1.3938665E-2,4.1481964E-2,-6.414001E-3,1.1687088E-1,-2.0272976E-2,4.0892538E-2,3.4925385E-4,6.7780875E-2,1.5587877E-1,4.01618E-2,1.8924564E-2,-2.4082787E-2,2.5307382E-2,5.918215E-2,-3.4668203E-2,2.2826597E-2],"split_indices":[0,3,0,5,4,5,9,0,9,4,5,0,1,0,0,1,1,4,0,5,9,8,0,0,5,0,0,0,0,0,0,0,0,0,0,0,0,0,0,0,0,0,0],"split_type":[0,0,0,0,0,0,0,0,0,0,0,0,0,0,0,0,0,0,0,0,0,0,0,0,0,0,0,0,0,0,0,0,0,0,0,0,0,0,0,0,0,0,0],"sum_hessian":[1.0353632E3,6.833672E2,3.5199597E2,4.738853E2,2.0948189E2,1.55170555E1,3.364789E2,3.057389E2,1.6814642E2,6.6633804E1,1.4284808E2,1.1294391E1,4.2226644E0,1.2477514E0,3.3523114E2,5.6633625E1,2.4910527E2,8.799245E0,1.5934717E2,4.4862343E1,2.1771461E1,1.5695279E1,1.271528E2,1.0000819E0,3.2225826E0,3.8134457E1,1.849917E1,8.489299E1,1.6421228E2,3.5290406E0,5.270204E0,1.3742937E2,2.1917812E1,1.0635382E1,3.4226963E1,1.5117036E1,6.6544247E0,5.4635625E0,1.0231716E1,7.049759E1,5.6655212E1,2.1719394E0,1.0506431E0],"tree_param":{"num_deleted":"0","num_feature":"13","num_nodes":"43","size_leaf_vector":"1"}},{"base_weights":[-5.0585973E-3,4.4295144E-1,-9.7255343E-1,1.8792644E-1,7.014586E-1,-4.525727E-1,-4.905926E-2,-4.120606E-2,9.081645E-1,1.0532525E0,4.5818654E-1,-4.2055327E-2,4.1473538E-2,1.5641636E-1,-3.9698586E-1,1.08608104E-1,1.3919525E0,-8.6076325E-1,1.598926E0,8.927478E-1,-9.551497E-1,-1.16840415E-2,3.3874374E-2,2.1766707E-2,-4.7942456E-2,-4.764984E-2,4.505587E-2,8.303436E-2,-4.309396E-2,-4.5874517E-2,5.878992E-3,5.9830107E-2,1.5238796E-1,1.06246985E-1,3.2969538E-2,-8.547294E-3,-4.9711075E-2],"categories":[],"categories_nodes":[],"categories_segments":[],"categories_sizes":[],"default_left":[0,0,0,0,0,0,0,0,0,0,0,0,0,0,0,0,0,0,0,0,0,0,0,0,0,0,0,0,0,0,0,0,0,0,0,0,0],"id":11,"left_children":[1,3,5,7,9,11,-1,13,15,17,19,-1,-1,21,23,25,27,29,31,33,35,-1,-1,-1,-1,-1,-1,-1,-1,-1,-1,-1,-1,-1,-1,-1,-1],"loss_changes":[4.489648E2,4.6541977E1,1.0273438E0,5.9077503E1,2.9575485E1,4.2887726E0,0E0,1.9212145E1,3.3265068E1,1.505358E2,1.2946634E2,0E0,0E0,3.5896976E1,4.603466E1,2.9170158E1,3.3979073E1,1.9023113E0,6.1335754E1,4.48004E1,1.3537254E0,0E0,0E0,0E0,0E0,0E0,0E0,0E0,0E0,0E0,0E0,0E0,0E0,0E0,0E0,0E0,0E0],"parents":[2147483647,0,0,1,1,2,2,3,3,4,4,5,5,7,7,8,8,9,9,10,10,13,13,14,14,15,15,16,16,17,17,18,18,19,19,20,20],"right_children":[2,4,6,8,10,12,-1,14,16,18,20,-1,-1,22,24,26,28,30,32,34,36,-1,-1,-1,-1,-1,-1,-1,-1,-1,-1,-1,-1,-1,-1,-1,-1],"split_conditions":[-3.016E1,-3.44616E2,-2.0984E1,2E1,2.32E0,-4.149E1,-4.905926E-2,6.87E0,-2.3E0,-2.95E0,-1.61E0,-4.2055327E-2,4.1473538E-2,-3.18E0,-6.7E0,2.28E0,3.24E0,1.7E0,-2.3E0,1.055E1,-1.12E0,-1.16840415E-2,3.3874374E-2,2.1766707E-2,-4.7942456E-2,-4.764984E-2,4.505587E-2,8.303436E-2,-4.309396E-2,-4.5874517E-2,5.878992E-3,5.9830107E-2,1.5238796E-1,1.06246985E-1,3.2969538E-2,-8.547294E-3,-4.9711075E-2],"split_indices":[0,0,0,10,1,7,0,1,1,7,7,0,0,1,7,7,7,1,1,1,7,0,0,0,0,0,0,0,0,0,0,0,0,0,0,0,0],"split_type":[0,0,0,0,0,0,0,0,0,0,0,0,0,0,0,0,0,0,0,0,0,0,0,0,0,0,0,0,0,0,0,0,0,0,0,0,0],"sum_hessian":[1.033806E3,7.06975E2,3.2683105E2,3.5675372E2,3.5022128E2,6.2093453E0,3.206217E2,2.7136572E2,8.538799E1,1.4181462E2,2.0840665E2,5.029152E0,1.1801931E0,1.7482007E2,9.654567E1,3.2650696E1,5.2737297E1,3.1332975E1,1.1048165E2,1.5967838E2,4.872828E1,1.0029001E2,7.453005E1,3.8999172E1,5.7546497E1,1.3869421E1,1.8781273E1,4.735421E1,5.3830876E0,2.967456E1,1.6584136E0,8.789903E1,2.2582613E1,2.4134638E1,1.3554373E2,2.5676925E0,4.6160587E1],"tree_param":{"num_deleted":"0","num_feature":"13","num_nodes":"37","size_leaf_vector":"1"}},{"base_weights":[-1.1053991E-2,3.9254817E-1,-3.4012333E-1,-7.994609E-1,6.5167236E-1,2.3051228E-1,-4.8375882E-2,-9.2636436E-1,1.3842897E0,1.7944541E0,4.1604155E-1,1.6746329E0,4.2834405E-2,-9.6036494E-1,-3.6000732E-1,-5.0638694E-1,2.1789026E-1,-7.547654E-1,4.394487E0,7.177733E-1,-7.10486E-1,-7.401562E-1,3.2794816E0,2.9982385E-1,-9.5386153E-1,-4.866035E-2,-4.985697E-4,-3.1108145E-2,2.4190268E-2,-3.3532534E-2,-5.725358E-4,-4.164546E-2,2.3827149E-2,2.5677392E-1,8.454988E-2,6.1155695E-2,2.0718318E-3,3.945594E-2,-4.2935092E-2,-4.333519E-2,2.4501728E-2,2.1671169E-1,7.369018E-2,4.0735364E-2,-4.4427463E-3,-7.7770897E-3,-4.9442947E-2],"categories":[],"categories_nodes":[],"categories_segments":[],"categories_sizes":[],"default_left":[0,0,0,0,0,0,0,0,0,0,0,0,0,0,0,0,0,0,0,0,0,0,0,0,0,0,0,0,0,0,0,0,0,0,0,0,0,0,0,0,0,0,0,0,0,0,0],"id":12,"left_children":[1,3,5,7,9,11,-1,13,15,17,19,21,23,25,27,29,-1,31,33,35,37,39,41,43,45,-1,-1,-1,-1,-1,-1,-1,-1,-1,-1,-1,-1,-1,-1,-1,-1,-1,-1,-1,-1,-1,-1],"loss_changes":[1.3791017E2,1.4457747E2,2.0500201E2,2.4486103E1,1.0256218E2,8.133206E1,0E0,1.1895905E0,3.0313435E1,4.3600714E2,1.09068146E2,1.3619705E2,6.863254E1,9.009781E-1,1.6537296E0,3.136263E-1,0E0,3.6506977E0,5.6352417E1,8.621504E1,1.5785648E1,2.697175E0,3.3456543E1,4.267805E1,1.3810654E0,0E0,0E0,0E0,0E0,0E0,0E0,0E0,0E0,0E0,0E0,0E0,0E0,0E0,0E0,0E0,0E0,0E0,0E0,0E0,0E0,0E0,0E0],"parents":[2147483647,0,0,1,1,2,2,3,3,4,4,5,5,7,7,8,8,9,9,10,10,11,11,12,12,13,13,14,14,15,15,17,17,18,18,19,19,20,20,21,21,22,22,23,23,24,24],"right_children":[2,4,6,8,10,12,-1,14,16,18,20,22,24,26,28,30,-1,32,34,36,38,40,42,44,46,-1,-1,-1,-1,-1,-1,-1,-1,-1,-1,-1,-1,-1,-1,-1,-1,-1,-1,-1,-1,-1,-1],"split_conditions":[6.87E0,-6.02E0,-5.4E0,5.9E0,-1.02E0,1.465E1,-4.8375882E-2,4.66E0,-9.08E0,6.9E-1,1.03E0,-1.462E1,-1.462E1,1.6088E2,3.269E1,1.465E1,2.1789026E-1,1.196E2,5.29E0,2.403E1,-4.5E-1,-1.58E1,-8.23E0,7.116E1,1.583E1,-4.866035E-2,-4.985697E-4,-3.1108145E-2,2.4190268E-2,-3.3532534E-2,-5.725358E-4,-4.164546E-2,2.3827149E-2,2.5677392E-1,8.454988E-2,6.1155695E-2,2.0718318E-3,3.945594E-2,-4.2935092E-2,-4.333519E-2,2.4501728E-2,2.1671169E-1,7.369018E-2,4.0735364E-2,-4.4427463E-3,-7.7770897E-3,-4.9442947E-2],"split_indices":[1,7,7,1,7,1,0,1,7,1,1,7,7,2,4,3,0,3,1,7,7,7,7,1,1,0,0,0,0,0,0,0,0,0,0,0,0,0,0,0,0,0,0,0,0,0,0],"split_type":[0,0,0,0,0,0,0,0,0,0,0,0,0,0,0,0,0,0,0,0,0,0,0,0,0,0,0,0,0,0,0,0,0,0,0,0,0,0,0,0,0,0,0,0,0,0,0],"sum_hessian":[1.0363726E3,4.6538583E2,5.709867E2,8.273009E1,3.8265576E2,2.9935034E2,2.7163632E2,7.873063E1,3.9994516E0,6.428167E1,3.1837408E2,3.3517914E1,2.6583243E2,7.3615524E1,5.1151066E0,2.9520955E0,1.0473561E0,3.281636E1,3.1465307E1,2.5140108E2,6.697301E1,1.3597213E1,1.99207E1,2.1189606E2,5.3936386E1,7.261038E1,1.005142E0,4.103049E0,1.0120579E0,1.9499162E0,1.0021794E0,3.1162235E1,1.6541232E0,2.3990307E1,7.4750013E0,1.4342747E2,1.07973595E2,5.6350527E0,6.133795E1,1.2596867E1,1.0003458E0,1.1691184E1,8.229516E0,9.067828E1,1.21217766E2,2.4938571E0,5.1442528E1],"tree_param":{"num_deleted":"0","num_feature":"13","num_nodes":"47","size_leaf_vector":"1"}},{"base_weights":[-3.078997E-2,3.7153408E-1,-3.932304E-1,-8.9817387E-1,5.8093154E-1,1.7579085E-1,-9.598897E-1,-9.252824E-1,2.4106765E-2,7.787099E-1,-1.9330226E-1,1.3956394E0,9.734354E-3,-4.3671298E-1,-9.733713E-1,-4.887136E-2,-5.8012897E-1,-9.1678864E-1,8.880394E-1,2.0090617E-1,-4.8635516E-2,-4.6450257E-2,2.6005063E0,3.2160282E-1,-6.306193E-1,4.1749611E-1,-4.243037E-2,-4.972218E-2,-7.924003E-1,-3.9423317E-2,4.7795866E-3,-4.8106562E-2,-6.5096066E-4,3.4745596E-2,7.251668E-2,3.5915986E-2,-1.3727816E-2,1.4046952E-1,-2.7870184E-2,-1.8592156E-2,3.1778675E-2,3.1601757E-2,-4.876528E-2,-3.0017057E-2,7.1020216E-2,8.480174E-3,-4.371623E-2],"categories":[],"categories_nodes":[],"categories_segments":[],"categories_sizes":[],"default_left":[0,0,0,0,0,0,0,0,0,0,0,0,0,0,0,0,0,0,0,0,0,0,0,0,0,0,0,0,0,0,0,0,0,0,0,0,0,0,0,0,0,0,0,0,0,0,0],"id":13,"left_children":[1,3,5,7,9,11,13,15,-1,17,19,21,23,25,27,-1,29,31,33,35,-1,-1,37,39,41,43,-1,-1,45,-1,-1,-1,-1,-1,-1,-1,-1,-1,-1,-1,-1,-1,-1,-1,-1,-1,-1],"loss_changes":[1.5108649E2,1.3108835E2,1.7591211E2,3.0622292E0,6.47959E1,5.524549E1,1.5021362E0,6.7324066E-1,0E0,6.3184555E1,2.6834307E1,9.3946526E1,4.835581E1,3.4075842E0,2.2473145E-1,0E0,1.6949835E0,8.428726E-1,3.3372528E1,1.4566164E1,0E0,0E0,1.5937286E1,3.5683807E1,3.5132957E1,4.418791E0,0E0,0E0,2.7190514E0,0E0,0E0,0E0,0E0,0E0,0E0,0E0,0E0,0E0,0E0,0E0,0E0,0E0,0E0,0E0,0E0,0E0,0E0],"parents":[2147483647,0,0,1,1,2,2,3,3,4,4,5,5,6,6,7,7,9,9,10,10,11,11,12,12,13,13,14,14,16,16,17,17,18,18,19,19,22,22,23,23,24,24,25,25,28,28],"right_children":[2,4,6,8,10,12,14,16,-1,18,20,22,24,26,28,-1,30,32,34,36,-1,-1,38,40,42,44,-1,-1,46,-1,-1,-1,-1,-1,-1,-1,-1,-1,-1,-1,-1,-1,-1,-1,-1,-1,-1],"split_conditions":[7.87E0,-8.23E0,-7.97E0,5.77925E1,4.436E1,1.784E1,8.5E0,4.66E0,2.4106765E-2,-4.564E1,-4.262E1,-2.047E1,-3.954E1,-1.36E0,6E0,-4.887136E-2,-1.147E1,8.86E1,4.346E1,1.0179E2,-4.8635516E-2,-4.6450257E-2,9.039E1,-1.0546E2,3.532E1,8.18E0,-4.243037E-2,-4.972218E-2,-5.82E0,-3.9423317E-2,4.7795866E-3,-4.8106562E-2,-6.5096066E-4,3.4745596E-2,7.251668E-2,3.5915986E-2,-1.3727816E-2,1.4046952E-1,-2.7870184E-2,-1.8592156E-2,3.1778675E-2,3.1601757E-2,-4.876528E-2,-3.0017057E-2,7.1020216E-2,8.480174E-3,-4.371623E-2],"split_indices":[1,7,7,5,7,1,1,1,0,1,1,7,7,7,11,0,7,4,3,7,0,0,2,7,1,2,0,0,7,0,0,0,0,0,0,0,0,0,0,0,0,0,0,0,0,0,0],"split_type":[0,0,0,0,0,0,0,0,0,0,0,0,0,0,0,0,0,0,0,0,0,0,0,0,0,0,0,0,0,0,0,0,0,0,0,0,0,0,0,0,0,0,0,0,0,0,0],"sum_hessian":[1.0341251E3,4.9008508E2,5.4404004E2,6.891584E1,4.2116925E2,2.7179843E2,2.7224158E2,6.791175E1,1.0040948E0,3.3546802E2,8.570123E1,3.1679161E1,2.4011928E2,7.6779766E0,2.645636E2,5.740701E1,1.050474E1,1.987397E1,3.1559406E2,5.740779E1,2.829344E1,1.0892451E1,2.078671E1,1.6181099E2,7.830829E1,2.4934094E0,5.1845675E0,2.3294449E2,3.1619122E1,7.9016576E0,2.603082E0,1.8863028E1,1.0109435E0,2.3657501E2,7.901903E1,2.7246496E1,3.0161295E1,1.9600569E1,1.1861415E0,5.0372433E1,1.1143856E2,1.6614054E1,6.1694233E1,1.4367113E0,1.0566981E0,2.3973827E0,2.9221739E1],"tree_param":{"num_deleted":"0","num_feature":"13","num_nodes":"47","size_leaf_vector":"1"}},{"base_weights":[-3.1935994E-2,1.4059202E-1,-6.418026E-1,3.5267118E-1,-6.746277E-2,-2.1911666E-2,-9.530994E-1,2.3141915E-1,7.8518844E-1,9.937162E-2,-8.5386556E-1,-7.9789156E-1,2.2672464E-1,4.7361054E-2,-9.725409E-1,7.566854E-1,1.5916114E-1,-6.0174114E-1,9.447494E-1,2.7884156E-1,-2.6125738E-1,2.579145E-1,-9.463525E-1,4.7718473E-2,-4.7599968E-2,9.630627E-1,-2.3513788E-2,-4.2516565E-1,-4.893167E-2,-1.3939857E-3,7.0915304E-2,1.184315E-2,-1.6168056E-2,7.7625155E-3,-4.3839063E-2,5.3980034E-2,-1.9727545E-2,-1.5140223E-2,2.4079917E-2,-4.411499E-2,-4.819079E-3,4.741132E-2,-3.4704756E-2,-6.79803E-3,-4.8024636E-2,1.574484E-2,9.992718E-2,4.8004597E-2,-1.5756287E-2,-5.4284383E-4,-2.9611696E-2],"categories":[],"categories_nodes":[],"categories_segments":[],"categories_sizes":[],"default_left":[0,0,0,0,0,0,0,0,0,0,0,0,0,0,0,0,0,0,0,0,0,0,0,0,0,0,0,0,0,0,0,0,0,0,0,0,0,0,0,0,0,0,0,0,0,0,0,0,0,0,0],"id":14,"left_children":[1,3,5,7,9,11,13,15,17,19,21,23,25,-1,27,29,31,33,35,37,39,41,43,-1,-1,45,47,49,-1,-1,-1,-1,-1,-1,-1,-1,-1,-1,-1,-1,-1,-1,-1,-1,-1,-1,-1,-1,-1,-1,-1],"loss_changes":[1.0927584E2,3.5750732E1,4.417028E1,2.0854935E1,5.3819187E1,1.5148971E1,6.5525665E0,1.1824535E1,1.9912842E1,2.199926E1,7.625435E0,6.051985E0,1.0992213E1,0E0,8.872986E-2,1.965678E1,1.0496781E1,2.1410685E0,1.4654579E1,2.6879858E1,1.1494707E1,4.797703E0,6.3129425E-1,0E0,0E0,9.521337E0,1.332729E1,2.3129785E-1,0E0,0E0,0E0,0E0,0E0,0E0,0E0,0E0,0E0,0E0,0E0,0E0,0E0,0E0,0E0,0E0,0E0,0E0,0E0,0E0,0E0,0E0,0E0],"parents":[2147483647,0,0,1,1,2,2,3,3,4,4,5,5,6,6,7,7,8,8,9,9,10,10,11,11,12,12,14,14,15,15,16,16,17,17,18,18,19,19,20,20,21,21,22,22,25,25,26,26,27,27],"right_children":[2,4,6,8,10,12,14,16,18,20,22,24,26,-1,28,30,32,34,36,38,40,42,44,-1,-1,46,48,50,-1,-1,-1,-1,-1,-1,-1,-1,-1,-1,-1,-1,-1,-1,-1,-1,-1,-1,-1,-1,-1,-1,-1],"split_conditions":[1.92692E2,-3.7648E1,-3.0598E2,7.227E1,-8.5176E1,2.4243284E1,2.029E1,-3.988E1,3.697176E1,5.29E0,-2.2368E1,3.532E1,2.84496E2,4.7361054E-2,-2.94784E2,-5.1E0,6.0609234E1,4.60325E1,1.2E1,-1.879E1,3.7734733E0,-6.548E0,-1.498E2,4.7718473E-2,-4.7599968E-2,2.54432E2,-9.93316E2,5.10175E1,-4.893167E-2,-1.3939857E-3,7.0915304E-2,1.184315E-2,-1.6168056E-2,7.7625155E-3,-4.3839063E-2,5.3980034E-2,-1.9727545E-2,-1.5140223E-2,2.4079917E-2,-4.411499E-2,-4.819079E-3,4.741132E-2,-3.4704756E-2,-6.79803E-3,-4.8024636E-2,1.574484E-2,9.992718E-2,4.8004597E-2,-1.5756287E-2,-5.4284383E-4,-2.9611696E-2],"split_indices":[8,9,9,3,8,6,1,3,6,1,9,1,8,0,9,1,6,5,12,1,6,8,2,0,0,8,9,5,0,0,0,0,0,0,0,0,0,0,0,0,0,0,0,0,0,0,0,0,0,0,0],"split_type":[0,0,0,0,0,0,0,0,0,0,0,0,0,0,0,0,0,0,0,0,0,0,0,0,0,0,0,0,0,0,0,0,0,0,0,0,0,0,0,0,0,0,0,0,0,0,0,0,0,0,0],"sum_hessian":[1.0366978E3,8.0869244E2,2.2800531E2,4.0012888E2,4.0856354E2,7.658018E1,1.5142513E2,3.1371652E2,8.6412346E1,3.3777798E2,7.078555E1,1.8047108E1,5.8533073E1,1.0502074E0,1.5037492E2,3.6791992E1,2.7692453E2,8.629771E0,7.778257E1,2.2568889E2,1.120891E2,5.2989163E0,6.548663E1,1.039116E0,1.700799E1,1.4123994E1,4.440908E1,2.4344854E0,1.4794043E2,1.7270315E1,1.9521677E1,2.3895421E2,3.797032E1,2.4159372E0,6.2138343E0,7.0843414E1,6.9391613E0,5.820977E1,1.6747913E2,2.2602043E1,8.948706E1,3.073943E0,2.2249734E0,1.3051021E0,6.418153E1,9.488631E0,4.6353626E0,9.631092E0,3.477799E1,1.0056303E0,1.4288552E0],"tree_param":{"num_deleted":"0","num_feature":"13","num_nodes":"51","size_leaf_vector":"1"}},{"base_weights":[-1.1797628E-2,3.5501236E-1,-9.538912E-1,-3.28311E-1,4.1242215E-1,-4.4435567E-1,-9.798304E-1,-5.2302873E-1,2.2481143E0,5.968006E-1,1.992377E-1,-4.6085436E-2,6.6460013E-1,-2.6918054E-1,-9.86878E-1,-5.9986746E-1,3.144727E-1,2.4038939E-1,-8.165095E-2,-8.824744E-1,8.8035005E-1,7.30818E-1,-8.7246925E-1,1.4425223E-1,-5.463998E-1,2.4688104E-2,-3.3927705E-2,-4.6891174E-3,-4.9523458E-2,-4.5716446E-2,-1.830843E-2,-3.7913654E-2,1.027407E-1,2.4612037E-2,-2.7981883E-2,-4.6329897E-2,-8.732234E-3,2.5268897E-2,7.128113E-2,8.713324E-2,2.3645418E-2,-3.3086397E-2,-4.9012113E-2,-3.5353556E-2,-4.2195315E-4],"categories":[],"categories_nodes":[],"categories_segments":[],"categories_sizes":[],"default_left":[0,0,0,0,0,0,0,0,0,0,0,0,0,0,0,0,0,0,0,0,0,0,0,0,0,0,0,0,0,0,0,0,0,0,0,0,0,0,0,0,0,0,0,0,0],"id":15,"left_children":[1,3,5,7,9,11,13,15,17,19,21,-1,23,25,27,29,31,-1,33,35,37,39,41,-1,43,-1,-1,-1,-1,-1,-1,-1,-1,-1,-1,-1,-1,-1,-1,-1,-1,-1,-1,-1,-1],"loss_changes":[3.5845444E2,2.9424828E1,3.4065857E0,3.0485077E1,2.6971046E1,9.035355E0,1.1155701E0,3.7363205E0,2.5998865E1,1.5558032E2,1.8358522E2,0E0,1.6013498E1,1.6103235E0,7.8170776E-1,3.4013882E0,1.1432273E1,0E0,1.1618336E0,1.7078209E0,6.2703995E1,5.5336075E1,1.7799454E0,0E0,3.6699975E-1,0E0,0E0,0E0,0E0,0E0,0E0,0E0,0E0,0E0,0E0,0E0,0E0,0E0,0E0,0E0,0E0,0E0,0E0,0E0,0E0],"parents":[2147483647,0,0,1,1,2,2,3,3,4,4,5,5,6,6,7,7,8,8,9,9,10,10,12,12,13,13,14,14,15,15,16,16,18,18,19,19,20,20,21,21,22,22,24,24],"right_children":[2,4,6,8,10,12,14,16,18,20,22,-1,24,26,28,30,32,-1,34,36,38,40,42,-1,44,-1,-1,-1,-1,-1,-1,-1,-1,-1,-1,-1,-1,-1,-1,-1,-1,-1,-1,-1,-1],"split_conditions":[-4.1012E1,-1.1728E3,-2.0984E1,1.897E1,5.29E0,3.1915E1,1.2160969E0,4.867E1,-5.6E0,-5.61E0,-5.2E0,-4.6085436E-2,4.1507927E1,4.50025E1,-1.133632E3,-1.478E1,-4.96225E1,2.4038939E-1,5.4E-1,4.37E0,-2.72E0,1.465E1,9.21E0,1.4425223E-1,9.569E1,2.4688104E-2,-3.3927705E-2,-4.6891174E-3,-4.9523458E-2,-4.5716446E-2,-1.830843E-2,-3.7913654E-2,1.027407E-1,2.4612037E-2,-2.7981883E-2,-4.6329897E-2,-8.732234E-3,2.5268897E-2,7.128113E-2,8.713324E-2,2.3645418E-2,-3.3086397E-2,-4.9012113E-2,-3.5353556E-2,-4.2195315E-4],"split_indices":[0,8,0,2,1,5,6,7,1,7,7,0,6,5,9,1,5,0,7,1,1,1,1,0,2,0,0,0,0,0,0,0,0,0,0,0,0,0,0,0,0,0,0,0,0],"split_type":[0,0,0,0,0,0,0,0,0,0,0,0,0,0,0,0,0,0,0,0,0,0,0,0,0,0,0,0,0,0,0,0,0,0,0,0,0,0,0,0,0,0,0,0,0],"sum_hessian":[1.0353065E3,7.4561847E2,2.8968802E2,5.7422695E1,6.881958E2,1.4911162E1,2.7477686E2,5.412881E1,3.2938826E0,3.6806506E2,3.2013074E2,1.0542126E1,4.3690367E0,3.0831337E0,2.7169373E2,4.9839867E1,4.2889447E0,1.0626885E0,2.231194E0,5.886333E1,3.0920175E2,2.1420193E2,1.059288E2,1.0540339E0,3.315003E0,1.004648E0,2.0784857E0,1.1967124E0,2.70497E2,2.000672E1,2.9833147E1,3.0025005E0,1.2864443E0,1.0003315E0,1.2308625E0,5.511838E1,3.7449498E0,1.8435301E2,1.24848724E2,4.2338814E1,1.7186311E2,3.8258137E1,6.767066E1,2.3105593E0,1.0044435E0],"tree_param":{"num_deleted":"0","num_feature":"13","num_nodes":"45","size_leaf_vector":"1"}},{"base_weights":[-3.0331561E-2,3.0002767E-1,-9.7515047E-1,6.336389E-2,5.3178406E-1,-2.8408456E-3,-9.7877437E-1,-1.5451749E-1,6.924814E-1,-1.07153915E-1,5.918826E-1,-4.3847044E-3,-4.9120624E-2,-2.0569186E-1,8.4369296E-1,8.8365257E-1,-8.2081445E-2,-5.8534664E-1,8.454905E-1,6.7447734E-1,1.5623584E-1,-1.25463335E-2,2.560002E-2,-1.1330937E-2,7.6888464E-2,4.42715E-3,5.3621393E-2,-2.1923836E-2,1.9958274E-2,1.2107689E-3,-4.167949E-2,7.7841826E-2,-1.3889176E-2,1.9659437E-2,4.1151453E-2,2.1639399E-3,9.929907E-2],"categories":[],"categories_nodes":[],"categories_segments":[],"categories_sizes":[],"default_left":[0,0,0,0,0,0,0,0,0,0,0,0,0,0,0,0,0,0,0,0,0,0,0,0,0,0,0,0,0,0,0,0,0,0,0,0,0],"id":16,"left_children":[1,3,5,7,9,-1,11,13,15,17,19,-1,-1,21,23,25,27,29,31,33,35,-1,-1,-1,-1,-1,-1,-1,-1,-1,-1,-1,-1,-1,-1,-1,-1],"loss_changes":[3.226163E2,4.1974342E1,8.35495E-1,5.22044E1,1.4917145E1,0E0,7.7830505E-1,1.4636048E1,1.4576607E1,1.6030565E1,1.2622246E1,0E0,0E0,8.897717E0,1.075072E1,1.1709663E1,3.6576052E0,3.5454311E0,9.8663435E0,1.2088669E1,1.1834621E1,0E0,0E0,0E0,0E0,0E0,0E0,0E0,0E0,0E0,0E0,0E0,0E0,0E0,0E0,0E0,0E0],"parents":[2147483647,0,0,1,1,2,2,3,3,4,4,6,6,7,7,8,8,9,9,10,10,13,13,14,14,15,15,16,16,17,17,18,18,19,19,20,20],"right_children":[2,4,6,8,10,-1,12,14,16,18,20,-1,-1,22,24,26,28,30,32,34,36,-1,-1,-1,-1,-1,-1,-1,-1,-1,-1,-1,-1,-1,-1,-1,-1],"split_conditions":[-3.016E1,-3.44616E2,5.15E-1,2E1,-1.0546E2,-2.8408456E-3,-1.133632E3,5.27924E2,-6.2704E1,5.86825E1,6E0,-4.3847044E-3,-4.9120624E-2,9.3952E1,-4.62E0,-1.519E1,-7.06624E2,-3.18E0,9.889683E1,-2.21404E2,1.0859E2,-1.25463335E-2,2.560002E-2,-1.1330937E-2,7.6888464E-2,4.42715E-3,5.3621393E-2,-2.1923836E-2,1.9958274E-2,1.2107689E-3,-4.167949E-2,7.7841826E-2,-1.3889176E-2,1.9659437E-2,4.1151453E-2,2.1639399E-3,9.929907E-2],"split_indices":[0,0,6,10,7,0,9,9,9,5,11,0,0,8,3,7,8,3,6,0,4,0,0,0,0,0,0,0,0,0,0,0,0,0,0,0,0],"split_type":[0,0,0,0,0,0,0,0,0,0,0,0,0,0,0,0,0,0,0,0,0,0,0,0,0,0,0,0,0,0,0,0,0,0,0,0,0],"sum_hessian":[1.0316599E3,7.6489435E2,2.6676553E2,3.790705E2,3.8582382E2,1.1141372E0,2.656514E2,2.8211902E2,9.695149E1,3.3103264E1,3.5272058E2,1.1822643E0,2.6446912E2,2.691164E2,1.3002611E1,7.764657E1,1.930492E1,2.2296692E1,1.080657E1,2.9604486E2,5.6675713E1,2.5377199E2,1.5344414E1,5.3799176E0,7.6226935E0,1.5179699E1,6.2466873E1,1.1142232E1,8.162688E0,6.7136793E0,1.5583014E1,6.380164E0,4.426406E0,1.0357268E2,1.9247218E2,5.434448E1,2.3312354E0],"tree_param":{"num_deleted":"0","num_feature":"13","num_nodes":"37","size_leaf_vector":"1"}},{"base_weights":[-1.0450368E-2,3.0260512E-1,-9.656002E-1,1.5918371E-1,5.796159E-1,-3.7977445E-1,-9.767008E-1,-4.1344088E-1,2.2740789E-1,4.5842767E-1,1.0322484E0,4.2094607E-2,-4.0707465E-2,-2.3911108E-1,-4.922346E-2,-5.3585225E-1,1.4746083E0,3.7048915E-1,-1.6495575E-1,6.815748E-1,2.2863226E-1,1.8970033E0,4.07985E-1,2.465307E-2,-3.3019748E-2,-3.9624788E-2,-1.6322069E-2,1.2866522E-1,-8.483241E-3,1.0050547E-2,3.472517E-2,-1.7373972E-2,3.3525888E-2,1.3794164E-2,5.6716204E-2,-1.5449389E-2,2.4411423E-2,-1.9925755E-2,1.1916908E-1,2.3875467E-3,5.2680474E-2],"categories":[],"categories_nodes":[],"categories_segments":[],"categories_sizes":[],"default_left":[0,0,0,0,0,0,0,0,0,0,0,0,0,0,0,0,0,0,0,0,0,0,0,0,0,0,0,0,0,0,0,0,0,0,0,0,0,0,0,0,0],"id":17,"left_children":[1,3,5,7,9,11,13,15,17,19,21,-1,-1,23,-1,25,27,29,31,33,35,37,39,-1,-1,-1,-1,-1,-1,-1,-1,-1,-1,-1,-1,-1,-1,-1,-1,-1,-1],"loss_changes":[3.0903958E2,3.0834053E1,1.2881622E0,2.0184587E1,1.407206E1,4.0713243E0,1.1955872E0,1.3525428E1,2.5894373E1,1.0661922E1,2.9026367E1,0E0,0E0,1.5358939E0,0E0,2.5618353E0,6.9791903E0,1.8393848E1,1.908964E1,1.925312E1,1.4866158E1,2.6483322E1,7.702192E0,0E0,0E0,0E0,0E0,0E0,0E0,0E0,0E0,0E0,0E0,0E0,0E0,0E0,0E0,0E0,0E0,0E0,0E0],"parents":[2147483647,0,0,1,1,2,2,3,3,4,4,5,5,6,6,7,7,8,8,9,9,10,10,13,13,15,15,16,16,17,17,18,18,19,19,20,20,21,21,22,22],"right_children":[2,4,6,8,10,12,14,16,18,20,22,-1,-1,24,-1,26,28,30,32,34,36,38,40,-1,-1,-1,-1,-1,-1,-1,-1,-1,-1,-1,-1,-1,-1,-1,-1,-1,-1],"split_conditions":[-3.016E1,3.532E1,-2.0984E1,-1.1728E3,8.292E1,4.1507927E1,1.2160969E0,1.897E1,7.87E0,6.87E0,9.683E1,4.2094607E-2,-4.0707465E-2,4.60325E1,-4.922346E-2,-1.516232E3,1.36E1,1.6E1,-1.22224E2,-3.18E0,-2.96708E2,3.958602E1,2E1,2.465307E-2,-3.3019748E-2,-3.9624788E-2,-1.6322069E-2,1.2866522E-1,-8.483241E-3,1.0050547E-2,3.472517E-2,-1.7373972E-2,3.3525888E-2,1.3794164E-2,5.6716204E-2,-1.5449389E-2,2.4411423E-2,-1.9925755E-2,1.1916908E-1,2.3875467E-3,5.2680474E-2],"split_indices":[0,3,0,8,2,6,6,2,3,1,2,0,0,5,0,0,5,10,0,1,0,6,10,0,0,0,0,0,0,0,0,0,0,0,0,0,0,0,0,0,0],"split_type":[0,0,0,0,0,0,0,0,0,0,0,0,0,0,0,0,0,0,0,0,0,0,0,0,0,0,0,0,0,0,0,0,0,0,0,0,0,0,0,0,0],"sum_hessian":[1.0315485E3,7.7742615E2,2.541224E2,5.132614E2,2.641647E2,5.3805275E0,2.4874187E2,5.4102654E1,4.5915875E2,2.0996207E2,5.4202644E1,1.1652174E0,4.21531E0,2.9237123E0,2.4581816E2,5.148107E1,2.6215808E0,3.3650348E2,1.2265528E2,1.055245E2,1.0443757E2,2.1869432E1,3.233321E1,1.005617E0,1.9180951E0,2.1880737E1,2.9600336E1,1.2328112E0,1.3887695E0,2.2200328E2,1.14500206E2,1.01142944E2,2.1512337E1,5.6503338E1,4.902116E1,3.3945877E1,7.049169E1,3.8551693E0,1.8014263E1,2.1442863E1,1.0890347E1],"tree_param":{"num_deleted":"0","num_feature":"13","num_nodes":"41","size_leaf_vector":"1"}},{"base_weights":[-1.1883324E-2,2.8541902E-1,-9.561736E-1,7.499723E-2,4.9358714E-1,-2.2319943E-1,-9.63784E-1,-1.2128135E-1,3.9020684E-1,4.7148433E-1,1.8721531E-1,2.4523648E-2,-3.251587E-2,-5.0411654E-1,-4.895179E-2,1.2792937E-1,-3.3473006E-1,2.673406E-1,9.0278006E-1,-1.5325987E-1,5.26134E-1,-7.805885E-1,4.4086907E-2,-2.4175657E-2,1.7358808E-2,-1.823099E-2,6.1982404E-2,-2.3114702E-2,2.0173205E-2,8.392872E-2,-1.7752012E-2,-2.9070085E-2,2.8072989E-2,2.9825155E-2,7.136037E-3,-5.1909103E-4,-4.3951333E-2],"categories":[],"categories_nodes":[],"categories_segments":[],"categories_sizes":[],"default_left":[0,0,0,0,0,0,0,0,0,0,0,0,0,0,0,0,0,0,0,0,0,0,0,0,0,0,0,0,0,0,0,0,0,0,0,0,0],"id":18,"left_children":[1,3,5,7,9,11,13,15,17,19,-1,-1,-1,21,-1,23,25,27,29,31,33,35,-1,-1,-1,-1,-1,-1,-1,-1,-1,-1,-1,-1,-1,-1,-1],"loss_changes":[2.9008902E2,3.4388123E1,1.1650696E0,2.430097E1,2.660746E1,1.490686E0,1.2211456E0,1.2934159E1,9.24752E0,1.3511009E1,0E0,0E0,0E0,4.487609E0,0E0,1.5253372E1,6.6079197E0,1.2398707E1,2.8613638E1,1.0245903E1,9.680443E0,6.5786266E-1,0E0,0E0,0E0,0E0,0E0,0E0,0E0,0E0,0E0,0E0,0E0,0E0,0E0,0E0,0E0],"parents":[2147483647,0,0,1,1,2,2,3,3,4,4,5,5,6,6,7,7,8,8,9,9,13,13,15,15,16,16,17,17,18,18,19,19,20,20,21,21],"right_children":[2,4,6,8,10,12,14,16,18,20,-1,-1,-1,22,-1,24,26,28,30,32,34,36,-1,-1,-1,-1,-1,-1,-1,-1,-1,-1,-1,-1,-1,-1,-1],"split_conditions":[-3.5256E1,-3.37228E2,1.2160969E0,1.7E1,4.2326212E2,3.10052E2,-2.0984E1,8E0,7.346E1,-1.0546E2,1.8721531E-1,2.4523648E-2,-3.251587E-2,-6.45E0,-4.895179E-2,4E0,2.72032E2,-1.641E1,9E0,5.52E1,6E0,3.2183815E1,4.4086907E-2,-2.4175657E-2,1.7358808E-2,-1.823099E-2,6.1982404E-2,-2.3114702E-2,2.0173205E-2,8.392872E-2,-1.7752012E-2,-2.9070085E-2,2.8072989E-2,2.9825155E-2,7.136037E-3,-5.1909103E-4,-4.3951333E-2],"split_indices":[0,0,6,10,6,0,0,10,2,7,0,0,0,7,0,12,8,7,12,5,11,6,0,0,0,0,0,0,0,0,0,0,0,0,0,0,0],"split_type":[0,0,0,0,0,0,0,0,0,0,0,0,0,0,0,0,0,0,0,0,0,0,0,0,0,0,0,0,0,0,0,0,0,0,0,0,0],"sum_hessian":[1.0313303E3,7.8490643E2,2.4642386E2,3.9101675E2,3.938897E2,2.8439543E0,2.4357991E2,2.4134705E2,1.496697E2,3.923669E2,1.522804E0,1.0092556E0,1.8346988E0,8.916048E0,2.3466386E2,1.1153071E2,1.2981635E2,1.21957466E2,2.7712227E1,3.1416422E1,3.6095047E2,7.797272E0,1.118776E0,2.9118568E1,8.241214E1,1.2815178E2,1.6645707E0,1.879868E1,1.0315879E2,1.6933517E1,1.077871E1,1.9763771E1,1.1652651E1,3.0450748E2,5.6442993E1,1.0088919E0,6.78838E0],"tree_param":{"num_deleted":"0","num_feature":"13","num_nodes":"37","size_leaf_vector":"1"}},{"base_weights":[-2.2628078E-2,2.4247463E-1,-3.3660123E-1,-8.6124986E-1,3.8857841E-1,1.7568223E-1,-9.552579E-1,-9.2017555E-1,6.1412126E-2,7.1730983E-1,1.0663376E-1,1.1264242E0,6.709181E-2,-1.608686E-2,-9.595179E-1,-9.342646E-1,-1.4168688E-3,-8.127738E-1,1.2870023E0,4.6508345E-1,-8.690839E-1,-4.532382E-2,2.1069493E0,2.1776594E-1,-9.12032E-1,-3.823934E-1,-4.8184913E-2,-1.9153599E-2,-4.738417E-2,-4.5208048E-2,5.1571894E-2,9.989738E-2,4.03984E-2,-1.0132844E-3,4.979881E-2,9.99391E-3,-4.4708673E-2,-1.9509695E-2,1.2342586E-1,-1.8036282E-2,2.0309212E-2,-1.9593969E-2,-4.851432E-2,-2.7471924E-2,-5.3356594E-4],"categories":[],"categories_nodes":[],"categories_segments":[],"categories_sizes":[],"default_left":[0,0,0,0,0,0,0,0,0,0,0,0,0,0,0,0,0,0,0,0,0,0,0,0,0,0,0,0,0,0,0,0,0,0,0,0,0,0,0,0,0,0,0,0,0],"id":19,"left_children":[1,3,5,7,9,11,13,15,-1,17,19,21,23,-1,25,27,-1,29,31,33,35,-1,37,39,41,43,-1,-1,-1,-1,-1,-1,-1,-1,-1,-1,-1,-1,-1,-1,-1,-1,-1,-1,-1],"loss_changes":[8.5721756E1,9.038852E1,1.4958322E2,9.2062645E0,4.5695724E1,2.6637247E1,2.680359E-1,7.822838E-1,0E0,1.9964304E2,9.379285E1,5.465247E1,3.461429E1,0E0,1.4242554E-1,1.0539627E-1,0E0,1.1453789E1,5.505832E1,5.0505253E1,2.112114E0,0E0,1.7351479E1,2.2270723E1,5.683117E-1,1.9164509E-1,0E0,0E0,0E0,0E0,0E0,0E0,0E0,0E0,0E0,0E0,0E0,0E0,0E0,0E0,0E0,0E0,0E0,0E0,0E0],"parents":[2147483647,0,0,1,1,2,2,3,3,4,4,5,5,6,6,7,7,9,9,10,10,11,11,12,12,14,14,15,15,17,17,18,18,19,19,20,20,22,22,23,23,24,24,25,25],"right_children":[2,4,6,8,10,12,14,16,-1,18,20,22,24,-1,26,28,-1,30,32,34,36,-1,38,40,42,44,-1,-1,-1,-1,-1,-1,-1,-1,-1,-1,-1,-1,-1,-1,-1,-1,-1,-1,-1],"split_conditions":[9.87E0,-1.002E1,-9.08E0,9.53E0,3.05E0,1.784E1,5.15E-1,1.774E2,6.1412126E-2,-3.18E0,-3.18E0,-2.047E1,-1.904E1,-1.608686E-2,-8.78E0,6.32188E0,-1.4168688E-3,2.73E0,2.32E0,-2.526E1,-2.95175E1,-4.532382E-2,-1.145E1,-1.0546E2,2.293E1,9.316666E0,-4.8184913E-2,-1.9153599E-2,-4.738417E-2,-4.5208048E-2,5.1571894E-2,9.989738E-2,4.03984E-2,-1.0132844E-3,4.979881E-2,9.99391E-3,-4.4708673E-2,-1.9509695E-2,1.2342586E-1,-1.8036282E-2,2.0309212E-2,-1.9593969E-2,-4.851432E-2,-2.7471924E-2,-5.3356594E-4],"split_indices":[1,7,7,1,7,1,6,2,0,1,1,7,7,0,7,6,0,7,1,1,5,0,4,7,1,6,0,0,0,0,0,0,0,0,0,0,0,0,0,0,0,0,0,0,0],"split_type":[0,0,0,0,0,0,0,0,0,0,0,0,0,0,0,0,0,0,0,0,0,0,0,0,0,0,0,0,0,0,0,0,0,0,0,0,0,0,0,0,0,0,0,0,0],"sum_hessian":[1.0278942E3,5.574446E2,4.7044968E2,6.459257E1,4.92852E2,2.5774115E2,2.1270853E2,6.3365227E1,1.2273424E0,2.2683322E2,2.6601877E2,2.5459793E1,2.3228134E2,1.9319147E0,2.1077661E2,6.233294E1,1.0322893E0,6.1426598E1,1.6540663E2,1.9493045E2,7.108832E1,8.308822E0,1.7150972E1,2.0197731E2,3.0304031E1,2.1807773E0,2.0859583E2,2.1836622E0,6.0149277E1,5.9012074E1,2.4145231E0,6.530914E1,1.0009749E2,1.02335655E2,9.259479E1,1.4704813E0,6.9617836E1,2.15923E0,1.4991742E1,4.9398132E1,1.5257918E2,3.8303082E0,2.6473722E1,1.1747686E0,1.0060087E0],"tree_param":{"num_deleted":"0","num_feature":"13","num_nodes":"45","size_leaf_vector":"1"}},{"base_weights":[-3.8052768E-2,2.2062322E-1,-9.64375E-1,1.09886594E-1,4.6114922E-1,-2.0785077E-1,-9.728458E-1,-2.9836412E-5,5.422546E-1,5.7051593E-1,1.338511E-1,2.467286E-2,-3.205828E-2,-6.117881E-1,-4.927179E-2,1.735764E-1,-2.3977736E-1,2.6489788E-1,9.9158996E-1,6.273411E-1,-2.134582E-1,2.04906E0,-1.0515823E-2,-4.4285957E-2,2.1714604E-2,-1.525589E-2,1.6195942E-2,-1.7051904E-2,3.8402148E-2,-1.7673232E-2,2.4418728E-2,1.5245454E-1,4.1560948E-2,2.3255229E-2,4.589392E-2,-2.6529256E-2,7.506236E-2,7.7617015E-3,1.4940552E-1,-1.4210264E-2,2.812869E-2],"categories":[],"categories_nodes":[],"categories_segments":[],"categories_sizes":[],"default_left":[0,0,0,0,0,0,0,0,0,0,0,0,0,0,0,0,0,0,0,0,0,0,0,0,0,0,0,0,0,0,0,0,0,0,0,0,0,0,0,0,0],"id":20,"left_children":[1,3,5,7,9,11,13,15,17,19,21,-1,-1,23,-1,25,27,29,31,33,35,37,39,-1,-1,-1,-1,-1,-1,-1,-1,-1,-1,-1,-1,-1,-1,-1,-1,-1,-1],"loss_changes":[2.4772678E2,2.1477974E1,1.243988E0,2.6365675E1,9.03363E0,1.462214E0,4.1036987E-1,1.8493856E1,1.3751503E1,8.618446E0,1.8007025E1,0E0,0E0,3.292601E0,0E0,1.8646107E1,1.9306688E1,9.969645E0,1.1506851E1,7.9554596E0,8.201603E0,7.65403E0,9.80355E0,0E0,0E0,0E0,0E0,0E0,0E0,0E0,0E0,0E0,0E0,0E0,0E0,0E0,0E0,0E0,0E0,0E0,0E0],"parents":[2147483647,0,0,1,1,2,2,3,3,4,4,5,5,6,6,7,7,8,8,9,9,10,10,13,13,15,15,16,16,17,17,18,18,19,19,20,20,21,21,22,22],"right_children":[2,4,6,8,10,12,14,16,18,20,22,-1,-1,24,-1,26,28,30,32,34,36,38,40,-1,-1,-1,-1,-1,-1,-1,-1,-1,-1,-1,-1,-1,-1,-1,-1,-1,-1],"split_conditions":[-3.016E1,-2.03132E2,1.2160969E0,2.1E1,-8.0676E1,4.55325E1,-1.116E1,4.37E0,1.387E1,2.78464E2,8.505065E0,2.467286E-2,-3.205828E-2,3.292E1,-4.927179E-2,-2.526E1,2.72032E2,4E0,-6.785E1,2.714E1,7.47325E1,4.97E0,3.40375E1,-4.4285957E-2,2.1714604E-2,-1.525589E-2,1.6195942E-2,-1.7051904E-2,3.8402148E-2,-1.7673232E-2,2.4418728E-2,1.5245454E-1,4.1560948E-2,2.3255229E-2,4.589392E-2,-2.6529256E-2,7.506236E-2,7.7617015E-3,1.4940552E-1,-1.4210264E-2,2.812869E-2],"split_indices":[0,0,6,10,0,5,0,1,2,8,6,0,0,5,0,1,8,12,3,5,5,2,5,0,0,0,0,0,0,0,0,0,0,0,0,0,0,0,0,0,0],"split_type":[0,0,0,0,0,0,0,0,0,0,0,0,0,0,0,0,0,0,0,0,0,0,0,0,0,0,0,0,0,0,0,0,0,0,0,0,0,0,0,0,0],"sum_hessian":[1.0319554E3,8.07283E2,2.246724E2,5.5378217E2,2.5350089E2,2.7705655E0,2.2190182E2,4.423325E2,1.1144966E2,1.8945227E2,6.404862E1,1.0050782E0,1.7654873E0,9.147975E0,2.1275385E2,2.5671542E2,1.8561705E2,6.98955E1,4.155416E1,1.7683449E2,1.2617776E1,3.564719E0,6.04839E1,7.3710556E0,1.7769191E0,6.1110023E1,1.9560541E2,1.6927115E2,1.6345905E1,1.8400219E1,5.1495277E1,1.7022452E0,3.9851917E1,1.15140625E2,6.1693863E1,1.1231187E1,1.3865889E0,1.5679243E0,1.9967946E0,4.1275913E1,1.9207987E1],"tree_param":{"num_deleted":"0","num_feature":"13","num_nodes":"41","size_leaf_vector":"1"}},{"base_weights":[-1.1959126E-2,2.3771188E-1,-9.5764E-1,1.2332609E-1,5.140968E-1,-2.2652203E-3,-9.620569E-1,-1.0844316E-1,2.6751518E-1,-4.432866E-2,5.5824983E-1,-5.0239986E-1,-4.852676E-2,-3.8361856E-1,5.861138E-2,-3.922239E-1,3.5736987E-1,8.948186E-2,6.8939465E-1,2.4745055E-2,-4.020492E-2,-4.9178313E-2,3.9923578E-3,1.702109E-2,-2.2630198E-2,-4.723253E-2,-5.9070354E-3,3.137305E-2,6.412215E-3,-6.4730095E-3,4.2446308E-2,4.9998105E-2,2.3189291E-2],"categories":[],"categories_nodes":[],"categories_segments":[],"categories_sizes":[],"default_left":[0,0,0,0,0,0,0,0,0,0,0,0,0,0,0,0,0,0,0,0,0,0,0,0,0,0,0,0,0,0,0,0,0],"id":21,"left_children":[1,3,5,7,9,-1,11,13,15,-1,17,19,-1,21,23,25,27,29,31,-1,-1,-1,-1,-1,-1,-1,-1,-1,-1,-1,-1,-1,-1],"loss_changes":[2.4351822E2,2.573391E1,8.244934E-1,1.9360147E1,1.5247265E1,0E0,3.476715E-1,1.025354E1,2.1296944E1,0E0,1.4192574E1,2.1896951E0,0E0,2.3492657E1,2.0230518E1,6.438096E0,1.9390583E1,8.728965E0,1.2220345E1,0E0,0E0,0E0,0E0,0E0,0E0,0E0,0E0,0E0,0E0,0E0,0E0,0E0,0E0],"parents":[2147483647,0,0,1,1,2,2,3,3,4,4,6,6,7,7,8,8,10,10,11,11,13,13,14,14,15,15,16,16,17,17,18,18],"right_children":[2,4,6,8,10,-1,12,14,16,-1,18,20,-1,22,24,26,28,30,32,-1,-1,-1,-1,-1,-1,-1,-1,-1,-1,-1,-1,-1,-1],"split_conditions":[-3.016E1,5.307E1,-1.133632E3,-4.85972E2,2.4243284E1,-2.2652203E-3,-2.0984E1,-3.63E0,-7.03E1,-4.432866E-2,4E0,-1.97744E2,-4.852676E-2,2.73E0,7.87E0,7.007E1,2.91E0,7.36E0,8E0,2.4745055E-2,-4.020492E-2,-4.9178313E-2,3.9923578E-3,1.702109E-2,-2.2630198E-2,-4.723253E-2,-5.9070354E-3,3.137305E-2,6.412215E-3,-6.4730095E-3,4.2446308E-2,4.9998105E-2,2.3189291E-2],"split_indices":[0,3,9,0,6,0,0,1,7,0,12,8,0,7,3,1,4,9,12,0,0,0,0,0,0,0,0,0,0,0,0,0,0],"split_type":[0,0,0,0,0,0,0,0,0,0,0,0,0,0,0,0,0,0,0,0,0,0,0,0,0,0,0,0,0,0,0,0,0],"sum_hessian":[1.0294159E3,8.14996E2,2.1442E2,5.7745447E2,2.3754146E2,1.0873083E0,2.1333269E2,2.2156279E2,3.558917E2,6.676089E0,2.3086537E2,4.9549356E0,2.0837776E2,8.320673E1,1.3835606E2,4.225778E1,3.136339E2,5.083641E1,1.8002896E2,1.0020742E0,3.9528615E0,3.5774765E1,4.743197E1,8.940508E1,4.8950977E1,1.3201995E1,2.9055784E1,1.4315068E2,1.7048325E2,4.0104206E1,1.0732206E1,7.430721E1,1.0572175E2],"tree_param":{"num_deleted":"0","num_feature":"13","num_nodes":"33","size_leaf_vector":"1"}},{"base_weights":[6.3230065E-3,2.4914391E-1,-9.464761E-1,-3.999497E-2,3.4839073E-1,-1.7906861E-1,-9.554425E-1,-2.0261414E-1,2.6263857E-1,2.4190255E-1,6.8786836E-1,2.4731575E-2,-3.1167055E-2,-2.6749365E-3,-9.600467E-1,4.0889555E-1,-2.8132382E-1,-1.4221899E-1,4.604387E-1,-1.1387405E-1,3.2695106E-1,-7.051554E-1,7.80352E-1,-3.5959324E-1,-4.8453182E-2,-2.955803E-2,5.3472985E-2,-2.3477434E-3,-3.0264154E-2,-1.7137328E-2,3.251785E-2,6.358854E-2,9.614058E-3,-2.557504E-2,1.2493229E-2,5.829481E-2,1.1854688E-2,-4.3536577E-2,-1.0644152E-2,1.5619774E-2,4.8167866E-2,2.3027478E-2,-3.6369607E-2],"categories":[],"categories_nodes":[],"categories_segments":[],"categories_sizes":[],"default_left":[0,0,0,0,0,0,0,0,0,0,0,0,0,0,0,0,0,0,0,0,0,0,0,0,0,0,0,0,0,0,0,0,0,0,0,0,0,0,0,0,0,0,0],"id":22,"left_children":[1,3,5,7,9,11,13,15,17,19,21,-1,-1,-1,23,25,27,29,31,33,35,37,39,41,-1,-1,-1,-1,-1,-1,-1,-1,-1,-1,-1,-1,-1,-1,-1,-1,-1,-1,-1],"loss_changes":[2.3763945E2,2.3502232E1,1.2642975E0,1.0391038E1,2.1865776E1,1.3977572E0,8.0397034E-1,6.718779E0,5.980014E0,1.4121691E1,1.9228981E1,0E0,0E0,0E0,7.606964E-1,1.1237161E1,9.245793E0,4.19701E0,1.0601532E1,1.3223652E1,2.8063099E1,5.931802E-1,1.1382996E1,1.7288721E0,0E0,0E0,0E0,0E0,0E0,0E0,0E0,0E0,0E0,0E0,0E0,0E0,0E0,0E0,0E0,0E0,0E0,0E0,0E0],"parents":[2147483647,0,0,1,1,2,2,3,3,4,4,5,5,6,6,7,7,8,8,9,9,10,10,14,14,15,15,16,16,17,17,18,18,19,19,20,20,21,21,22,22,23,23],"right_children":[2,4,6,8,10,12,14,16,18,20,22,-1,-1,-1,24,26,28,30,32,34,36,38,40,42,-1,-1,-1,-1,-1,-1,-1,-1,-1,-1,-1,-1,-1,-1,-1,-1,-1,-1,-1],"split_conditions":[-3.5256E1,4E0,1.2160969E0,-2.39412E2,6.61E1,-7.3744E1,-1.133632E3,-5.79172E2,-1.86796E2,-1.389E1,3.1822157E1,2.4731575E-2,-3.1167055E-2,-2.6749365E-3,-3.016E1,2.91E0,3.8E0,4.8549583E1,2.6402922E1,-9.23E0,-2.884E1,2.9960611E1,2E0,4.0332863E1,-4.8453182E-2,-2.955803E-2,5.3472985E-2,-2.3477434E-3,-3.0264154E-2,-1.7137328E-2,3.251785E-2,6.358854E-2,9.614058E-3,-2.557504E-2,1.2493229E-2,5.829481E-2,1.1854688E-2,-4.3536577E-2,-1.0644152E-2,1.5619774E-2,4.8167866E-2,2.3027478E-2,-3.6369607E-2],"split_indices":[0,12,6,0,3,9,9,9,8,4,6,0,0,0,0,4,1,6,6,2,3,6,11,6,0,0,0,0,0,0,0,0,0,0,0,0,0,0,0,0,0,0,0],"split_type":[0,0,0,0,0,0,0,0,0,0,0,0,0,0,0,0,0,0,0,0,0,0,0,0,0,0,0,0,0,0,0,0,0,0,0,0,0,0,0,0,0,0,0],"sum_hessian":[1.0251243E3,8.1751825E2,2.0760606E2,2.0905852E2,6.084597E2,2.639859E0,2.049662E2,1.3620155E2,7.285697E1,4.644747E2,1.4398503E2,1.0040118E0,1.6358472E0,1.1050884E0,2.0386111E2,1.5053464E1,1.2114809E2,2.4004839E1,4.8852135E1,8.954585E1,3.7492886E2,8.551684E0,1.3543333E2,3.6208613E0,2.0024025E2,6.029784E0,9.02368E0,7.095819E1,5.0189896E1,1.9610733E1,4.3941064E0,1.1205718E1,3.7646416E1,4.258602E1,4.695983E1,3.5114094E1,3.3981476E2,5.8239827E0,2.7277014E0,3.88355E1,9.659785E1,1.0429789E0,2.5778823E0],"tree_param":{"num_deleted":"0","num_feature":"13","num_nodes":"43","size_leaf_vector":"1"}},{"base_weights":[-4.2237723E-3,2.1907438E-1,-9.526181E-1,7.553498E-2,3.5056326E-1,-1.6053917E-1,-9.6228236E-1,-1.12743735E-1,4.747216E-1,-2.8352028E-1,4.2764282E-1,2.4869056E-2,-3.0596334E-2,-1.321021E-3,-9.6724474E-1,-2.3839091E-1,1.3256317E-1,-2.6077887E-1,6.5786713E-1,-9.187458E-1,1.8789974E-1,4.0908816E-1,1.7002693E-1,-5.741182E-1,-4.9090818E-2,-4.432055E-3,-3.6291294E-2,-4.5136068E-2,1.2261945E-2,-4.343618E-2,1.690551E-2,5.6257565E-2,1.932229E-2,-4.8191983E-2,-9.398932E-3,4.4489313E-2,-1.9770289E-2,2.150358E-2,-4.3324325E-2,-4.3847654E-2,3.1153351E-2],"categories":[],"categories_nodes":[],"categories_segments":[],"categories_sizes":[],"default_left":[0,0,0,0,0,0,0,0,0,0,0,0,0,0,0,0,0,0,0,0,0,0,0,0,0,0,0,0,0,0,0,0,0,0,0,0,0,0,0,0,0],"id":23,"left_children":[1,3,5,7,9,11,13,15,17,19,21,-1,-1,-1,23,25,27,29,31,33,35,37,-1,39,-1,-1,-1,-1,-1,-1,-1,-1,-1,-1,-1,-1,-1,-1,-1,-1,-1],"loss_changes":[2.175431E2,1.5666843E1,1.344101E0,3.0026766E1,2.1317493E1,1.3616053E0,8.7171936E-1,8.408937E0,1.7414307E1,1.4428712E1,1.9960518E1,0E0,0E0,0E0,5.370941E-1,1.3081206E1,1.1035402E1,9.845958E0,1.2599503E1,4.9269485E-1,1.1879572E1,1.0699303E1,0E0,3.9094994E0,0E0,0E0,0E0,0E0,0E0,0E0,0E0,0E0,0E0,0E0,0E0,0E0,0E0,0E0,0E0,0E0,0E0],"parents":[2147483647,0,0,1,1,2,2,3,3,4,4,5,5,6,6,7,7,8,8,9,9,10,10,14,14,15,15,16,16,17,17,18,18,19,19,20,20,21,21,23,23],"right_children":[2,4,6,8,10,12,14,16,18,20,22,-1,-1,-1,24,26,28,30,32,34,36,38,-1,40,-1,-1,-1,-1,-1,-1,-1,-1,-1,-1,-1,-1,-1,-1,-1,-1,-1],"split_conditions":[-3.016E1,-3.44616E2,1.2160969E0,1.9E1,-9.18E1,-8.236E1,-1.133632E3,2.9234137E1,-1.306E1,9.138E1,4.2326212E2,2.4869056E-2,-3.0596334E-2,-1.321021E-3,-1.116E1,9.21E0,-1.0429E2,2.214E1,-8.72972E2,1.086E2,7.024863E1,9.244E1,1.7002693E-1,-4.149E1,-4.9090818E-2,-4.432055E-3,-3.6291294E-2,-4.5136068E-2,1.2261945E-2,-4.343618E-2,1.690551E-2,5.6257565E-2,1.932229E-2,-4.8191983E-2,-9.398932E-3,4.4489313E-2,-1.9770289E-2,2.150358E-2,-4.3324325E-2,-4.3847654E-2,3.1153351E-2],"split_indices":[0,0,6,10,7,9,9,6,1,1,6,0,0,0,0,1,1,7,0,3,6,1,0,7,0,0,0,0,0,0,0,0,0,0,0,0,0,0,0,0,0],"split_type":[0,0,0,0,0,0,0,0,0,0,0,0,0,0,0,0,0,0,0,0,0,0,0,0,0,0,0,0,0,0,0,0,0,0,0,0,0,0,0,0,0],"sum_hessian":[1.0252529E3,8.3048535E2,1.9476762E2,3.978013E2,4.3268402E2,2.5600216E0,1.922076E2,2.7079623E2,1.27005066E2,4.6606266E1,3.8607776E2,1.0002347E0,1.5597868E0,1.0471507E0,1.9116045E2,1.7909253E2,9.1703705E1,2.523581E1,1.0176926E2,1.9449589E1,2.7156675E1,3.8481363E2,1.2641225E0,8.276249E0,1.828842E2,1.3790668E2,4.1185852E1,8.312775E0,8.339093E1,1.2299637E1,1.2936173E1,3.6237206E1,6.553205E1,1.8018753E1,1.430836E0,1.2087032E1,1.5069643E1,3.7923795E2,5.575686E0,6.8188653E0,1.4573834E0],"tree_param":{"num_deleted":"0","num_feature":"13","num_nodes":"41","size_leaf_vector":"1"}},{"base_weights":[-9.415778E-3,7.317899E-2,-5.795215E-1,-2.6244493E-2,3.0079812E-1,1.521224E-1,-9.249383E-1,1.0135758E-1,-2.3140742E-1,4.7171524E-1,1.062175E-1,1.079761E0,-1.1150969E-1,4.714791E-2,-9.581221E-1,-8.74045E-1,2.2473581E-1,2.528838E-1,-9.270296E-1,4.9009817E-3,6.529547E-1,2.896813E-1,-2.0142049E-1,1.7382923E0,-3.534649E-2,-5.114007E-1,2.1832901E-1,-1.2052704E-2,-4.8442047E-2,-4.4710033E-2,-6.7968003E-4,5.038568E-2,4.189273E-3,2.318493E-2,-8.428168E-3,-1.3923888E-2,-4.7737785E-2,7.4252956E-2,-8.250969E-3,2.5566315E-2,7.429302E-2,-4.511593E-2,2.1223947E-2,1.3378299E-2,-4.803518E-2,-2.7317867E-2,1.1306224E-1,-4.145737E-2,5.3409697E-3,-4.2124175E-2,3.1733554E-2],"categories":[],"categories_nodes":[],"categories_segments":[],"categories_sizes":[],"default_left":[0,0,0,0,0,0,0,0,0,0,0,0,0,0,0,0,0,0,0,0,0,0,0,0,0,0,0,0,0,0,0,0,0,0,0,0,0,0,0,0,0,0,0,0,0,0,0,0,0,0,0],"id":24,"left_children":[1,3,5,7,9,11,13,15,17,19,21,23,25,-1,27,29,31,33,35,37,39,41,43,45,-1,47,49,-1,-1,-1,-1,-1,-1,-1,-1,-1,-1,-1,-1,-1,-1,-1,-1,-1,-1,-1,-1,-1,-1,-1,-1],"loss_changes":[4.8537506E1,2.0385706E1,3.3105106E1,1.6454216E1,9.056509E0,1.0560576E1,6.4043274E0,4.684781E1,8.1414696E1,1.2305626E1,7.3582697E0,1.2454878E1,4.6159306E0,0E0,4.4049835E-1,7.4629974E-1,3.7981224E1,1.2770255E1,1.5165024E0,1.0731764E1,1.160165E1,1.3467238E1,1.7672735E1,9.91025E0,0E0,3.1794548E0,9.109362E0,0E0,0E0,0E0,0E0,0E0,0E0,0E0,0E0,0E0,0E0,0E0,0E0,0E0,0E0,0E0,0E0,0E0,0E0,0E0,0E0,0E0,0E0,0E0,0E0],"parents":[2147483647,0,0,1,1,2,2,3,3,4,4,5,5,6,6,7,7,8,8,9,9,10,10,11,11,12,12,14,14,15,15,16,16,17,17,18,18,19,19,20,20,21,21,22,22,23,23,25,25,26,26],"right_children":[2,4,6,8,10,12,14,16,18,20,22,24,26,-1,28,30,32,34,36,38,40,42,44,46,-1,48,50,-1,-1,-1,-1,-1,-1,-1,-1,-1,-1,-1,-1,-1,-1,-1,-1,-1,-1,-1,-1,-1,-1,-1,-1],"split_conditions":[2.84496E2,1.8E1,-4.354E1,7.87E0,7.85E0,7.87E0,2.467E1,-8.23E0,-8.23E0,-1.995E1,1.36E0,1.9E1,4.2699184E1,4.714791E-2,3.288E1,2.1290305E2,-2.11E0,7.399E1,1E0,-1.7991E2,1.0512E2,-1.51E0,-3.8E-1,4E0,-3.534649E-2,9E0,-1.4074E2,-1.2052704E-2,-4.8442047E-2,-4.4710033E-2,-6.7968003E-4,5.038568E-2,4.189273E-3,2.318493E-2,-8.428168E-3,-1.3923888E-2,-4.7737785E-2,7.4252956E-2,-8.250969E-3,2.5566315E-2,7.429302E-2,-4.511593E-2,2.1223947E-2,1.3378299E-2,-4.803518E-2,-2.7317867E-2,1.1306224E-1,-4.145737E-2,5.3409697E-3,-4.2124175E-2,3.1733554E-2],"split_indices":[8,10,7,1,4,3,1,7,7,4,7,10,6,0,1,6,7,1,10,4,3,1,1,12,0,12,7,0,0,0,0,0,0,0,0,0,0,0,0,0,0,0,0,0,0,0,0,0,0,0,0],"split_type":[0,0,0,0,0,0,0,0,0,0,0,0,0,0,0,0,0,0,0,0,0,0,0,0,0,0,0,0,0,0,0,0,0,0,0,0,0,0,0,0,0,0,0,0,0,0,0,0,0,0,0],"sum_hessian":[1.0288877E3,8.994504E2,1.2943733E2,6.266262E2,2.728241E2,4.1690437E1,8.77469E1,3.866521E2,2.3997417E2,1.4448557E2,1.2833855E2,8.541139E0,3.31493E1,1.0530825E0,8.669382E1,4.273262E1,3.4391946E2,1.4185286E2,9.81213E1,4.069512E1,1.0379045E2,8.043092E1,4.790762E1,6.260688E0,2.280451E0,1.4734715E1,1.8414585E1,1.622778E0,8.507104E1,4.1716213E1,1.0164039E0,5.152869E1,2.9239078E2,9.44881E1,4.736477E1,4.47555E0,9.364575E1,3.3936522E0,3.7301468E1,9.0086006E1,1.370444E1,7.593004E0,7.283792E1,3.001553E1,1.7892088E1,1.1577983E0,5.1028895E0,9.507143E0,5.227572E0,4.9017377E0,1.3512846E1],"tree_param":{"num_deleted":"0","num_feature":"13","num_nodes":"51","size_leaf_vector":"1"}},{"base_weights":[-2.5440415E-3,1.9678614E-1,-9.582505E-1,8.754291E-2,4.0513393E-1,-1.2482984E-1,-9.690499E-1,2.104856E-1,-1.3643351E-1,1.1364066E-1,5.577103E-1,2.4790196E-2,-2.9395644E-2,-1.1800244E-3,-4.872885E-2,-3.8648665E-2,4.0989104E-1,-8.4233606E-1,8.448958E-2,4.0521154E-1,-3.2499215E-1,-6.4457E-1,6.254758E-1,-1.276191E-2,1.608162E-2,4.2535935E-2,9.091247E-3,-4.5043E-2,1.761006E-2,-3.5596166E-3,3.1481918E-2,1.3976562E-1,1.4700939E-2,-2.9587943E-2,4.672566E-3,4.359826E-2,-4.567492E-2,1.283748E-1,2.8359165E-2],"categories":[],"categories_nodes":[],"categories_segments":[],"categories_sizes":[],"default_left":[0,0,0,0,0,0,0,0,0,0,0,0,0,0,0,0,0,0,0,0,0,0,0,0,0,0,0,0,0,0,0,0,0,0,0,0,0,0,0],"id":25,"left_children":[1,3,5,7,9,11,13,15,17,19,21,-1,-1,-1,-1,23,25,27,29,31,33,35,37,-1,-1,-1,-1,-1,-1,-1,-1,-1,-1,-1,-1,-1,-1,-1,-1],"loss_changes":[1.957217E2,1.9313553E1,1.474823E0,1.5420662E1,1.2929577E1,1.2732495E0,8.9089966E-1,1.7963428E1,3.105799E1,1.3129612E1,1.6006031E1,0E0,0E0,0E0,0E0,1.2686273E1,2.0028244E1,3.6347198E0,1.2965685E1,1.5521173E1,4.6472344E0,5.1648245E0,1.9124298E1,0E0,0E0,0E0,0E0,0E0,0E0,0E0,0E0,0E0,0E0,0E0,0E0,0E0,0E0,0E0,0E0],"parents":[2147483647,0,0,1,1,2,2,3,3,4,4,5,5,6,6,7,7,8,8,9,9,10,10,15,15,16,16,17,17,18,18,19,19,20,20,21,21,22,22],"right_children":[2,4,6,8,10,12,14,16,18,20,22,-1,-1,-1,-1,24,26,28,30,32,34,36,38,-1,-1,-1,-1,-1,-1,-1,-1,-1,-1,-1,-1,-1,-1,-1,-1],"split_conditions":[-2.0984E1,4.09E1,1.2160969E0,4.6275E0,2.714E1,4.826E1,-1.133632E3,-5.6E0,4.402078E0,5.6E0,2.3477196E1,2.4790196E-2,-2.9395644E-2,-1.1800244E-3,-4.872885E-2,-3.10224E2,4.9355717E0,2.2E1,-1.22224E2,2.3477196E1,1.6E1,3.0815E1,4.668E1,-1.276191E-2,1.608162E-2,4.2535935E-2,9.091247E-3,-4.5043E-2,1.761006E-2,-3.5596166E-3,3.1481918E-2,1.3976562E-1,1.4700939E-2,-2.9587943E-2,4.672566E-3,4.359826E-2,-4.567492E-2,1.283748E-1,2.8359165E-2],"split_indices":[0,3,6,5,5,1,9,1,6,2,6,0,0,0,0,0,6,10,0,6,10,5,3,0,0,0,0,0,0,0,0,0,0,0,0,0,0,0,0],"split_type":[0,0,0,0,0,0,0,0,0,0,0,0,0,0,0,0,0,0,0,0,0,0,0,0,0,0,0,0,0,0,0,0,0,0,0,0,0,0,0],"sum_hessian":[1.0254144E3,8.491108E2,1.7630359E2,5.5797E2,2.9114084E2,2.4159467E0,1.7388765E2,3.6027304E2,1.9769693E2,1.0063157E2,1.9050928E2,1.0021651E0,1.4137816E0,1.0412753E0,1.7284637E2,1.6052348E2,1.9974954E2,4.6453617E1,1.512433E2,6.049508E1,4.0136494E1,9.710799E0,1.8079848E2,1.00436066E2,6.0087418E1,6.7175766E1,1.3257378E2,4.451838E1,1.9352369E0,1.1832253E2,3.2920773E1,1.6161615E0,5.8878918E1,2.4257578E1,1.5878915E1,1.1249026E0,8.5858965E0,4.014369E0,1.767841E2],"tree_param":{"num_deleted":"0","num_feature":"13","num_nodes":"39","size_leaf_vector":"1"}},{"base_weights":[-3.8185563E-2,5.199671E-2,-6.9435185E-1,1.5046401E-1,-1.3448738E-1,-7.9577394E-2,-9.1729665E-1,-8.767002E-1,2.6262045E-1,3.0548355E-1,-9.3644637E-1,3.758819E-1,-6.348749E-1,2.4782702E-2,-9.3855786E-1,-9.047823E-1,-2.8263062E-1,7.193133E-1,1.5894936E-1,1.2692319E0,1.8881425E-1,-4.7201958E-2,-4.3532875E-1,-3.7010122E-2,5.988699E-1,-4.385958E-2,-3.9243105E-1,-5.435913E-1,-4.8925236E-2,-4.6053335E-2,-8.9634984E-4,-3.3758026E-2,2.0280225E-2,-3.6423743E-2,1.173466E-1,2.0213692E-2,-3.8256604E-2,-3.140843E-2,1.364269E-1,1.4279199E-2,-3.8899846E-2,-2.5714163E-4,-3.0253207E-2,9.0753965E-2,1.45281E-2,2.3091001E-2,-3.1722095E-2,3.423142E-2,-4.5043077E-2],"categories":[],"categories_nodes":[],"categories_segments":[],"categories_sizes":[],"default_left":[0,0,0,0,0,0,0,0,0,0,0,0,0,0,0,0,0,0,0,0,0,0,0,0,0,0,0,0,0,0,0,0,0,0,0,0,0,0,0,0,0,0,0,0,0,0,0,0,0],"id":26,"left_children":[1,3,5,7,9,11,13,15,17,19,21,23,25,-1,27,29,31,33,35,37,39,-1,41,-1,43,-1,45,47,-1,-1,-1,-1,-1,-1,-1,-1,-1,-1,-1,-1,-1,-1,-1,-1,-1,-1,-1,-1,-1],"loss_changes":[6.065022E1,1.6573862E1,1.690067E1,6.825104E1,1.1038731E2,8.851174E0,3.1925507E0,7.177887E-1,2.512516E1,2.2501562E1,1.058197E-2,5.2556105E0,5.7908344E-1,0E0,8.847275E-1,7.816429E-1,1.3782954E0,2.334455E2,9.909302E1,6.1703377E1,1.7211077E1,0E0,2.5313592E-1,0E0,5.7230167E0,0E0,2.2912798E0,5.2228384E0,0E0,0E0,0E0,0E0,0E0,0E0,0E0,0E0,0E0,0E0,0E0,0E0,0E0,0E0,0E0,0E0,0E0,0E0,0E0,0E0,0E0],"parents":[2147483647,0,0,1,1,2,2,3,3,4,4,5,5,6,6,7,7,8,8,9,9,10,10,11,11,12,12,14,14,15,15,16,16,17,17,18,18,19,19,20,20,22,22,24,24,26,26,27,27],"right_children":[2,4,6,8,10,12,14,16,18,20,22,24,26,-1,28,30,32,34,36,38,40,-1,42,-1,44,-1,46,48,-1,-1,-1,-1,-1,-1,-1,-1,-1,-1,-1,-1,-1,-1,-1,-1,-1,-1,-1,-1,-1],"split_conditions":[2.84496E2,9.87E0,-6.084E1,-1.11E1,-9.08E0,-6.26912E2,2.467E1,-1.188E1,-2.52E0,1.465E1,1.426E2,-1.6375E2,6.903E1,2.4782702E-2,-4.354E1,1.6088E2,4.66E0,2.62E0,2.62E0,-1.462E1,-1.58E1,-4.7201958E-2,-3.7648E1,-3.7010122E-2,-5.6E0,-4.385958E-2,7.764E1,5.257E1,-4.8925236E-2,-4.6053335E-2,-8.9634984E-4,-3.3758026E-2,2.0280225E-2,-3.6423743E-2,1.173466E-1,2.0213692E-2,-3.8256604E-2,-3.140843E-2,1.364269E-1,1.4279199E-2,-3.8899846E-2,-2.5714163E-4,-3.0253207E-2,9.0753965E-2,1.45281E-2,2.3091001E-2,-3.1722095E-2,3.423142E-2,-4.5043077E-2],"split_indices":[8,1,7,7,7,9,1,7,7,1,4,7,1,0,7,2,1,1,1,7,7,0,9,0,3,0,1,1,0,0,0,0,0,0,0,0,0,0,0,0,0,0,0,0,0,0,0,0,0],"split_type":[0,0,0,0,0,0,0,0,0,0,0,0,0,0,0,0,0,0,0,0,0,0,0,0,0,0,0,0,0,0,0,0,0,0,0,0,0,0,0,0,0,0,0,0,0,0,0,0,0],"sum_hessian":[1.0233271E3,9.0048663E2,1.22840454E2,5.8944244E2,3.1104416E2,3.3053032E1,8.978742E1,5.735455E1,5.320879E2,2.0125221E2,1.09791954E2,1.8336441E1,1.4716592E1,1.0002686E0,8.8787155E1,5.426632E1,3.0882306E0,9.734119E1,4.3474673E2,2.0665518E1,1.8058669E2,1.0728257E2,2.509388E0,2.6672134E0,1.5669227E1,6.0508213E0,8.6657715E0,9.496849E0,7.9290306E1,5.324997E1,1.0163491E0,1.9786941E0,1.1095365E0,5.180891E1,4.553228E1,3.4398764E2,9.075909E1,9.231802E0,1.1433717E1,1.6479654E2,1.5790144E1,1.0014815E0,1.5079063E0,2.1804774E0,1.34887495E1,1.7125477E0,6.953223E0,1.9335238E0,7.563325E0],"tree_param":{"num_deleted":"0","num_feature":"13","num_nodes":"49","size_leaf_vector":"1"}},{"base_weights":[-9.802886E-3,1.7002131E-1,-4.771555E-2,6.12537E-2,3.4394783E-1,-7.922077E-2,2.8884485E-1,-9.334088E-2,3.8482735E-1,7.065589E-2,-3.2914266E-1,4.8289604E-2,4.7876838E-1,-4.6706896E-2,4.718753E-1,3.0962712E-1,7.4214256E-1,-4.5022428E-2,1.0677619E-2,1.1303234E-2,-4.6462435E-2,-4.2371575E-2,1.3394177E-2,1.5608932E-2,7.647842E-2,6.77026E-2,-4.969401E-3,-3.6781326E-2,1.9396532E-2,-1.9493605E-3,5.4871112E-2],"categories":[],"categories_nodes":[],"categories_segments":[],"categories_sizes":[],"default_left":[0,0,0,0,0,0,0,0,0,0,0,0,0,0,0,0,0,0,0,0,0,0,0,0,0,0,0,0,0,0,0],"id":27,"left_children":[1,3,-1,5,7,9,11,13,15,17,19,21,23,-1,25,27,29,-1,-1,-1,-1,-1,-1,-1,-1,-1,-1,-1,-1,-1,-1],"loss_changes":[1.7399019E2,1.6259539E1,0E0,1.6989836E1,5.9512367E0,1.2344564E1,9.240446E0,1.4267454E1,7.9067917E0,2.8840961E1,4.135502E1,1.8041399E1,1.933712E1,0E0,9.237491E0,2.0900824E1,1.4455202E1,0E0,0E0,0E0,0E0,0E0,0E0,0E0,0E0,0E0,0E0,0E0,0E0,0E0,0E0],"parents":[2147483647,0,0,1,1,3,3,4,4,5,5,6,6,7,7,8,8,9,9,10,10,11,11,12,12,14,14,15,15,16,16],"right_children":[2,4,-1,6,8,10,12,14,16,18,20,22,24,-1,26,28,30,-1,-1,-1,-1,-1,-1,-1,-1,-1,-1,-1,-1,-1,-1],"split_conditions":[-2.0984E1,1.6E1,-4.771555E-2,-2.1576E2,-9.18E1,4.37E0,-1.58E1,9.469E1,-2.108E1,-4.81E0,-4.25E0,2.029E1,2.64248E2,-4.6706896E-2,2E1,-2.047E1,-4.96272E2,-4.5022428E-2,1.0677619E-2,1.1303234E-2,-4.6462435E-2,-4.2371575E-2,1.3394177E-2,1.5608932E-2,7.647842E-2,6.77026E-2,-4.969401E-3,-3.6781326E-2,1.9396532E-2,-1.9493605E-3,5.4871112E-2],"split_indices":[0,10,0,0,7,1,7,1,8,7,7,1,9,0,10,7,9,0,0,0,0,0,0,0,0,0,0,0,0,0,0],"split_type":[0,0,0,0,0,0,0,0,0,0,0,0,0,0,0,0,0,0,0,0,0,0,0,0,0,0,0,0,0,0,0],"sum_hessian":[1.02244794E3,8.596078E2,1.628401E2,5.2970245E2,3.2990536E2,3.279414E2,2.0176103E2,2.8094536E1,3.0181082E2,2.0545099E2,1.2249043E2,8.95686E1,1.1219244E2,1.1031592E1,1.7062944E1,2.5087785E2,5.093298E1,2.567383E1,1.7977716E2,6.394913E1,5.8541298E1,1.7072203E1,7.24964E1,9.795942E1,1.4233017E1,6.167881E0,1.0895062E1,1.6899271E1,2.3397858E2,1.6201683E1,3.4731297E1],"tree_param":{"num_deleted":"0","num_feature":"13","num_nodes":"31","size_leaf_vector":"1"}},{"base_weights":[-8.364042E-3,1.6601704E-1,-9.4697344E-1,4.4915713E-2,3.509494E-1,-8.375167E-2,-9.5880896E-1,-6.2778145E-2,4.2344853E-1,-1.7731616E-1,4.4725212E-1,2.4855219E-2,-2.8010726E-2,-6.821014E-3,-9.647976E-1,5.235322E-2,-2.5426364E-1,7.000703E-1,4.5019113E-2,-4.8520375E-2,3.1780484E-1,4.8215368E-1,-4.456585E-2,-4.10853E-1,-4.853127E-2,-4.7229975E-2,9.1956165E-3,1.3663637E-2,-4.6147402E-2,1.089587E-2,5.5884894E-2,1.8790668E-2,-2.0175748E-2,-5.711665E-3,4.8056934E-2,2.5278375E-2,-4.1677434E-2,-2.2951598E-4,-2.906203E-2],"categories":[],"categories_nodes":[],"categories_segments":[],"categories_sizes":[],"default_left":[0,0,0,0,0,0,0,0,0,0,0,0,0,0,0,0,0,0,0,0,0,0,0,0,0,0,0,0,0,0,0,0,0,0,0,0,0,0,0],"id":28,"left_children":[1,3,5,7,9,11,13,15,17,19,21,-1,-1,-1,23,25,27,29,31,-1,33,35,-1,37,-1,-1,-1,-1,-1,-1,-1,-1,-1,-1,-1,-1,-1,-1,-1],"loss_changes":[1.6750493E2,1.9313673E1,1.5578766E0,2.133491E1,1.744696E1,1.181929E0,6.469116E-1,9.003684E0,1.210132E1,2.1259737E1,1.3932903E1,0E0,0E0,0E0,1.07299805E-1,3.3685333E1,5.4328064E1,1.3225235E1,7.5722046E0,0E0,9.4491825E0,9.119034E0,0E0,2.303397E-1,0E0,0E0,0E0,0E0,0E0,0E0,0E0,0E0,0E0,0E0,0E0,0E0,0E0,0E0,0E0],"parents":[2147483647,0,0,1,1,2,2,3,3,4,4,5,5,6,6,7,7,8,8,9,9,10,10,14,14,15,15,16,16,17,17,18,18,20,20,21,21,23,23],"right_children":[2,4,6,8,10,12,14,16,18,20,22,-1,-1,-1,24,26,28,30,32,-1,34,36,-1,38,-1,-1,-1,-1,-1,-1,-1,-1,-1,-1,-1,-1,-1,-1,-1],"split_conditions":[-3.016E1,-2.45652E2,1.2160969E0,2.1E1,-8.147E1,3.43616E2,-9.93316E2,4.97E0,-2.46396E2,8.069E1,8.14E1,2.4855219E-2,-2.8010726E-2,-6.821014E-3,-2.5448E1,-5.61E0,-4.44E0,1.31E1,2.8493752E1,-4.8520375E-2,-1.1095E2,3.93836E2,-4.456585E-2,-2.542E1,-4.853127E-2,-4.7229975E-2,9.1956165E-3,1.3663637E-2,-4.6147402E-2,1.089587E-2,5.5884894E-2,1.8790668E-2,-2.0175748E-2,-5.711665E-3,4.8056934E-2,2.5278375E-2,-4.1677434E-2,-2.2951598E-4,-2.906203E-2],"split_indices":[0,0,6,10,7,0,9,1,9,1,1,0,0,0,0,7,7,2,6,0,7,8,0,8,0,0,0,0,0,0,0,0,0,0,0,0,0,0,0],"split_type":[0,0,0,0,0,0,0,0,0,0,0,0,0,0,0,0,0,0,0,0,0,0,0,0,0,0,0,0,0,0,0,0,0,0,0,0,0,0,0],"sum_hessian":[1.02143463E3,8.620925E2,1.5934213E2,5.217029E2,3.4038965E2,2.2644017E0,1.5707773E2,4.0680084E2,1.14902054E2,5.235526E1,2.8803436E2,1.0008918E0,1.2635099E0,1.3074913E0,1.5577025E2,2.5450522E2,1.5229561E2,6.5889015E1,4.9013042E1,1.9753654E1,3.2601604E1,2.8133862E2,6.695761E0,2.3660884E0,1.5340416E2,2.8949133E1,2.2555609E2,8.546341E1,6.68322E1,3.1288311E1,3.46007E1,2.8302244E1,2.0710798E1,1.9995699E1,1.2605905E1,2.770245E2,4.3140945E0,1.0025661E0,1.3635223E0],"tree_param":{"num_deleted":"0","num_feature":"13","num_nodes":"39","size_leaf_vector":"1"}},{"base_weights":[-1.598887E-2,1.4027856E-1,-2.1685262E-1,3.1840643E-1,-3.0873634E-2,-9.9556334E-2,-7.141572E-1,-8.3527297E-1,3.6543235E-1,3.821264E-2,-8.3619183E-1,-2.093066E-2,-5.054637E-1,-9.405044E-2,-9.10983E-1,-3.727952E-1,-4.51279E-2,1.5931681E-1,5.580509E-1,-7.1117795E-1,9.740146E-2,-5.6730416E-2,-9.123495E-1,-2.557399E-1,1.10200085E-1,-2.531035E-1,-8.145578E-1,-4.4629106E-1,4.8813713E-1,-1.9067705E-1,-9.3910277E-1,-4.8586467E-4,-2.6937643E-2,-6.950486E-3,2.0421257E-2,4.433138E-2,1.8966611E-2,-2.2825985E-3,-4.418419E-2,-1.080465E-2,1.0059994E-2,2.445555E-2,-2.7037278E-2,-2.11447E-2,-4.7598902E-2,-5.3822934E-3,-3.353625E-2,9.954783E-3,-3.2111768E-2,-2.5618423E-2,2.4509102E-2,4.1983742E-2,-4.6296228E-2,-2.717443E-4,-3.838596E-2,-3.6902852E-2,5.7441957E-2,2.4318881E-2,-3.1491708E-2,-1.682525E-2,-4.765883E-2],"categories":[],"categories_nodes":[],"categories_segments":[],"categories_sizes":[],"default_left":[0,0,0,0,0,0,0,0,0,0,0,0,0,0,0,0,0,0,0,0,0,0,0,0,0,0,0,0,0,0,0,0,0,0,0,0,0,0,0,0,0,0,0,0,0,0,0,0,0,0,0,0,0,0,0,0,0,0,0,0,0],"id":29,"left_children":[1,3,5,7,9,11,13,15,17,19,21,23,25,27,29,31,-1,33,35,37,39,41,43,45,47,49,51,53,55,57,59,-1,-1,-1,-1,-1,-1,-1,-1,-1,-1,-1,-1,-1,-1,-1,-1,-1,-1,-1,-1,-1,-1,-1,-1,-1,-1,-1,-1,-1,-1],"loss_changes":[3.2093266E1,1.7543747E1,2.602412E1,1.5599607E1,1.6401236E1,1.1578973E1,1.0315174E1,1.6574383E-2,1.0692635E1,1.213083E1,1.3307686E0,9.427262E0,4.3869705E0,4.656885E0,1.1287804E0,1.8424898E-1,0E0,9.909937E0,7.883606E0,2.2587776E0,8.273001E0,1.0938736E0,7.6580048E-3,6.6687994E0,1.3276091E1,6.777765E0,5.570345E0,1.9809544E0,7.845497E0,1.4007528E0,2.0411682E-1,0E0,0E0,0E0,0E0,0E0,0E0,0E0,0E0,0E0,0E0,0E0,0E0,0E0,0E0,0E0,0E0,0E0,0E0,0E0,0E0,0E0,0E0,0E0,0E0,0E0,0E0,0E0,0E0,0E0,0E0],"parents":[2147483647,0,0,1,1,2,2,3,3,4,4,5,5,6,6,7,7,8,8,9,9,10,10,11,11,12,12,13,13,14,14,15,15,17,17,18,18,19,19,20,20,21,21,22,22,23,23,24,24,25,25,26,26,27,27,28,28,29,29,30,30],"right_children":[2,4,6,8,10,12,14,16,18,20,22,24,26,28,30,32,-1,34,36,38,40,42,44,46,48,50,52,54,56,58,60,-1,-1,-1,-1,-1,-1,-1,-1,-1,-1,-1,-1,-1,-1,-1,-1,-1,-1,-1,-1,-1,-1,-1,-1,-1,-1,-1,-1,-1,-1],"split_conditions":[1.31E1,-8.236E1,2.90676E2,-1.267028E3,-4.5748E1,2.306E1,-5.408E1,1E0,-2.3E0,-1.767E1,-6.8176E1,6E0,-1.4384E1,9E0,3.0815E1,8.822205E0,-4.51279E-2,3.7706738E1,2.62E0,1.5756668E1,-1.575E1,3.79E0,-5.1712E1,1.36E0,9.353E1,-9.086E1,-1.22084E3,-6.26912E2,6.471E1,6E0,-4.739E1,-4.8586467E-4,-2.6937643E-2,-6.950486E-3,2.0421257E-2,4.433138E-2,1.8966611E-2,-2.2825985E-3,-4.418419E-2,-1.080465E-2,1.0059994E-2,2.445555E-2,-2.7037278E-2,-2.11447E-2,-4.7598902E-2,-5.3822934E-3,-3.353625E-2,9.954783E-3,-3.2111768E-2,-2.5618423E-2,2.4509102E-2,4.1983742E-2,-4.6296228E-2,-2.717443E-4,-3.838596E-2,-3.6902852E-2,5.7441957E-2,2.4318881E-2,-3.1491708E-2,-1.682525E-2,-4.765883E-2],"split_indices":[4,9,8,8,8,7,7,11,4,7,9,12,9,12,5,6,0,6,4,6,2,2,9,7,2,9,8,9,4,10,7,0,0,0,0,0,0,0,0,0,0,0,0,0,0,0,0,0,0,0,0,0,0,0,0,0,0,0,0,0,0],"split_type":[0,0,0,0,0,0,0,0,0,0,0,0,0,0,0,0,0,0,0,0,0,0,0,0,0,0,0,0,0,0,0,0,0,0,0,0,0,0,0,0,0,0,0,0,0,0,0,0,0,0,0,0,0,0,0,0,0,0,0,0,0],"sum_hessian":[1.020485E3,5.7412805E2,4.4635693E2,2.809093E2,2.9321875E2,3.6214105E2,8.421587E1,1.0345391E1,2.705639E2,2.70929E2,2.2289782E1,3.04257E2,5.788408E1,2.064642E1,6.3569458E1,2.1446764E0,8.200715E0,1.3158536E2,1.3897856E2,1.9025934E1,2.5190305E2,2.1393006E0,2.0150482E1,1.08686775E2,1.955702E2,3.28679E1,2.5016176E1,1.300901E1,7.63741E0,2.6807697E0,6.0888687E1,1.0048482E0,1.1398282E0,6.007857E1,7.150678E1,4.7566288E1,9.141228E1,4.176742E0,1.4849193E1,6.2389854E1,1.895132E2,1.000487E0,1.1388136E0,2.3834682E0,1.7767014E1,8.102951E1,2.765727E1,1.7556383E2,2.0006378E1,2.4598415E1,8.269486E0,1.1654187E0,2.3850758E1,5.9142303E0,7.0947795E0,2.6332648E0,5.004145E0,1.012405E0,1.6683648E0,1.9581162E0,5.8930573E1],"tree_param":{"num_deleted":"0","num_feature":"13","num_nodes":"61","size_leaf_vector":"1"}},{"base_weights":[-1.8626215E-2,1.3962756E-1,-2.4551749E-1,-8.4720665E-1,2.4728106E-1,1.4635247E-1,-9.406914E-1,-8.9420563E-1,3.2485235E-2,-2.3914698E-1,3.8258174E-1,3.70272E-1,-1.6495365E-1,-9.517862E-3,-9.467241E-1,-9.09177E-1,-1.2842873E-3,-9.296561E-1,4.3668017E-2,4.6958068E-1,-9.3767697E-1,-8.954316E-1,5.9966815E-1,2.3023829E-1,-9.585946E-1,-1.46676665E-2,-9.525982E-1,-1.6205562E-2,-4.6174508E-2,-4.9223587E-2,-1.2712692E-2,-4.0025706E-4,8.632085E-2,1.1141092E-2,3.5271183E-2,-4.8627947E-2,-1.0197027E-2,-1.6823402E-2,-4.8469163E-2,6.800168E-2,1.774337E-2,-1.7171826E-2,3.0461732E-2,-5.1587657E-3,-4.9187858E-2,-3.4305356E-2,-4.8490893E-2],"categories":[],"categories_nodes":[],"categories_segments":[],"categories_sizes":[],"default_left":[0,0,0,0,0,0,0,0,0,0,0,0,0,0,0,0,0,0,0,0,0,0,0,0,0,0,0,0,0,0,0,0,0,0,0,0,0,0,0,0,0,0,0,0,0,0,0],"id":30,"left_children":[1,3,5,7,9,11,13,15,-1,17,19,21,23,-1,25,27,-1,29,31,33,35,37,39,41,43,-1,45,-1,-1,-1,-1,-1,-1,-1,-1,-1,-1,-1,-1,-1,-1,-1,-1,-1,-1,-1,-1],"loss_changes":[3.6745647E1,6.426462E1,1.1468064E2,4.7692375E0,3.5921864E1,1.8865261E1,5.065155E-1,7.3264694E-1,0E0,2.3297585E1,4.9408665E1,4.6182243E1,3.5834328E1,0E0,2.9719543E-1,1.7906952E-1,0E0,1.0324879E0,7.443328E0,2.3158424E1,4.8475838E-1,6.874809E-1,2.440163E1,1.6865719E1,7.1512985E-1,0E0,1.5899658E-2,0E0,0E0,0E0,0E0,0E0,0E0,0E0,0E0,0E0,0E0,0E0,0E0,0E0,0E0,0E0,0E0,0E0,0E0,0E0,0E0],"parents":[2147483647,0,0,1,1,2,2,3,3,4,4,5,5,6,6,7,7,9,9,10,10,11,11,12,12,14,14,15,15,17,17,18,18,19,19,20,20,21,21,22,22,23,23,24,24,26,26],"right_children":[2,4,6,8,10,12,14,16,-1,18,20,22,24,-1,26,28,-1,30,32,34,36,38,40,42,44,-1,46,-1,-1,-1,-1,-1,-1,-1,-1,-1,-1,-1,-1,-1,-1,-1,-1,-1,-1,-1,-1],"split_conditions":[9.87E0,-1.002E1,-9.08E0,9.53E0,-2.526E1,7.399E1,5.15E-1,6.67975E1,3.2485235E-2,2.725E1,2.513E1,-7.567E1,-7.567E1,-9.517862E-3,-8.78E0,6.0866685E0,-1.2842873E-3,-2.691E1,4.2326212E2,1.2445032E1,-4.1028E1,4.1087624E1,-5.848E1,-1.2452E2,7.46E1,-1.46676665E-2,-7.06624E2,-1.6205562E-2,-4.6174508E-2,-4.9223587E-2,-1.2712692E-2,-4.0025706E-4,8.632085E-2,1.1141092E-2,3.5271183E-2,-4.8627947E-2,-1.0197027E-2,-1.6823402E-2,-4.8469163E-2,6.800168E-2,1.774337E-2,-1.7171826E-2,3.0461732E-2,-5.1587657E-3,-4.9187858E-2,-3.4305356E-2,-4.8490893E-2],"split_indices":[1,7,7,1,1,1,6,5,0,7,7,7,7,0,7,6,0,1,6,6,8,6,7,7,1,0,8,0,0,0,0,0,0,0,0,0,0,0,0,0,0,0,0,0,0,0,0],"split_type":[0,0,0,0,0,0,0,0,0,0,0,0,0,0,0,0,0,0,0,0,0,0,0,0,0,0,0,0,0,0,0,0,0,0,0,0,0,0,0,0,0,0,0,0,0,0,0],"sum_hessian":[1.02141833E3,6.0195026E2,4.1946805E2,5.853195E1,5.4341833E2,2.687583E2,1.5070975E2,5.7140526E1,1.3914243E0,1.18091736E2,4.253266E2,1.5620914E2,1.1254918E2,1.4616905E0,1.4924805E2,5.612622E1,1.0143061E0,3.3648888E1,8.444285E1,3.9963672E2,2.5689886E1,2.3522E1,1.3268713E2,7.560948E1,3.6939693E1,1.7837454E0,1.4746431E2,1.9049151E0,5.4221306E1,3.0699692E1,2.9491959E0,8.289266E1,1.5501906E0,1.962491E2,2.033876E2,2.4213295E1,1.4765915E0,3.3968382E0,2.0125162E1,3.1205467E1,1.0148167E2,3.0116667E1,4.5492817E1,1.2012889E0,3.5738407E1,1.1429287E1,1.3603502E2],"tree_param":{"num_deleted":"0","num_feature":"13","num_nodes":"47","size_leaf_vector":"1"}},{"base_weights":[5.0430757E-4,6.320191E-2,-5.291055E-1,2.0860192E-1,-7.3656455E-2,2.5597543E-1,-8.278288E-1,1.8440886E-1,1.3977375E0,5.5930417E-2,-6.5830183E-1,-3.3513877E-1,6.654477E-1,4.7886476E-2,-8.641413E-1,-3.4055993E-1,2.2406879E-1,2.0038133E0,-3.6401844E-1,-8.8993084E-1,1.4313719E-1,-1.2405461E-3,-4.864051E-2,3.611221E-1,-4.4206038E-2,-5.96054E-1,1.0337074E0,-4.246561E-1,-4.8521396E-2,3.4117345E-2,-3.5778016E-2,4.941551E-3,2.1905283E-2,-2.516013E-3,1.4894234E-1,-2.6563276E-2,-5.891358E-4,-4.586692E-2,-7.806457E-4,-1.6933082E-2,1.3604321E-2,6.7939274E-2,-3.511663E-2,5.157553E-2,-2.3132326E-2,-5.1189883E-4,-3.7460037E-2,3.1343212E-3,9.9818185E-2,-4.432204E-2,-1.6056923E-3],"categories":[],"categories_nodes":[],"categories_segments":[],"categories_sizes":[],"default_left":[0,0,0,0,0,0,0,0,0,0,0,0,0,0,0,0,0,0,0,0,0,0,0,0,0,0,0,0,0,0,0,0,0,0,0,0,0,0,0,0,0,0,0,0,0,0,0,0,0,0,0],"id":31,"left_children":[1,3,5,7,9,11,13,15,17,19,21,23,25,-1,27,29,31,33,35,37,39,41,-1,43,-1,45,47,49,-1,-1,-1,-1,-1,-1,-1,-1,-1,-1,-1,-1,-1,-1,-1,-1,-1,-1,-1,-1,-1,-1,-1],"loss_changes":[3.389019E1,1.8175049E1,2.5548883E1,1.2479485E1,3.5708687E1,7.615409E0,5.917095E0,9.134528E0,9.993372E0,3.199432E1,1.7668518E1,5.3508554E0,9.153749E0,0E0,3.2060013E0,1.23628235E1,1.08159275E1,1.3386854E1,1.7441916E-1,7.7048874E-1,2.2121513E1,2.8301039E1,0E0,4.0741854E0,0E0,4.2179108E-1,1.3513846E1,3.028176E0,0E0,0E0,0E0,0E0,0E0,0E0,0E0,0E0,0E0,0E0,0E0,0E0,0E0,0E0,0E0,0E0,0E0,0E0,0E0,0E0,0E0,0E0,0E0],"parents":[2147483647,0,0,1,1,2,2,3,3,4,4,5,5,6,6,7,7,8,8,9,9,10,10,11,11,12,12,14,14,15,15,16,16,17,17,18,18,19,19,20,20,21,21,23,23,25,25,26,26,27,27],"right_children":[2,4,6,8,10,12,14,16,18,20,22,24,26,-1,28,30,32,34,36,38,40,42,-1,44,-1,46,48,50,-1,-1,-1,-1,-1,-1,-1,-1,-1,-1,-1,-1,-1,-1,-1,-1,-1,-1,-1,-1,-1,-1,-1],"split_conditions":[2.84496E2,-8.236E1,-5.79172E2,-8.7812E1,1.349E1,4.2699184E1,2.557E1,-1.1095E2,2.2495E1,-1.361E1,-1.413E1,6.704E1,-1.4074E2,4.7886476E-2,-4.739E1,2.9116E1,-4.1028E1,1.3370634E1,-1.1196E1,4.35625E1,-1.992E1,-1.97744E2,-4.864051E-2,4.8554E2,-4.4206038E-2,8E1,6.0882E2,4.35625E1,-4.8521396E-2,3.4117345E-2,-3.5778016E-2,4.941551E-3,2.1905283E-2,-2.516013E-3,1.4894234E-1,-2.6563276E-2,-5.891358E-4,-4.586692E-2,-7.806457E-4,-1.6933082E-2,1.3604321E-2,6.7939274E-2,-3.511663E-2,5.157553E-2,-2.3132326E-2,-5.1189883E-4,-3.7460037E-2,3.1343212E-3,9.9818185E-2,-4.432204E-2,-1.6056923E-3],"split_indices":[8,9,9,9,1,6,1,7,5,7,7,2,7,0,7,8,8,6,8,5,1,8,0,8,0,2,8,5,0,0,0,0,0,0,0,0,0,0,0,0,0,0,0,0,0,0,0,0,0,0,0],"split_type":[0,0,0,0,0,0,0,0,0,0,0,0,0,0,0,0,0,0,0,0,0,0,0,0,0,0,0,0,0,0,0,0,0,0,0,0,0,0,0,0,0,0,0,0,0,0,0,0,0,0,0],"sum_hessian":[1.01861993E3,9.1158325E2,1.0703669E2,4.417444E2,4.6983887E2,2.9541409E1,7.749528E1,4.340683E2,7.676078E0,3.853338E2,8.450505E1,1.2163588E1,1.7377821E1,1.0388384E0,7.645644E1,2.9956356E1,4.0411194E2,5.6090636E0,2.0670142E0,3.1751045E1,3.5358276E2,2.7680252E1,5.68248E1,5.513343E0,6.650245E0,3.7869084E0,1.3590913E1,1.5862378E1,6.0594063E1,7.816183E0,2.2140173E1,2.5586269E2,1.4824925E2,2.1107252E0,3.4983387E0,1.0569099E0,1.0101043E0,3.0738276E1,1.0127696E0,7.4309715E1,2.7927304E2,9.096379E0,1.8583874E1,2.9006166E0,2.6127262E0,1.0059197E0,2.7809885E0,7.2963157E0,6.294597E0,6.71026E0,9.152119E0],"tree_param":{"num_deleted":"0","num_feature":"13","num_nodes":"51","size_leaf_vector":"1"}},{"base_weights":[-1.219951E-2,1.3503964E-1,-9.120865E-1,-3.3806942E-2,2.1882388E-1,-2.3020882E-2,-9.2493576E-1,-5.414884E-1,4.189193E-2,2.0782615E-1,1.8106154E0,2.4856115E-2,-2.582728E-2,-4.7812784E-1,-4.783229E-2,7.788599E-2,-8.584869E-1,-4.752773E-1,1.285523E-1,3.108901E-1,8.226155E-2,6.9135125E-3,1.4583479E-1,-4.3767E-2,2.6904583E-1,-2.1827748E-2,1.22680664E-1,-4.6627942E-2,6.421514E-3,1.8371811E-2,-3.1802293E-2,1.3206693E-2,-1.02423355E-2,-4.462568E-2,2.230094E-2,1.6551642E-2,-4.4215415E-2,8.427971E-2,-3.5822745E-2],"categories":[],"categories_nodes":[],"categories_segments":[],"categories_sizes":[],"default_left":[0,0,0,0,0,0,0,0,0,0,0,0,0,0,0,0,0,0,0,0,0,0,0,0,0,0,0,0,0,0,0,0,0,0,0,0,0,0,0],"id":32,"left_children":[1,3,5,7,9,11,13,15,17,19,21,-1,-1,23,-1,25,27,29,31,33,35,-1,-1,-1,37,-1,-1,-1,-1,-1,-1,-1,-1,-1,-1,-1,-1,-1,-1],"loss_changes":[1.347479E2,1.2372287E1,1.6122894E0,1.1196155E1,9.852648E0,1.0430093E0,1.5394211E0,7.488186E0,1.1442362E1,7.498783E0,6.7730474E0,0E0,0E0,3.6006362E0,0E0,1.7830736E1,1.9535694E0,5.200245E0,9.921202E0,5.2266296E1,6.364358E1,0E0,0E0,0E0,7.7695527E0,0E0,0E0,0E0,0E0,0E0,0E0,0E0,0E0,0E0,0E0,0E0,0E0,0E0,0E0],"parents":[2147483647,0,0,1,1,2,2,3,3,4,4,5,5,6,6,7,7,8,8,9,9,10,10,13,13,15,15,16,16,17,17,18,18,19,19,20,20,24,24],"right_children":[2,4,6,8,10,12,14,16,18,20,22,-1,-1,24,-1,26,28,30,32,34,36,-1,-1,-1,38,-1,-1,-1,-1,-1,-1,-1,-1,-1,-1,-1,-1,-1,-1],"split_conditions":[-3.5256E1,-4.85972E2,1.2160969E0,2.9322958E0,4.2326212E2,5.018E1,-1.116E1,-8.95588E2,-3.059E1,5.9E0,1.1E1,2.4856115E-2,-2.582728E-2,6.005E1,-4.783229E-2,2E1,-2.83708E2,1E0,1.31E1,-6.02E0,-5.2E0,6.9135125E-3,1.4583479E-1,-4.3767E-2,5.5917534E1,-2.1827748E-2,1.22680664E-1,-4.6627942E-2,6.421514E-3,1.8371811E-2,-3.1802293E-2,1.3206693E-2,-1.02423355E-2,-4.462568E-2,2.230094E-2,1.6551642E-2,-4.4215415E-2,8.427971E-2,-3.5822745E-2],"split_indices":[0,0,6,6,6,1,0,0,4,1,12,0,0,4,0,10,8,11,4,7,7,0,0,0,6,0,0,0,0,0,0,0,0,0,0,0,0,0,0],"split_type":[0,0,0,0,0,0,0,0,0,0,0,0,0,0,0,0,0,0,0,0,0,0,0,0,0,0,0,0,0,0,0,0,0,0,0,0,0,0,0],"sum_hessian":[1.0150465E3,8.730486E2,1.4199792E2,2.8974173E2,5.833068E2,2.0627666E0,1.3993517E2,3.679818E1,2.5294356E2,5.804272E2,2.8796299E0,1.0007505E0,1.062016E0,1.0338552E1,1.295966E2,1.2712969E1,2.4085209E1,3.5658348E1,2.1728522E2,3.179646E2,2.6246262E2,1.5942312E0,1.2853986E0,6.6380825E0,3.7004702E0,1.1121055E1,1.5919138E0,2.2454958E1,1.6302522E0,5.506896E0,3.0151453E1,1.5461609E2,6.266913E1,3.1533602E1,2.86431E2,2.0926141E2,5.3201214E1,1.2267538E0,2.4737163E0],"tree_param":{"num_deleted":"0","num_feature":"13","num_nodes":"39","size_leaf_vector":"1"}},{"base_weights":[-1.4598198E-2,1.2567675E-1,-9.223241E-1,2.4840865E-2,3.302937E-1,-1.1125734E-2,-9.359699E-1,-1.1411893E-1,2.147595E-1,-8.600945E-2,3.881683E-1,2.4771402E-2,-2.5364453E-2,-5.572569E-1,-9.6226656E-1,6.8343684E-2,-2.9377553E-1,-3.6948755E-1,2.8043917E-1,-8.30637E-1,4.81703E-1,1.8999114E0,3.6625728E-1,-4.44531E-2,3.8885835E-1,-3.9966647E-3,-4.8498776E-2,-4.484545E-3,2.832459E-2,3.5173144E-2,-1.722501E-2,-3.918557E-3,-3.8182586E-2,2.6274005E-2,2.616243E-3,-4.750211E-2,2.1154251E-2,8.703529E-2,1.2002057E-2,-8.676188E-3,1.6809092E-1,1.928914E-2,-3.9912425E-2,-3.0857E-2,7.449837E-2],"categories":[],"categories_nodes":[],"categories_segments":[],"categories_sizes":[],"default_left":[0,0,0,0,0,0,0,0,0,0,0,0,0,0,0,0,0,0,0,0,0,0,0,0,0,0,0,0,0,0,0,0,